1172 100
the 0.23043258 -0.4385248 -0.37657312 0.17450744 0.26903737 0.40649036 0.31266615 -0.023134107 -0.15661937 -0.5278704 0.25412172 0.012224238 0.3637008 -0.075676635 0.088327564 -0.03779925 -0.019635476 0.3700254 0.24868092 -0.328208 0.32929972 -0.04470715 0.33250815 -0.49597308 0.57583433 -0.3197566 -0.65864354 -0.018575411 0.08862283 0.41282138 0.006832221 0.13997854 -0.8505149 0.10898874 -0.22127096 0.34212944 -0.15438923 0.32746658 -0.10118797 -0.8111231 -0.1684429 0.035504863 0.18703797 0.017969292 0.0749427 -0.44144088 0.010432246 0.09400592 -0.08096966 0.20831305 0.21403587 0.24127942 0.14293349 -0.06445635 0.21525346 -0.06380581 -0.100453675 -0.12610526 0.2978933 0.046353113 0.20758426 0.03334703 0.18179458 0.10004987 0.45602936 0.2856863 -0.19720489 -0.2037049 -0.2786646 0.45500857 0.42275572 -0.013838616 0.28947023 -0.29198858 0.17028882 0.045136485 0.302087 0.24959096 0.2891522 0.12698287 0.20103377 0.34416854 -0.08430601 -0.061319944 -0.13248938 -0.19443834 -0.022402445 -0.09569383 0.3199612 -0.11212188 -0.13082783 0.117011644 -0.06611285 -0.32646325 -0.092268065 -0.3483951 0.25233248 -0.50104445 -0.06604374 -0.23546705
to 0.4495074 -0.52150893 0.134069 0.015697083 0.35248998 0.30332112 0.11580557 0.19721448 0.0007710693 -0.59258616 0.15820763 -0.47894835 0.28914168 -0.3105158 0.4149805 0.24347837 -0.010946733 0.494024 0.17570879 0.105601124 0.12157873 0.11414382 0.20167385 -0.35854197 0.560811 -0.13610643 -0.18107551 -0.006313412 -0.07913547 0.1927185 0.19746019 0.1431899 -0.40221995 0.06676099 -0.15265724 0.1515151 -0.18867414 0.040140904 -0.03366851 -0.44682416 -0.28261092 -0.030389903 0.036760427 0.049644202 -0.16534083 -0.17399997 0.062348943 0.11022071 -0.53477716 0.08271396 -0.029976266 0.23080826 0.0959756 -0.2859576 0.29965127 0.12063758 -0.43587527 0.24521945 0.33435613 0.022736778 0.21966408 -0.08281276 0.39143 0.14403024 0.49323064 0.08284656 -0.04527319 0.14472152 -0.37429002 0.40779677 0.12243936 0.10907404 0.6014856 0.22821733 0.42820275 0.02484083 0.21304238 0.024762604 0.1645249 -0.07072057 0.054219726 0.0836671 0.17614926 0.102326855 -0.34864345 -0.38891393 0.08808459 0.018902248 0.43281192 -0.038230523 -0.25041306 0.020616947 -0.10252568 -0.124873824 -0.19742705 -0.49568647 -0.28609747 -0.26571208 0.041720312 -0.17514853
link 0.36854303 -0.7790618 -0.47365075 0.12263543 0.09587174 0.8167027 0.22772685 -0.11068908 -0.11682922 -0.5808046 -0.13691835 -0.1331073 0.18382636 0.25158814 0.22216472 -0.26106086 0.22033912 0.11321355 0.32558945 -0.34590697 0.39041454 -0.24790117 0.22722763 -0.7085322 0.68611884 -0.41966146 -0.38006467 -0.106798984 0.24047203 0.23885179 -0.40224466 -0.17890085 -0.80082846 -0.32900184 -0.3242837 0.33298007 -0.24336131 0.38816398 -0.23271938 -0.6934104 -0.054011844 0.16821744 0.46026888 0.426822 -0.09956781 -0.17120548 0.17596176 0.15941359 -0.41865727 0.22153746 -0.0044051125 -0.21814544 0.061189827 0.0134425005 0.31610766 0.29030633 -0.029748036 0.09785446 -0.22144409 0.27005684 0.5740531 -0.24754937 0.35801357 0.14616886 -0.15466662 0.3066063 -0.11423341 -0.6133821 0.16601925 -0.2194976 0.7477207 -0.0376383 -0.09658601 -0.23575625 0.06858313 -0.23418775 0.52752376 0.10720006 0.68310714 0.21555929 0.32001323 0.3100614 0.1636932 -0.31213 -0.36375803 0.027457163 -0.24618182 -0.023374453 0.13293622 0.14576834 -0.0735351 0.6825997 -0.11076078 -0.47095108 -0.40200573 -0.20390368 0.25256 -0.2249682 -0.017950853 -0.23997654
ipad 0.3523916 -0.43343532 -0.083720654 0.13158834 0.5121972 0.4689209 0.326728 -0.0035310166 -0.05808518 -0.53258675 0.18118985 -0.32895932 0.35939166 -0.060815267 0.16765048 -0.0052085905 -0.037122108 0.27968103 0.14393565 -0.10210382 0.26613656 -0.07655633 0.34564513 -0.585836 0.49449787 -0.42689958 -0.4977256 -0.18976909 0.13259465 0.552997 -0.035822 0.087534174 -0.6234993 0.192774 -0.10997258 0.2587715 -0.24604882 0.40372974 -0.097133115 -0.60083884 -0.24729402 0.14157641 0.11237285 -0.1029625 -0.08446078 -0.31199571 -0.07476706 0.05195745 -0.3239584 0.14866632 0.16785097 0.3023814 0.1276972 -0.18514803 0.20228568 0.02349687 -0.13309142 0.10627216 0.29741007 0.057186026 0.12904842 0.16235143 0.080138676 0.11489412 0.47398376 0.25558642 -0.15934946 -0.07283925 -0.19508284 0.3701131 0.39232126 -0.0671469 0.37871358 -0.13194254 0.4292393 0.07008989 0.4748076 0.21473326 0.22785553 0.0011495455 -0.010591165 0.2917112 0.14649604 -0.08179653 -0.071534194 -0.21129042 -0.11421629 -0.09152845 0.33070388 -0.023679428 -0.091420345 0.17635828 -0.09029301 -0.36551955 -0.32984197 -0.54510605 0.072273634 -0.3311992 0.07965586 -0.15264589
at -0.014221061 -0.59066814 -0.14993301 -0.13936222 0.45429334 0.3169959 0.26806512 -0.131949 -0.13290124 -0.575144 -0.01453957 -0.2711281 0.15748754 0.1459878 0.28936043 0.118048 -0.11263306 0.333619 0.16032705 -0.23309746 0.3327988 0.0532037 0.30235448 -0.49863598 0.67888755 -0.39660817 -0.471794 -0.1265147 0.12576556 0.39226502 0.1260229 -0.12779962 -0.8293179 0.124733664 0.034821197 0.22192493 -0.2693236 0.2059026 0.1674384 -0.34988266 -0.15735321 0.038581952 0.16926523 -0.093650736 0.02622404 -0.12665321 -0.115477055 0.21300633 -0.3074084 0.37466064 0.099584915 0.2376957 0.12466296 -0.22738849 0.29128584 -0.14473332 0.057034478 -0.08828663 0.4114075 -0.052501686 0.17422967 0.16167141 0.24082495 0.008225851 0.40292934 0.28535104 -0.13647224 -0.2156021 -0.29257774 0.32916626 0.46865374 -0.06256851 0.24107996 0.017136177 0.11228601 0.05881852 0.1587813 0.07023396 0.34195557 -0.0076894728 0.05461439 0.30611578 -0.06306223 -0.1268397 -0.05077066 -0.1257468 -0.25111818 -0.2921987 0.12913516 0.14674133 -0.09622615 0.07663777 -0.1894339 -0.16555527 -0.17313057 -0.35515448 0.28487015 -0.49869627 0.059313927 -0.24809982
for 0.51887184 -0.54123825 -0.38451573 0.4000256 0.46465454 0.61692774 0.33530384 -0.04175031 -0.13516538 -0.4862371 0.2593951 -0.024170395 0.33049366 -0.013732595 0.123371914 -0.22119355 -0.052378677 0.2668756 0.17008194 -0.29408655 0.28060246 -0.30933928 0.39965954 -0.72000915 0.40274256 -0.49022242 -0.67516696 -0.11076799 0.11164716 0.6194576 -0.10005036 0.07252614 -0.9447986 0.1712334 -0.16586478 0.30910265 -0.1595071 0.66514224 -0.31081748 -0.9792091 -0.120480046 0.21662918 0.23689647 0.1102375 -0.11125171 -0.43199265 -0.013306482 0.004330877 -0.28913364 0.031360228 0.23375139 0.24959943 0.2256955 0.10077566 0.17863055 0.08839586 -0.09347071 0.021499928 0.08839894 0.06234024 0.23123942 0.17373621 0.13121419 0.16972291 0.29300994 0.16297914 -0.21485442 -0.28288406 -0.109207585 0.35373554 0.4729638 -0.10180678 0.24253045 -0.485391 0.2687362 -0.07356352 0.63454103 0.29410103 0.42889443 0.27499083 0.23165666 0.27475578 -0.008201239 -0.12147496 -0.1531326 -0.19535029 -0.11312697 0.0057211304 0.24270765 -0.09893043 -0.17326984 0.27883673 0.023431262 -0.5117514 -0.16559951 -0.44908026 0.22145124 -0.447748 -0.12040822 -0.23395169
apple -0.29196632 -1.2996726 -0.40712425 -0.7204977 0.7719324 1.0100702 0.43842775 0.13749152 -0.51682997 -1.686087 -0.038907766 -0.44933477 -0.09917715 -0.17161077 0.59739655 0.42545596 0.57131594 0.8119955 0.8106674 -0.3495929 0.6469126 -0.01725287 0.57678133 -0.50879717 1.3692583 -1.0231682 -0.46228263 0.113276504 -0.1026313 0.6552047 -0.04701259 -0.6823759 -1.6695502 0.506365 -0.41896018 0.74580705 -0.68020624 0.17671756 0.23822635 -0.57583594 -0.61485904 -0.24836744 0.6520242 0.47267038 0.1270603 0.21429639 -0.1386268 0.96650136 -1.0394247 0.5113382 0.32477823 0.26601171 -0.23669052 -0.38650426 0.4328369 0.20310977 0.4173263 0.007236448 0.7528689 0.3232708 0.2945981 -0.074826136 0.72803086 0.1849738 0.4154266 0.06079609 0.17359278 -0.62464505 -0.5914673 0.37371737 1.0575633 -0.42420596 0.07325347 0.016491793 -0.25819156 0.21992534 -0.29669946 -0.06152325 0.38322082 0.29548135 0.2715635 0.72026026 -0.18366861 -0.20443246 -0.42517304 -0.60375893 -0.29456735 -0.05455993 -0.2011306 0.12763739 -0.39276356 0.21339883 -0.0699444 -0.3880363 -0.5353287 -0.43717352 0.29916245 -0.88281685 0.31179917 -0.2937619
is 0.16403769 -0.42258283 -0.0016644521 0.48315498 0.2234737 0.10438056 0.16161269 -0.17945586 -0.23080546 -0.28533018 0.13109182 -0.06735606 0.24245237 0.21883944 0.13886388 0.099634886 -0.1027135 0.23823634 0.0070653334 0.039142724 0.25558436 0.19578768 0.12693824 -0.49169415 0.41764575 -0.03977579 -0.121680506 0.013414376 0.060427554 0.24367303 0.34255955 0.12197142 -0.5147552 -0.028394321 0.025678914 0.08633034 -0.05346042 -0.11505133 -0.065186895 -0.45826817 -0.2089352 -0.028059335 -0.11585658 0.078563966 -0.07193066 -0.2580467 -0.021561233 0.33065864 -0.27538028 0.1459822 0.1926427 0.1565014 -0.11689562 -0.1484343 0.25418064 -0.4226499 -0.0612551 -0.24541397 0.23642004 -0.10055871 0.26294908 0.26436028 0.06869607 -0.030661175 0.15485203 0.17998256 -0.070535384 -0.09201014 -0.22752485 0.014890571 0.20885181 -0.14878942 0.26997626 0.037511766 0.02935322 -0.047107883 0.17181297 -0.1634447 0.21799645 0.016720107 0.12591253 0.2785422 -0.22299641 -0.15914091 -0.28885615 -0.09262731 -0.07838722 -0.03735267 0.24213581 0.12354142 -0.16393062 0.020754976 -0.14783068 -0.054171093 0.07660543 -0.21187419 0.5194301 -0.19792931 -0.08326701 -0.28965068
google 0.5702641 -0.13334318 -0.09996737 1.3868394 -0.9079274 -0.2424037 -0.056398034 -0.10526305 -0.39550662 0.23617534 0.21268171 -0.07531862 0.655424 0.65711975 -0.067019194 0.18808278 0.19136742 -0.059757542 -0.09446366 0.5286656 0.19530837 0.53138787 -0.6387886 -0.7022669 0.42654756 0.75847447 0.08915293 0.009705127 0.39089882 -0.6099954 0.44332516 0.6196093 0.7393892 -1.0815396 -0.39119792 -0.23777921 0.22363715 -1.0897593 -0.017550962 -0.8710431 -0.101258315 0.041508984 -0.46355557 -0.02869018 -0.31959268 -0.7322469 0.6103068 0.32981846 0.23553286 0.116772935 -0.3104501 -0.44541925 -0.54397655 -0.5931693 0.47293085 -0.6963142 -0.42176765 -0.435188 -0.50919664 0.15118214 0.7855772 -0.38712662 -0.225871 -0.18927506 -0.04025782 0.7021035 0.023749439 0.038595546 0.27263665 -0.78577757 -0.1597606 -0.0019005935 0.31111637 0.33964694 0.31601608 -0.5346528 0.5602526 -0.54237735 0.40880466 -0.20392075 0.033449985 0.36569494 -0.088296086 -0.17476936 -1.0548048 0.6398896 0.39791122 0.27649125 1.0330424 0.006783056 0.0797099 0.60943586 -0.48349312 0.15260789 0.25914904 -0.048792325 0.4995137 0.33277813 -0.3716789 -0.5148116
of 0.0773395 -0.30324328 -0.14176399 0.40965763 0.012654466 -0.06443174 0.13785455 0.0295009 -0.31841746 -0.38573122 0.21418412 -0.18109766 0.4697343 -0.011061669 0.10688168 0.11911544 0.18085812 0.38248512 0.12403061 0.04549029 0.22394061 0.26019397 -0.0052811853 -0.37486285 0.48547885 0.0818555 -0.18989585 -0.06257992 0.087176986 -0.16578548 0.3364931 0.2681831 -0.3078004 -0.24854964 -0.088848084 0.16622579 -0.07487019 -0.28787068 0.2027647 -0.48006827 -0.30634102 -0.11583485 -0.20703067 -0.11595639 0.030417027 -0.34574082 0.317761 0.42356807 -0.08900169 0.07303995 0.1580526 0.18583338 -0.17791308 -0.40976414 0.19917119 -0.45385453 -0.11710635 -0.32389706 0.16724966 -0.010247021 0.3024163 -0.08368766 0.1450607 -0.3090391 0.44095114 0.44715595 -0.0316958 0.09725426 -0.32570127 0.15474895 -0.00025787557 0.024858195 0.3424499 0.0685146 0.17010657 0.006394417 0.105373986 -0.09188319 0.20832646 -0.08633134 0.08205704 0.38827294 -0.106194355 -0.05760561 -0.38870382 -0.03032943 0.27828136 0.11577157 0.3319698 -0.06424351 -0.1296755 -0.03353374 -0.25165597 0.003651677 0.13846584 -0.15765512 0.36899304 -0.26198047 -0.06525302 -0.22069742
in 0.2809536 -0.71707284 -0.5369016 -0.048670735 0.5694479 0.7376108 0.4612298 0.15245771 -0.2528739 -0.9497644 0.3323696 -0.20671009 0.27725592 -0.39831716 0.23702043 -0.022122066 0.20612119 0.6296147 0.5572801 -0.41968432 0.38769585 -0.25341353 0.42226517 -0.59854263 0.794841 -0.7217731 -0.73314714 0.053533044 0.04356892 0.58501893 -0.094812565 -0.048552185 -1.2108986 0.38525143 -0.42390865 0.5357891 -0.27629498 0.5152892 -0.10788652 -1.1168201 -0.41264272 0.0065653767 0.41762438 0.22739094 0.04428042 -0.33668616 0.037255205 0.28728473 -0.4696058 0.067309715 0.3561788 0.30201018 0.05815758 -0.033637792 0.2056612 0.2633838 -0.062816836 0.10321616 0.40253663 0.20069815 0.14587557 -0.012067417 0.46182343 0.23300466 0.6151094 0.16020554 -0.11455562 -0.31354967 -0.3279924 0.61270094 0.59774035 -0.1408177 0.3151867 -0.5285323 0.097160466 0.12043696 0.33318794 0.32829702 0.26064348 0.33794162 0.23551881 0.4590592 -0.011294301 -0.0254631 -0.36423892 -0.45856783 0.036541164 0.15065086 0.21783929 -0.24657822 -0.32487133 0.19230887 0.025623914 -0.50256085 -0.25582165 -0.55847037 0.064157866 -0.6202933 0.03776568 -0.2235768
and 0.4239534 -0.25416842 0.015975598 0.55387557 0.2970379 0.13830781 0.18456697 -0.105381176 -0.08615478 -0.18381155 0.1893141 -0.2167563 0.40503767 0.18901864 0.14105855 -0.039406657 -0.19965512 0.20504855 -0.09635998 0.0032420752 0.13318671 0.027420195 0.12764925 -0.5691761 0.33426368 -0.018038452 -0.3476687 -0.18339674 0.16566214 0.27500403 0.23339537 0.27023634 -0.35259724 -0.092320606 0.055874746 0.00976557 -0.03422436 0.12062021 -0.07790957 -0.606682 -0.14802349 0.14143777 -0.20596342 -0.18509439 -0.1564086 -0.38207972 0.048547816 0.009260381 -0.083675735 0.016732784 0.06917083 0.20068684 0.121983685 -0.15472706 0.2597269 -0.3053243 -0.28901482 -0.13294934 0.13407654 -0.113690756 0.24696097 0.18352033 -0.06155496 -0.0671151 0.30698264 0.33847657 -0.18284588 0.055480123 -0.15860954 0.19414422 0.08899438 0.022154437 0.4249036 -0.01782427 0.43145174 -0.12536255 0.4813856 0.033068325 0.282194 -0.093498126 0.020221597 0.16665207 -0.027526446 -0.040884316 -0.14990124 -0.05465753 -0.0127135655 -0.09624738 0.41279805 0.03666574 -0.069140926 0.0696943 -0.17425051 -0.15791535 -0.011025695 -0.3483783 0.2270757 -0.16657974 -0.12684698 -0.24871883
iphone 0.7859332 -0.13342427 0.20773764 0.9660818 0.47264 0.11584715 0.31455997 -0.19580786 0.04896672 -0.00020486169 0.039376624 -0.32903758 0.71638054 0.32777128 0.16488157 -0.24650781 -0.53409636 0.08306384 -0.49931875 0.051824108 0.12773554 -0.28206244 0.1678307 -0.67552435 0.054160934 0.030021053 -0.38348463 -0.5787179 0.3466253 0.479652 0.1571729 0.5499672 -0.22605696 -0.21837372 0.32264397 -0.11348802 -0.09125898 0.47596878 -0.27132016 -0.6432148 0.08359254 0.4626513 -0.39874047 -0.37811255 -0.37865135 -0.4288336 -0.101491556 -0.305312 -0.1577092 -0.076579824 0.010021995 0.3680521 0.30055442 -0.12099995 0.28043395 -0.31991625 -0.47816855 -0.088751286 -0.1264091 -0.30375984 0.31180054 0.48529732 -0.42738023 -0.12932113 0.1504032 0.38235292 -0.25014457 0.0585314 -0.054862026 0.062082637 0.12587498 0.073728465 0.5138567 0.016737295 0.784692 -0.19731256 0.8738148 0.1179108 0.5200342 -0.20879139 -0.035004098 0.03310912 0.15029535 -0.10805965 0.21649672 0.11667933 -0.124278314 -0.23904207 0.3541503 0.1618956 0.05325253 0.28488 -0.17858793 -0.29873848 -0.07715677 -0.5071923 0.12247493 -0.016491145 -0.09129889 -0.2672628
store -0.056951005 -1.456634 -0.64035875 -0.7004436 1.0974115 1.4286029 0.5812521 0.27079082 -0.5475369 -1.9311528 0.04370145 -0.4299415 -0.0489944 -0.43941623 0.7219297 0.19000362 0.61476475 0.9659392 0.86665666 -0.54397583 0.74745935 -0.2446434 0.8269802 -0.8205408 1.4297943 -1.3884002 -0.9276363 0.08141759 -0.07107215 0.91013205 -0.2811097 -0.6499765 -2.1012447 0.5942606 -0.5910566 0.9600616 -0.8339974 0.87960184 -0.020026464 -1.0227743 -0.58502895 -0.22843352 0.9250933 0.6310331 0.17803434 -0.06718527 -0.25888762 0.86711395 -1.1627902 0.5105327 0.5161811 0.4234276 -0.026280189 -0.09966692 0.42326024 0.5034121 0.4247935 0.2627802 0.7707181 0.31730068 0.2806028 0.03730571 0.8968243 0.35373402 0.67811275 -0.014220424 0.07757608 -0.7607861 -0.57099366 0.71632653 1.2358801 -0.40187407 0.11935489 -0.35997668 -0.16883275 0.2226249 0.102328874 0.22152483 0.5465722 0.48566183 0.445689 0.80434513 -0.029105978 -0.17285173 -0.383825 -0.8199942 -0.48081952 -0.028602442 -0.14604065 -0.056237523 -0.48831776 0.3589355 0.093452714 -0.6565693 -0.62363404 -0.65216124 0.16120204 -1.1846383 0.27928364 -0.23147185
it 0.23358734 -0.7301657 0.47407758 0.10179091 0.8922203 0.13219653 0.23760743 -0.36696428 0.025666827 -0.49656895 -0.1607958 -0.42824808 -0.0108885765 0.31684905 0.6715079 0.14932631 -0.25756508 0.25256625 -0.0740873 0.07094321 0.35646763 0.23667806 0.29360485 -0.51497406 0.6130861 -0.3397687 0.25399393 -0.16470961 0.008473551 0.4716486 0.4103264 -0.25150576 -1.002944 0.107660115 0.56873834 0.0975552 -0.21442 -0.1259886 -0.05286783 -0.08611651 -0.21759562 0.046826664 -0.11452438 0.09694958 -0.051944267 0.25306198 -0.2500756 0.28283712 -0.96680766 0.33479893 0.054286975 0.21385704 0.1042174 -0.34535024 0.3351168 -0.3583194 -0.14655182 -0.1518066 0.5949319 -0.31949586 0.44650787 0.4722603 0.20123334 -0.031202944 -0.03603672 0.17710513 -0.10407861 -0.13433796 -0.43283346 0.008540254 0.37484398 -0.17809817 0.40882486 0.41845345 0.15096031 -0.09135473 0.05197197 -0.40225554 0.36327225 -0.07928093 0.065927334 0.028646227 -0.25332344 -0.29449356 -0.017627738 -0.28679088 -0.43466336 -0.37702334 -0.051012736 0.6141647 -0.25016117 -0.19814639 -0.29854986 -0.04687497 -0.21263593 -0.21849279 0.41209245 -0.25918874 0.05161796 -0.26624903
on 0.37900957 -0.34785706 -0.028296638 0.4870501 0.30777994 0.14415152 0.20377773 -0.24809234 -0.031252027 -0.16795306 0.15418746 -0.16157386 0.41031125 0.18974014 0.1262643 -0.08371465 -0.25712368 0.18407595 -0.07682477 -0.08736243 0.23932076 0.090496495 0.1842571 -0.55798423 0.3348226 -0.051087815 -0.3520384 -0.116034634 0.1689693 0.28252625 0.19639015 0.1831684 -0.5225018 -0.099572495 0.14522836 0.07173499 -0.017279394 0.15696163 -0.08169414 -0.5643795 -0.10143409 0.15621299 -0.09786114 -0.10887578 -0.07048509 -0.3817041 0.082987584 -0.027262354 -0.14997019 0.17414662 0.09006299 0.18634108 0.22512141 -0.14091708 0.23738858 -0.2586425 -0.25563625 -0.12445183 0.18949044 -0.16654836 0.3059135 0.23597676 0.025959803 0.023204118 0.23478086 0.3385597 -0.2491807 -0.035417058 -0.1639338 0.20324062 0.19337267 0.017540596 0.4002864 -0.08973383 0.33025396 -0.09360803 0.46827382 0.012358128 0.3722387 -0.016711064 0.104015574 0.12964588 -0.028760688 -0.1463445 -0.11974908 -0.042586897 -0.08325021 -0.13291496 0.378586 0.15333492 -0.046333816 0.061476797 -0.17394164 -0.18718034 -0.053625 -0.32409495 0.3274534 -0.22199585 -0.11684864 -0.27698043
up -0.4477745 -1.2605191 -0.42733833 -0.78998214 1.0177159 1.0935509 0.6008353 0.4187597 -0.63411653 -1.951448 0.08520206 -0.6631854 0.0698456 -0.41686738 0.6256699 0.5535483 0.65723217 1.1733173 0.7481633 -0.39236546 0.6874052 -0.14323685 0.8265974 -0.5084436 1.4227495 -1.1329037 -0.6767573 0.076886505 -0.16222398 0.85313255 0.08755947 -0.6216908 -1.9126146 0.7289221 -0.476325 0.79356134 -0.71653193 0.37236705 0.33479822 -0.61634254 -0.7775854 -0.230597 0.59040135 0.37787843 0.14603715 0.10712979 -0.18595958 1.1179576 -1.0825187 0.39655763 0.580295 0.64726794 -0.17827682 -0.36801177 0.56891614 0.10841179 0.43191358 -0.037689853 0.9588309 0.25519827 0.16335171 0.13307694 0.7285422 0.080981 0.7389329 -0.0072487914 0.23352166 -0.552149 -0.8800347 0.70655763 0.9777334 -0.48525333 0.25052783 0.074249916 -0.14737895 0.38067263 -0.38593754 -0.04639246 0.2900561 0.2423414 0.21712682 0.88804156 -0.275903 -0.038345106 -0.26167464 -0.79304796 -0.20689626 -0.10780232 -0.23821239 -0.008223772 -0.5051679 0.01577872 -0.066910796 -0.37482423 -0.53810984 -0.59797686 0.19387223 -1.1308821 0.39179623 -0.26373115
app 0.8780174 -0.31957728 -0.20064062 0.86544544 0.48486957 0.5061994 0.26026347 -0.13474546 0.033523835 -0.22250894 0.073371924 -0.14954527 0.5196118 0.3203019 0.17928547 -0.5225309 -0.39177638 0.038499422 -0.34350017 -0.24649827 0.17470971 -0.63824385 0.44086182 -0.70191664 0.1455332 -0.15154509 -0.49156493 -0.53829616 0.30768353 0.5309785 -0.091455854 0.39329925 -0.7024575 -0.17371634 0.12839043 0.121342294 -0.12957287 0.92760766 -0.5584058 -0.7926174 0.21298344 0.56103003 -0.02319774 -0.13534446 -0.32713547 -0.40868402 -0.12441488 -0.41224745 -0.2182574 -0.043173574 0.0365809 0.27084428 0.42451176 0.22509165 0.29559964 -0.01981921 -0.32929355 -0.0636199 -0.2984343 -0.18379895 0.4731302 0.3675798 -0.23919995 -0.07365471 -0.082010396 0.252703 -0.3047962 -0.26344916 0.02520901 0.021209147 0.3010344 0.12422722 0.22469103 -0.3218136 0.54480827 -0.29630238 0.97183156 0.3052917 0.7483941 0.09422429 0.26662603 0.023701007 0.07018381 -0.2587174 0.22848065 0.061346065 -0.18733668 -0.2982402 0.106571764 0.05202456 -0.03438489 0.4074274 -0.08838323 -0.49599025 -0.15156198 -0.3597298 0.20561782 -0.17899506 -0.15814629 -0.22286996
my 0.4961889 -0.18890463 0.30251595 0.55034083 0.4517046 -0.07073049 0.24635772 -0.046606563 -0.033038367 -0.13216293 0.1524922 -0.47269168 0.6033187 0.16954038 0.18880136 0.07332123 -0.36639327 0.31493014 -0.23755628 0.12734973 0.14096287 0.0014663467 0.16245678 -0.4009015 0.3154043 0.116139136 -0.20591177 -0.39470837 0.17758161 0.2804981 0.3982463 0.42437556 -0.14513585 -0.14280614 0.26290414 -0.046007343 -0.051997412 0.06269916 -0.032474086 -0.42996255 -0.20469433 0.16121158 -0.4249671 -0.3665448 -0.2440434 -0.31798878 -0.107690394 -0.053196292 -0.25012633 -0.03558915 0.09132896 0.41968647 0.1449308 -0.26137453 0.35047302 -0.41479832 -0.42477596 -0.15845408 0.22054748 -0.2534153 0.21596877 0.369734 -0.15841977 -0.19076613 0.4504897 0.4289118 -0.14080554 0.21419802 -0.2756153 0.2591615 -0.025658898 0.055668678 0.63676524 0.29400477 0.63554364 -0.050753295 0.41200927 0.041257698 0.19631936 -0.33266523 -0.08210426 0.15343218 0.09623904 0.08388691 0.046995237 -0.09882579 -0.066161014 -0.20962153 0.3283937 0.108021356 -0.08064765 -0.06750414 -0.23135425 -0.068461 -0.014954171 -0.40745476 0.12252182 -0.10897668 0.015718864 -0.20648512
an 0.3511082 -0.28090346 0.34574243 0.14015912 0.72962886 0.09226851 0.3169907 -0.026301647 0.06927908 -0.3258758 0.13097118 -0.59981394 0.41848814 0.017593497 0.31972656 0.16128229 -0.36819464 0.4340536 -0.10862601 0.04587172 0.16309571 0.070246845 0.3057132 -0.37554294 0.47068304 -0.094609804 -0.29317728 -0.2908482 0.07134807 0.42570716 0.36915448 0.20664479 -0.44207957 0.15450744 0.23700988 0.08201888 -0.11002981 0.20755962 0.019953737 -0.34565085 -0.32395524 0.09277486 -0.26474604 -0.28474027 -0.15051578 -0.1968134 -0.1844898 -0.018893095 -0.41617432 0.048478454 0.08007008 0.4687028 0.28178474 -0.21540588 0.35567033 -0.306991 -0.35093734 -0.06173971 0.50132406 -0.24930632 0.056705844 0.4718849 0.06605149 -0.10845823 0.56970626 0.34238946 -0.14648585 0.16886951 -0.35991842 0.5245823 0.108742535 -0.0075839045 0.7040577 0.32771477 0.63168377 0.0026578284 0.2841208 0.10317208 0.16029112 -0.21301489 -0.1808181 0.16797142 0.14785168 0.11220085 0.1024464 -0.37123245 -0.20979212 -0.2554816 0.2747476 0.21273983 -0.12139192 -0.20678455 -0.17148767 -0.089478 -0.13671847 -0.48276067 0.09320271 -0.28190276 0.07170705 -0.21826811
rt 0.08159348 -0.6991683 -0.086553834 0.076536655 0.15179864 0.49462783 0.081456885 0.060529683 -0.35851258 -0.5776233 -0.034135517 -0.23035452 -0.09210268 0.1822518 0.35541221 0.2214879 0.33365503 0.27088857 0.18588178 0.109033264 0.29235655 0.04479687 0.124652095 -0.43173072 0.6160744 -0.2092394 0.121858284 0.025321033 -0.025054045 0.15807235 0.1457706 -0.24759024 -0.5281042 -0.073631436 -0.23973787 0.23603924 -0.21080312 -0.1830393 -0.02502568 -0.29711914 -0.28028026 -0.028307637 0.16722982 0.40027523 -0.19631524 0.100298375 0.00024152006 0.5957688 -0.6391067 0.19505425 0.08757391 -0.055348665 -0.3418038 -0.24645083 0.36973503 -0.156427 0.082644984 -0.052443866 0.08126895 0.108295694 0.44732776 4.64122e-05 0.24162547 0.038792145 -0.07904728 -0.01405661 0.17876752 -0.34740868 -0.14897726 -0.22071221 0.37660798 -0.21112457 0.05841644 0.21776477 -0.0814703 -0.09697057 0.038413342 -0.29009992 0.23968998 0.050333448 0.12862049 0.3764177 -0.13264391 -0.15409186 -0.50351727 -0.13736804 -0.17974639 0.023361731 0.018224584 0.10939346 -0.18312728 0.3203191 -0.108007595 -0.06805977 -0.19132249 -0.13383247 0.29230615 -0.19931199 0.034998026 -0.25872523
new 0.82668966 -0.38284403 -0.124514796 0.85115963 -0.15609047 0.59306794 0.047832713 -0.0412072 -0.12551016 -0.087318 0.022058126 -0.31729782 0.39836383 0.42241538 0.15473281 -0.19046383 0.11943159 0.05105658 -0.11364123 0.17674193 0.24261838 -0.32806414 -0.025658824 -0.69213384 0.294728 0.14352939 -0.022978107 -0.19467378 0.28299809 0.043269683 -0.14495637 0.23245338 0.09349913 -0.660816 -0.30880642 -0.023636445 -0.031037465 0.039194115 -0.42490733 -0.7561106 -0.057326317 0.3393237 -0.056322545 0.3309564 -0.5156033 -0.30329698 0.15753609 0.047348205 -0.33999708 -0.10568027 -0.16076691 -0.26591143 -0.07909678 -0.06542063 0.4415373 -0.10168951 -0.3784566 0.018306956 -0.52820843 0.15031707 0.65916467 -0.12917304 -0.023885984 0.087692454 -0.23669757 0.28868103 -0.082968555 -0.3584314 0.29168364 -0.49499655 0.2560269 0.0495375 0.21402344 0.07789997 0.50956523 -0.38436306 0.82660156 -0.054678462 0.52259934 0.002002574 0.1386083 0.22584908 0.29344654 -0.22485745 -0.5298454 0.18884426 -0.09766619 0.055910952 0.41653094 0.09208664 -0.030415777 0.82941353 -0.123322405 -0.2827313 -0.31894833 -0.26892924 0.06593082 0.10540378 -0.124435596 -0.3712208
you 0.6912836 -0.5495962 0.93624645 0.34936702 0.84594494 -0.22804941 0.09880954 -0.57938397 0.4575718 -0.008919692 -0.21519491 -0.67510396 0.26219392 0.44479084 0.7901836 0.23203702 -0.78439164 0.13686915 -0.3690392 0.35353327 0.22971424 0.527416 0.11887072 -0.49511856 0.4651959 0.021425216 0.40597504 -0.1624351 0.012269471 0.44433722 0.5739374 0.091964774 -0.5591674 -0.20938122 0.88324887 -0.36694428 0.06328723 -0.3999383 -0.13462697 -0.08645914 -0.09493215 0.1359661 -0.505661 -0.12734962 -0.29049492 0.13140084 -0.28351992 -0.172761 -0.9668618 0.31282943 -0.3473181 0.18755153 0.4082211 -0.46396104 0.41577637 -0.339391 -0.69339895 0.04578861 0.6971224 -0.63686544 0.42895156 0.6308978 0.07593665 0.098220766 0.051935755 0.21699037 -0.42601818 0.17572205 -0.36637688 0.00027186805 0.035659883 0.01181757 0.94999 0.67738783 0.58195376 -0.2434099 0.3101366 -0.47304538 0.3543818 -0.20718914 -0.21679787 -0.40711102 -0.043586086 -0.2535474 -0.010571625 -0.256891 -0.37804016 -0.45642534 0.46958822 0.90920126 -0.28629944 -0.26492113 -0.3905368 0.15469179 -0.13790815 -0.4239196 0.045794934 0.055517536 0.0077843703 -0.3351168
with -0.0182349 -0.42322192 -0.044204183 0.2503793 0.28852284 0.22028108 0.20977461 0.086433716 -0.38299468 -0.49292836 0.09153443 -0.33122024 0.30351257 0.2881157 0.16798432 0.2434019 0.1177616 0.411258 -0.029214807 0.12465856 0.21070032 0.10454052 0.16213089 -0.48824126 0.45524934 -0.07897159 -0.23477072 -0.2425143 0.116940655 0.21879117 0.2873637 0.11036475 -0.40175954 -0.0013831799 -0.0786473 0.14236784 -0.17816068 -0.0345092 0.26038277 -0.34922564 -0.36242896 0.03081952 -0.21111542 -0.20978057 -0.119281456 -0.12929928 -0.03675896 0.4434411 -0.1874386 0.11052634 0.18295948 0.31769213 -0.17580059 -0.38595122 0.35816103 -0.5208298 0.10929683 -0.25479218 0.20099674 -0.11414409 0.18241364 0.23999777 -0.048668087 -0.26899472 0.3786307 0.23652954 0.06402172 -0.026886191 -0.2991559 0.15672287 0.1308339 -0.14640376 0.26286304 0.24956836 0.24773327 0.03947588 0.12661308 -0.07525671 0.20258646 -0.23657165 -0.061077483 0.41640806 -0.16165414 0.030875957 -0.17652899 -0.04526622 -0.046338942 -0.11445912 0.15718313 -0.018946799 -0.03488795 0.06324989 -0.20839602 0.0009953975 -0.022692839 -0.2433761 0.4160931 -0.3566856 -0.00040346358 -0.23211807
just 0.36677253 -0.33557835 0.022312779 0.24246055 0.56170374 0.22317083 0.28378105 0.034026787 -0.11284914 -0.41129407 0.2180414 -0.3298407 0.40013435 -0.03263174 0.23905563 0.020272993 -0.14081201 0.38832018 -0.03214262 -0.014019274 0.18139271 -0.07538188 0.32637623 -0.4445879 0.40442264 -0.21474288 -0.37539655 -0.22500771 0.09272089 0.42377213 0.24505395 0.21229306 -0.54163206 0.12947172 0.04798302 0.16294922 -0.17914641 0.30370197 -0.06320375 -0.508201 -0.23740396 0.10373845 -0.10226728 -0.19262263 -0.10332953 -0.2771792 -0.122531734 0.08530566 -0.3085984 0.029297015 0.1856785 0.42745507 0.1096538 -0.20020881 0.29105118 -0.2280895 -0.16864286 -0.09524345 0.31926307 -0.13829572 0.1296231 0.28080943 0.008684769 -0.09410052 0.48249143 0.23584746 -0.10564614 0.034121428 -0.35085416 0.3913929 0.12660763 -0.048146084 0.44137236 0.011924769 0.40275458 0.03394026 0.3658763 0.14109845 0.169875 -0.06569548 -0.0054787556 0.25951728 0.008882513 0.013130465 0.023072261 -0.26645213 -0.06126061 -0.16132629 0.22623204 -0.015251046 -0.14440618 -0.032242574 -0.13910435 -0.1737948 -0.072274245 -0.41930988 0.14310423 -0.3557887 0.01818749 -0.19231828
austin 0.44837573 -1.0384846 -0.73470545 -0.010895923 0.5045527 1.275902 0.43712896 0.26498994 -0.3824896 -1.3359863 0.24789163 -0.2084196 0.10680699 -0.42282075 0.36984468 -0.09965614 0.60243016 0.5023871 0.76162386 -0.4584168 0.5238447 -0.42745137 0.42495593 -0.8400179 1.0677619 -0.95127344 -0.9367984 0.16374904 0.017035333 0.7452801 -0.51824355 -0.40231726 -1.4062879 0.20219293 -0.8541174 0.67904454 -0.560331 0.730335 -0.29859865 -1.476002 -0.38830528 -0.1265896 0.80166304 0.76067734 -0.08274495 -0.45602146 0.05666979 0.48809528 -0.6638654 0.1199125 0.2162009 -0.005620433 -0.040525664 0.15365978 0.31343284 0.6550856 0.13502544 0.28167456 0.25762704 0.5681889 0.27527833 -0.32350525 0.68907815 0.47241786 0.38510177 0.079188384 0.014508388 -0.67107475 -0.042373423 0.34608102 1.0149512 -0.27278578 0.049744386 -0.6947987 0.057651576 -0.08427728 0.6030567 0.30079058 0.5884423 0.6744232 0.43171412 0.65339994 0.2112436 -0.25300634 -0.73342645 -0.53477955 -0.24882892 0.28260514 0.26645055 -0.24258426 -0.42556107 0.71076936 0.16252396 -0.77944785 -0.5739489 -0.5722732 -0.02931439 -0.72973794 0.103693634 -0.26597643
this 0.0852334 -0.31497738 0.06785791 0.22286691 0.24239896 0.13143057 0.18588276 0.19664107 -0.3479733 -0.4814998 0.11446571 -0.39735854 0.29988205 0.048232757 0.184926 0.25859123 0.17320268 0.3842257 0.04621376 0.13847615 0.157234 0.09038249 0.05184039 -0.3287183 0.45885658 -0.03995094 -0.14171559 -0.25894046 0.0809304 0.16253325 0.35922432 0.11459885 -0.12674823 -0.014794721 -0.13765356 0.14374244 -0.17850713 -0.17462519 0.18120192 -0.349053 -0.35731795 -0.050884437 -0.23001246 -0.14627391 -0.16224559 -0.13597448 -0.0038800475 0.42144218 -0.23499742 0.04169987 0.1772045 0.2668962 -0.28989312 -0.41578066 0.36153337 -0.42566824 -0.04711439 -0.20295508 0.17503314 -0.021637052 0.24204896 0.17534979 0.01897504 -0.25538528 0.38413996 0.2715724 0.17634493 0.069229744 -0.2914035 0.12647915 0.07351516 -0.07328831 0.32086793 0.3652767 0.3380835 0.055862382 0.053793192 -0.09384292 0.08657363 -0.23905654 -0.09794806 0.42000154 -0.04043142 0.060765203 -0.27538717 -0.07625516 -0.016803978 -0.01475026 0.194233 -0.052551657 -0.119276725 0.04791648 -0.20941497 -0.03467135 -0.042749617 -0.29397535 0.16230328 -0.20446366 0.06654772 -0.24287708
that 0.16934988 -0.33133695 0.22937271 0.27053806 0.40704918 0.00754946 0.25286272 0.0641294 -0.23991592 -0.4214449 0.17056206 -0.3893433 0.34691802 0.042842377 0.27415398 0.3425698 -0.15674488 0.45009497 -0.037484564 0.20537435 0.19410394 0.25975677 0.122638725 -0.35915273 0.49787915 -0.005372213 -0.19264571 -0.15358295 0.022568576 0.31612092 0.48505113 0.20222779 -0.33694324 0.102523826 0.06702889 0.081691585 -0.10089984 -0.12304816 0.14439926 -0.38783285 -0.3121904 -0.013377405 -0.26755235 -0.19754629 -0.1437984 -0.1975193 -0.0942611 0.31697476 -0.34104484 0.15789329 0.15471293 0.40623763 -0.08026105 -0.40039325 0.35557193 -0.40543395 -0.17111647 -0.16923873 0.4304701 -0.19067882 0.106800124 0.3515379 -0.0033488434 -0.10154407 0.5006913 0.21587071 0.00679483 0.12970604 -0.40672016 0.31828555 0.06838182 -0.10070998 0.55454487 0.33811793 0.34553316 0.048677713 0.08306691 -0.117649585 0.08880106 -0.20379418 -0.09538195 0.28011155 -0.096556425 0.094606884 -0.17510849 -0.22589844 -0.03394132 -0.105111055 0.33340135 0.062215704 -0.14092585 -0.124910004 -0.1711468 0.005998214 0.01459446 -0.41925085 0.18207893 -0.2637947 0.04520346 -0.2581423
be 0.24013707 -0.38360858 0.14812732 0.13927811 0.007104063 0.18041062 0.103196636 0.23858051 -0.25326943 -0.4676053 0.003294984 -0.5580803 0.29063457 -0.058896232 0.20430037 0.34304082 0.11048054 0.2948461 0.15923283 0.31703922 0.16051517 0.28799874 -0.155806 -0.3483217 0.62223685 0.11799111 -0.05909116 -0.02223447 0.07543685 0.16649832 0.17867185 0.02620076 0.066611156 -0.18071361 -0.4206779 0.04675411 -0.04971034 -0.34538573 0.14781114 -0.59143746 -0.29495865 -0.06894656 -0.12490431 0.20264068 -0.27705038 -0.19288571 0.10654833 0.27850297 -0.24900152 0.06279025 -0.15300858 -0.10537478 -0.195019 -0.42760387 0.4389096 0.08965024 -0.3152894 0.1399651 0.21998778 0.13292985 0.15691675 -0.14462477 0.18364608 0.2573509 0.35498816 0.26622242 0.08089358 -0.10889767 0.032481786 0.04201278 0.28957194 0.011616101 0.3675885 0.32200345 0.33179626 -0.1278936 0.19211641 -0.05747008 0.18427208 -0.06834027 -0.17176323 0.27784052 0.18452227 0.10957231 -0.7190319 -0.15508062 -0.11336151 0.26646385 0.54898715 -0.05262007 -0.14644544 0.3427412 -0.10682259 -0.047722705 -0.30614328 -0.37919286 -0.3079165 -0.05085231 0.14271094 -0.3107453
have 0.3326142 -0.2143127 0.5558648 0.34085318 0.38034758 -0.25006998 0.1535244 0.07317974 -0.055774324 -0.28043082 0.034154903 -0.68440765 0.4619133 -0.0020295247 0.36710584 0.3129345 -0.22754522 0.44858387 -0.16096772 0.36279356 0.08907202 0.29682156 0.0064315856 -0.2822741 0.4426296 0.2255715 0.10512874 -0.29439622 0.03384181 0.06601278 0.61525846 0.35043076 -0.021587852 -0.09561919 0.27922547 -0.10717909 -0.040870897 -0.34066838 0.21266355 -0.184523 -0.31996855 -0.026612781 -0.5665483 -0.31400737 -0.24686192 -0.10651891 0.021197243 0.18662779 -0.41903567 -0.059680913 -0.016514624 0.33597296 -0.06199381 -0.52941453 0.374218 -0.477648 -0.40228426 -0.12407093 0.42336643 -0.26285076 0.13475321 0.26507458 0.014501992 -0.32473764 0.526926 0.3610223 -0.055030126 0.29867315 -0.43227562 0.25246924 -0.18154916 0.031886086 0.7554013 0.5929412 0.5366982 -0.032825 0.13827576 -0.1842069 0.117786966 -0.40939355 -0.204884 0.15900032 0.0680793 0.08098373 -0.20319265 -0.2047937 0.04784465 -0.07736896 0.32057345 0.21100134 -0.12560518 -0.17391792 -0.27774128 0.14184749 -0.0025953213 -0.36619723 0.018082684 -0.07470205 0.09548616 -0.19898798
pop -0.14418176 -1.6063714 -0.51690567 -0.98570573 1.110823 1.1603323 0.47039834 0.28175977 -0.6769314 -1.9632709 0.10301327 -0.45957226 -0.18274863 -0.342958 0.8019594 0.42532966 0.56816936 1.0854709 0.9168684 -0.40097502 0.62746 0.043317012 0.8606583 -0.7251697 1.5551995 -1.2988662 -0.7444566 -0.08371413 -0.17211668 0.93720615 -0.11706016 -0.66586983 -2.159859 0.86029685 -0.49341175 0.955143 -0.897737 0.6550857 0.26773182 -0.81606084 -0.70918924 -0.30370137 0.78836834 0.4566755 0.11103015 0.28029978 -0.4076355 0.9858564 -1.2002734 0.64492136 0.46219602 0.50723153 -0.25479507 -0.40087503 0.37238228 0.3208204 0.6385681 0.17243865 1.0473142 0.19455002 0.09007429 0.058995344 0.8362758 0.1737975 0.74579555 -0.11745015 0.21261895 -0.551965 -0.7997879 0.85483074 1.2321014 -0.4459275 0.13706437 -0.079340935 -0.29866573 0.29378024 -0.23333211 0.17165008 0.38906845 0.30115518 0.2398068 0.6954312 -0.19747098 0.013260715 -0.43280962 -0.89430994 -0.4879868 -0.11792642 -0.19762054 -0.04973309 -0.43501005 0.091497384 0.028197255 -0.47028333 -0.54745996 -0.61423093 0.34459814 -1.1572136 0.3056951 -0.17756252
out 0.2231837 -0.36486638 -0.17921117 0.17229305 0.6821697 0.42711058 0.2210155 -0.0426974 -0.009661566 -0.49693254 0.13460891 -0.36465797 0.3557586 -0.00074841554 0.25819802 -0.2538164 -0.095985256 0.44459766 -0.16391098 -0.32431307 0.26325804 -0.27558637 0.48241058 -0.52409005 0.38610733 -0.3811607 -0.43903977 -0.33361816 0.18562245 0.5676358 0.098085456 0.16678196 -0.88702565 0.3447217 0.14077678 0.13678384 -0.28914377 0.5880667 -0.011380895 -0.50262606 -0.047127258 0.27566722 0.00076281535 -0.075787365 0.02333194 -0.19329244 -0.08193594 -0.117508 -0.13136274 0.035876118 0.2569844 0.3798063 0.20504595 -0.20593624 0.2927031 -0.18647006 -0.16486168 -0.1895795 0.3739175 -0.24415025 0.34045908 0.30352953 0.0005680377 -0.18902504 0.15960515 0.23871619 -0.16300216 -0.11861241 -0.5257907 0.49657977 0.34205452 -0.047754403 0.28272432 -0.08447304 0.4045212 -0.01150741 0.35463628 0.05808963 0.47018823 -0.085297346 0.15055324 0.026355317 -0.18848595 0.005033874 0.1511024 -0.13736534 -0.1514774 -0.39281082 0.012291747 0.17737688 -0.19947186 -0.10953727 -0.06422092 -0.3992121 -0.18547246 -0.36382568 0.113754295 -0.4029808 -0.109256685 -0.2230908
not 0.11514878 -0.5215362 0.39715454 0.05976464 0.31160387 0.13406195 0.113566704 0.034819745 -0.22821264 -0.5212669 -0.15193161 -0.5538161 0.022720609 0.113497004 0.47351378 0.4367532 0.15799895 0.3602231 0.119576715 0.33749446 0.2034994 0.2591592 -0.051436875 -0.28480905 0.6754667 -0.025534404 0.31038222 -0.04501167 0.003859222 0.07495199 0.3961023 -0.1695511 -0.18537022 -0.104693525 0.0488481 -0.004090768 -0.17905164 -0.48892918 0.1632779 -0.11364041 -0.36462814 -0.16984035 -0.18294597 0.17056283 -0.26798767 0.15341161 -0.06766829 0.5371387 -0.776045 0.10964955 -0.00036905415 0.04389091 -0.31328017 -0.44358057 0.39942107 -0.2891847 -0.12634806 -0.020325432 0.33826268 -0.020933107 0.29516974 0.10081297 0.21458438 -0.0835667 0.19315198 0.17625956 0.19864531 -0.034776457 -0.23936823 -0.17406516 0.22878462 -0.19197412 0.4049411 0.5774315 0.2004692 -0.082209595 -0.08855636 -0.37560162 0.09806556 -0.20653619 -0.11927566 0.2774219 -0.015461725 -0.02292088 -0.4418923 -0.22599748 -0.19138864 0.028642524 0.123470314 0.26076654 -0.20757803 0.107270755 -0.24222197 0.05700094 -0.16998516 -0.2791295 0.101637505 -0.04427238 0.14611408 -0.22331437
by 0.38738105 -0.48840842 -0.29790837 0.39843565 0.12969847 0.41115668 0.20526655 -0.16152647 -0.03891335 -0.3076156 -0.002852929 -0.044420302 0.32522228 0.23412274 0.096847214 -0.21773128 -0.075691186 0.065686665 0.09022394 -0.260164 0.31787127 -0.13093668 0.16325136 -0.6424476 0.45815793 -0.2085805 -0.41203168 -0.15061703 0.27389953 0.26925576 -0.09193512 0.06602296 -0.59220093 -0.25813317 -0.11581248 0.20662284 -0.1298618 0.33092093 -0.22668758 -0.68231434 0.01225164 0.18216893 0.19142497 0.08788757 -0.106606096 -0.36381704 0.14786449 -0.040146302 -0.15049152 0.2131353 0.0023172826 -0.02545859 0.19324532 -0.04539539 0.24247433 0.045477703 -0.15776989 -0.02655338 -0.0846517 0.055581637 0.44889376 -0.029788071 0.14731011 0.107709184 0.0074500157 0.39032626 -0.21013556 -0.30188593 0.022006126 0.0008820394 0.47594953 0.011192927 0.1065736 -0.21631983 0.23190178 -0.23262607 0.55976313 0.11435658 0.5904258 0.1421791 0.2294014 0.17937386 0.09970136 -0.24965727 -0.23516047 0.055840522 -0.16224064 -0.08202282 0.29668647 0.08140373 -0.033140622 0.4281599 -0.119092174 -0.3565181 -0.22257417 -0.26972878 0.23813437 -0.22100672 -0.0666422 -0.25056198
from 0.45053512 -0.27472824 0.010080085 0.67401356 0.16912085 -0.001175268 0.17962663 -0.22732191 -0.03258264 0.007431929 0.1914938 -0.12388969 0.4541532 0.28251088 0.08288377 -0.0899525 -0.3483091 0.10530293 -0.19831626 0.014162775 0.15001643 0.15141906 0.06500093 -0.61492926 0.24828966 0.114486374 -0.2906519 -0.14956595 0.19178279 0.26270518 0.3074 0.32852566 -0.348423 -0.22663815 0.15810774 -0.026172707 0.07645246 0.08045631 -0.10860606 -0.60465014 -0.059138775 0.19326682 -0.24634895 -0.20292534 -0.18009335 -0.47846228 0.11428601 -0.045152728 -0.059985243 0.104602866 0.032367874 0.1822896 0.20609987 -0.13992432 0.2590792 -0.36160272 -0.3310414 -0.18309975 0.040260706 -0.20240949 0.30643496 0.26697442 -0.1091334 -0.0498193 0.183816 0.3579155 -0.24005024 0.02767932 -0.13034596 0.07518927 0.022576949 0.0287356 0.42119458 -0.02794424 0.3756762 -0.18274283 0.5366403 -0.022498444 0.3619365 -0.061323658 0.029594474 0.07310827 -0.08868377 -0.09738442 -0.16181643 0.030633437 -0.011353413 -0.106352635 0.4589871 0.14675722 -0.031329386 0.05676028 -0.19880186 -0.07594567 0.05357709 -0.29623854 0.34015733 -0.11133537 -0.16883145 -0.2849379
android 0.72778285 -0.1374385 0.02883111 0.9632066 0.3798489 0.063677244 0.2871815 -0.27151155 0.031449538 -0.013662665 0.0021423267 -0.17308366 0.6579677 0.40126058 0.17234255 -0.29245284 -0.56741184 0.036810312 -0.47837627 -0.15587838 0.18981427 -0.30099174 0.20929614 -0.6134449 0.16091698 0.041281637 -0.5305427 -0.57772183 0.37080655 0.39889824 0.20900801 0.55915153 -0.43308672 -0.28176144 0.42090496 -0.06565797 -0.09670329 0.49922705 -0.27187353 -0.60197294 0.18092944 0.46268037 -0.32642168 -0.47453442 -0.28180605 -0.4954096 -0.10026414 -0.36074564 0.0051161004 0.028096905 0.008187805 0.338814 0.38529667 -0.04760599 0.29529604 -0.38616326 -0.3713986 -0.2502803 -0.1115052 -0.30728555 0.37337002 0.4248616 -0.39592364 -0.29145446 0.14666142 0.5001553 -0.3079678 -0.021730484 -0.07301268 0.09892653 0.14050063 0.14858705 0.48466352 -0.06611185 0.62333536 -0.22910452 0.8017227 0.13335402 0.62091917 -0.17466794 0.10170668 0.07805419 0.024029156 -0.20727882 0.29297218 0.17576633 -0.13205805 -0.42708743 0.25863376 0.15463462 0.08726397 0.2545316 -0.2737484 -0.28421593 0.062399987 -0.3776357 0.34885556 -0.1345699 -0.16734777 -0.26068595
are 0.36810583 -0.30689207 0.51981735 0.46355352 0.4464403 -0.3366926 0.18131664 -0.2752106 0.11754062 -0.081593454 0.040657338 -0.44620895 0.34725127 0.13128228 0.37182048 0.19302969 -0.52649134 0.3278345 -0.20219828 0.23793636 0.117987946 0.48509422 0.008059979 -0.47015804 0.3905437 0.17273279 -0.05730288 -0.069610454 0.0056869956 0.29506984 0.62202 0.34004813 -0.4357786 -0.003754288 0.49325365 -0.19901589 0.1022526 -0.2593966 0.08660081 -0.33491847 -0.1664276 0.04866885 -0.46978784 -0.30364648 -0.1465064 -0.25459912 0.015891576 0.022337997 -0.37182164 0.13716274 -0.03253326 0.25809154 0.26056567 -0.38293716 0.29517755 -0.4934911 -0.4325168 -0.15561946 0.57412994 -0.4144703 0.13826898 0.44282973 0.074479744 -0.1401687 0.42226416 0.32922864 -0.33744538 0.23617616 -0.48925984 0.32291108 -0.11937992 -0.010137637 0.79346263 0.33260465 0.38161325 -0.105704725 0.20391583 -0.29524738 0.25314087 -0.18869266 -0.1229237 -0.051569145 -0.15012516 -0.069159605 -0.1349896 -0.19451948 -0.05075699 -0.20221068 0.48141247 0.40135124 -0.14807707 -0.30929363 -0.28918883 0.07333836 0.07943126 -0.39784268 0.22979201 -0.14417794 -0.048801802 -0.2819124
get 0.37673777 -0.42090634 0.20456864 0.16769351 0.5638091 0.24938813 0.17132583 -0.05765096 0.10389712 -0.42873237 -0.0064906185 -0.45360354 0.22887048 -0.004488869 0.49096575 0.014457252 -0.1809316 0.30665183 -0.07945744 0.028206434 0.14924079 -0.03803554 0.2693786 -0.40190542 0.41247278 -0.20994462 -0.1271763 -0.20024282 0.02966259 0.3458599 0.195421 0.0782015 -0.62419456 0.08078207 0.1963527 0.04843606 -0.15948409 0.20940392 -0.053009424 -0.31851548 -0.14348696 0.13483515 -0.035466738 -0.016047295 -0.11880926 -0.047317676 -0.08116991 0.009881412 -0.5016177 0.028969562 0.03161534 0.236971 0.22447784 -0.14401259 0.29614276 -0.07903471 -0.2903696 0.068070024 0.35169983 -0.19302039 0.215548 0.19099881 0.17118192 0.0146836685 0.20483899 0.14422174 -0.2063125 -0.032291025 -0.28795445 0.27405265 0.20173052 0.0019133931 0.4464596 0.11284872 0.34219813 -0.054747783 0.30377975 -0.035418432 0.3075445 -0.039011918 -0.009601977 0.020810133 0.03433162 -0.07019349 -0.028472977 -0.26003748 -0.14811023 -0.17311186 0.11168746 0.2267491 -0.16014454 0.004335579 -0.14655122 -0.11909416 -0.19114462 -0.36316076 -0.06432225 -0.23837289 0.05054692 -0.1988914
they 0.24956231 -0.4905651 0.70857656 0.10222909 0.65075856 -0.37201566 0.11117057 0.18834846 -0.18916522 -0.78895026 0.052111857 -0.93591166 0.59923714 -0.3088649 0.844942 0.62657434 0.023443324 0.8446728 -0.014874422 0.46526402 0.15941292 0.48889637 0.050878026 -0.09542701 0.92155564 0.06582121 0.37542403 -0.30561593 -0.079759285 -0.17135748 0.99816287 0.32237706 -0.3057952 -0.09248451 0.3316442 -0.05243628 -0.36883995 -0.7518704 0.4451941 -0.06454901 -0.6003319 -0.33273676 -0.65373844 -0.27926576 -0.105298586 0.09677201 0.10901855 0.5542211 -0.84054756 -0.07646976 0.061428282 0.58830166 -0.30796257 -1.032397 0.4100542 -0.60965383 -0.5243876 -0.19339342 0.80827487 -0.26196742 0.33421415 0.040363457 0.33755487 -0.5171724 0.8068895 0.48569858 0.16152298 0.57705784 -0.9001307 0.35308754 -0.22374813 0.0778918 1.0977058 0.9598451 0.5405362 0.09916897 -0.27794087 -0.4219683 0.011267252 -0.5438338 -0.20834549 0.21332802 -0.028724743 0.22328116 -0.3805963 -0.4512693 0.2821801 -0.07494603 0.30932763 0.24506687 -0.43158504 -0.5015441 -0.47900122 0.29660052 0.1708648 -0.37491584 -0.14156939 -0.18839817 0.1524326 -0.21189412
launch 0.42690325 -0.6612386 -0.8140997 0.48155797 -0.67926157 1.2192752 -0.00560406 0.5622598 -0.7303239 -0.72393245 0.12077176 -0.30783647 0.15532091 -0.05979159 0.04875617 0.04159709 1.1818981 0.34140837 0.5884652 0.055301864 0.30689257 -0.37508756 -0.28586626 -0.5695695 0.8606284 0.04490251 -0.19376591 0.18639861 0.26721898 -0.33362705 -0.39109868 -0.14430116 0.18882325 -0.79300606 -1.3659847 0.35042614 -0.24912709 -0.3648265 -0.1468027 -1.1814195 -0.54648834 -0.08012455 0.3719704 0.9234532 -0.49955338 -0.382751 0.57869333 0.85440713 -0.26726353 -0.18594648 -0.019034365 -0.6507183 -0.79227567 -0.13312759 0.5236941 0.23965232 -0.06608337 0.10328242 -0.6786239 0.8372043 0.6827187 -1.0258886 0.5094604 0.2299998 -0.0021252693 0.29886526 0.37366375 -0.64800173 0.4737034 -0.6119508 0.50685877 -0.026164915 -0.103884816 -0.097318724 0.15007564 -0.30905038 0.57697934 -0.032077722 0.36706626 0.2505881 0.2436221 0.8959395 0.46281576 -0.11909828 -1.4756675 0.0187252 0.14337827 0.69105846 0.43003938 -0.5342751 -0.13435555 1.3454149 0.00088570296 -0.29410648 -0.46808124 -0.18323655 -0.14189743 0.0047577387 -0.05011239 -0.3847789
so 0.09137947 -0.32967556 0.2851462 0.23143366 0.409359 -0.03339298 0.2559116 -0.04794065 -0.2063364 -0.30282328 0.057046376 -0.36248136 0.34190026 0.19252254 0.1967431 0.35389987 -0.20897894 0.3732724 -0.07800729 0.17735574 0.16460577 0.25410604 0.11504632 -0.39662173 0.49594164 -0.036857042 -0.13516653 -0.19282775 0.09295481 0.4018662 0.4418998 0.13498457 -0.32826146 0.07907021 0.13796723 0.010865184 -0.04071977 -0.13933475 0.15658867 -0.35613534 -0.3057217 0.006318048 -0.319626 -0.2578231 -0.20734428 -0.17265217 -0.13661364 0.30365622 -0.31085116 0.19793802 0.14642628 0.38449955 -0.05130934 -0.36593178 0.3084234 -0.44972575 -0.06141247 -0.20682313 0.42178282 -0.24538416 0.08847907 0.46965536 -0.060210973 -0.13716443 0.40926224 0.26165044 -0.039840214 0.10692635 -0.3879213 0.22820832 0.08782231 -0.16407648 0.49347743 0.39745238 0.29309636 0.031665176 0.046776593 -0.13717058 0.088349976 -0.23329358 -0.16535453 0.23759253 -0.12601419 0.044659678 -0.07957649 -0.15181336 -0.1439946 -0.17245993 0.2757095 0.17338796 -0.084795184 -0.11619616 -0.19115643 0.03104865 -0.020293456 -0.36495227 0.2806737 -0.2542478 0.08929733 -0.19991219
your 0.57607925 -0.26518354 0.40224722 0.63073397 0.54487264 -0.15293442 0.21169965 -0.3018697 0.1988153 0.00893049 0.02503705 -0.4217328 0.460576 0.34788293 0.34950253 -0.01365477 -0.57706493 0.14749482 -0.3985771 0.11379857 0.13229343 0.14920466 0.14268303 -0.5444953 0.25244194 0.1209905 -0.12619291 -0.36948413 0.1411178 0.32570437 0.41136494 0.38207096 -0.35977778 -0.1900793 0.55628854 -0.15970303 0.055590034 0.09049687 -0.09207522 -0.36537138 -0.052007396 0.27529252 -0.44824496 -0.38489196 -0.20225227 -0.23556627 -0.09965202 -0.24377422 -0.30262953 0.11542546 -0.056891084 0.29993197 0.37048426 -0.21250743 0.34276453 -0.44685307 -0.48744273 -0.15639235 0.22491334 -0.4589317 0.337184 0.5178933 -0.18682092 -0.21357489 0.19175278 0.36814034 -0.32814175 0.14797664 -0.27164856 0.20460965 -0.03937402 0.041067574 0.6962117 0.31591025 0.5980767 -0.19401538 0.4918284 -0.15160017 0.4147566 -0.2640562 -0.09725539 -0.10542933 -0.06406424 -0.12770054 0.14784743 -0.04035769 -0.12841578 -0.36488402 0.32681492 0.4201983 -0.050388698 -0.1554275 -0.2829487 -0.012728105 0.0149903195 -0.3366509 0.27583116 -0.06270207 -0.09445875 -0.24894752
one -0.33541563 -0.66497153 0.3101847 -0.060313944 0.812 0.105040565 0.34809396 0.33305544 -0.5833087 -1.1444168 0.028857622 -0.83737105 0.3872929 0.024037993 0.691393 0.670449 0.36024442 0.92434126 0.055444907 0.23718344 0.35464767 0.2258113 0.33587295 -0.2745099 0.9703834 -0.23624124 0.10266562 -0.49297494 -0.026139187 0.087178305 0.80643755 0.027344575 -0.75808966 0.26882622 0.14305985 0.33249635 -0.5188262 -0.35044214 0.6488633 -0.024406655 -0.7668048 -0.23044309 -0.46694317 -0.33792385 -0.013653993 0.21731542 -0.16646929 1.0149752 -0.68017507 0.11201937 0.4323211 0.7427749 -0.5750915 -0.8935958 0.45601687 -0.9239013 0.17387131 -0.4875339 0.7682177 -0.227026 0.27782238 0.3486686 0.11881386 -0.7866274 0.79712975 0.4138722 0.3183898 0.16623618 -0.92248225 0.3939174 0.05073794 -0.25370568 0.6326623 0.7281246 0.25085393 0.29431313 -0.39725244 -0.3249765 0.07831039 -0.5196043 -0.18812498 0.7829366 -0.2698707 0.0710786 -0.15083526 -0.34941348 0.015600613 -0.25490057 -0.21826527 0.10784245 -0.27798235 -0.37560663 -0.4163217 0.18958609 0.07341021 -0.29257533 0.5655678 -0.5779431 0.25373822 -0.2612135
now 0.545535 -0.36482054 -0.14644933 0.40828162 0.37592348 0.48401603 0.24543518 0.18419097 -0.12952702 -0.5925604 0.14805605 -0.22050197 0.32111284 -0.15132271 0.24585913 -0.07904505 -0.00794809 0.30762294 -0.0072215344 -0.0658227 0.23604305 -0.3755697 0.27695346 -0.41843846 0.36204103 -0.27662998 -0.32227054 -0.25265455 0.047572467 0.4534047 0.030052837 0.22597101 -0.5954812 0.09501864 -0.17083414 0.25702614 -0.27879494 0.48267817 -0.30988538 -0.7225531 -0.08279349 0.17260861 0.097867385 0.13226537 -0.17500775 -0.21591452 -0.08530954 0.01549166 -0.39674205 -0.05926377 0.12995249 0.25465223 0.03236926 -0.038423084 0.27670214 0.07302747 -0.16226557 -0.005210735 0.047646984 0.010261167 0.2858524 0.13255261 0.056373645 0.047179285 0.1959719 0.06711434 -0.07153491 -0.19115108 -0.1948548 0.18448247 0.3160449 0.028130751 0.30125573 -0.12407446 0.30821896 -0.054122884 0.44292572 0.18627168 0.3579774 0.121465065 0.1857777 0.1914693 0.023343805 -0.09873499 -0.0883357 -0.2011362 -0.0761063 -0.06761772 0.08497235 -0.12672535 -0.22558634 0.30369917 -0.0041248864 -0.38283607 -0.1601402 -0.40423477 -0.07607967 -0.2885278 -0.039102703 -0.21125738
sxsw 0.09168202 -0.9964276 -0.47143158 -0.36776704 0.3634916 0.8372521 0.24710624 -0.05214005 -0.17163026 -0.9834901 -0.2164152 -0.2671389 -0.0039288993 0.061756406 0.4306323 -0.07165269 0.33775336 0.35709637 0.4899561 -0.48011848 0.48074484 -0.102229975 0.41207328 -0.5096265 0.9817133 -0.63950074 -0.36904874 -0.070704155 0.11568304 0.2804843 -0.33368772 -0.4488473 -1.1482418 -0.044182047 -0.30185694 0.51134026 -0.4678541 0.37876543 -0.011223434 -0.4551265 -0.19443224 -0.00269601 0.6319216 0.41266572 0.015059968 0.0802183 0.0788824 0.34476155 -0.62673 0.38352337 0.059367307 -0.0024753131 0.03231726 -0.118514724 0.32151532 0.3906469 0.13478857 0.1587926 0.1284203 0.25199482 0.50652844 -0.2616134 0.62737095 0.107686095 0.055372722 0.2598382 -0.03557525 -0.59163505 -0.09182549 0.027582755 0.87765247 -0.06753884 -0.068233 -0.10836511 -0.11029406 -0.06561671 0.17354316 0.05322406 0.596642 0.18976355 0.36282557 0.34123302 0.13196485 -0.27764815 -0.2912279 -0.19750193 -0.28191766 -0.104079485 -0.09082611 0.20364524 -0.14540271 0.44778216 -0.10949326 -0.4128401 -0.50814134 -0.2500277 0.21995056 -0.46860945 0.11970623 -0.16813685
all 0.31844863 -0.24247274 0.2344171 0.53780556 0.30360657 -0.11458845 0.16393018 -0.13579048 -0.0770413 -0.17926995 0.035898633 -0.32003376 0.43927383 0.2740374 0.27425033 0.13558488 -0.28163683 0.2594366 -0.20982866 0.14613135 0.14644305 0.19804275 0.05255494 -0.42993045 0.37756497 0.12989253 -0.14770216 -0.25969166 0.14113046 0.14549348 0.43882728 0.3376894 -0.26160794 -0.15059063 0.25076115 -0.07705928 -0.038725536 -0.12752496 0.097845756 -0.3295263 -0.13930258 0.09769128 -0.39573607 -0.29740095 -0.18174084 -0.21355735 0.015178067 0.12971759 -0.21009752 0.10253069 0.029514467 0.2851311 0.053724673 -0.34945118 0.3209335 -0.4807694 -0.26868722 -0.22483863 0.22620173 -0.2606962 0.23318361 0.30288935 -0.099543214 -0.2740844 0.29839146 0.35770422 -0.11892856 0.14276256 -0.30780196 0.12034304 -0.02827115 -0.0015136736 0.53960466 0.31818336 0.38413575 -0.09255306 0.25389573 -0.18893279 0.2992654 -0.21893102 -0.053506397 0.14340864 -0.07697162 -0.05442878 -0.07106128 -0.019609407 0.0017061149 -0.20608957 0.32673508 0.1975141 -0.05600338 -0.067961134 -0.2877188 0.025928482 0.07930716 -0.25926983 0.31891212 -0.14252847 -0.04880562 -0.24500266
like 0.27174106 -0.21489778 0.31595492 0.5560305 0.14966439 -0.12342814 0.12361117 -0.16982052 -0.100312226 -0.057039928 0.043312084 -0.3267708 0.33286974 0.34907636 0.18517499 0.22515503 -0.20980482 0.19948435 -0.19579744 0.22737 0.162511 0.24742799 -0.034780074 -0.42990738 0.3322269 0.2406888 0.030789515 -0.13627464 0.1691822 0.07342907 0.4829341 0.22336859 -0.04309913 -0.2388435 0.22111492 -0.14328511 0.025779022 -0.39298433 0.07073927 -0.27045146 -0.20574425 0.028143903 -0.38992172 -0.2055786 -0.24267602 -0.17397538 0.042930942 0.1694346 -0.2588131 0.094848886 -0.046318367 0.119124256 -0.07068276 -0.37571073 0.31658953 -0.5480998 -0.30706432 -0.23192331 0.17845225 -0.21357037 0.32033578 0.23308223 -0.10913523 -0.16940923 0.23160034 0.3581301 -0.0488118 0.11104115 -0.1953364 -0.0783928 0.010163829 -0.047164 0.5038376 0.36064819 0.38526216 -0.14601257 0.2845906 -0.24615897 0.16218306 -0.23753837 -0.102402136 0.17750734 -0.058738533 -0.06658805 -0.2124004 0.066499196 -0.040674318 -0.10158201 0.3804408 0.21309863 -0.05081177 0.0480872 -0.2554093 0.05575727 0.026129853 -0.2634263 0.31461194 -0.021925032 -0.055321403 -0.28849977
will 0.304642 -0.32447726 0.1185337 0.41216707 -0.20096134 0.11612086 0.082614176 -0.015484044 -0.09170385 -0.10653079 0.044275437 -0.32927936 0.14025696 0.23303697 0.22536719 0.19162235 0.012498027 0.11339498 0.10786329 0.2687516 0.15239945 0.3611147 -0.25234482 -0.409708 0.45724282 0.32416996 -0.02561263 0.043331753 0.09075513 -0.031913213 0.18026772 0.080971844 0.12922545 -0.3212364 -0.22424717 0.013277948 0.09349552 -0.4679747 0.0036667574 -0.45802796 -0.17461786 -0.09814765 -0.060081597 0.14808534 -0.237715 -0.21531813 0.23776829 0.20798878 -0.25286335 0.25075164 -0.26107258 -0.25834978 -0.17337447 -0.18648149 0.38831833 -0.09471655 -0.31985548 0.02781074 0.006683893 0.060908936 0.2742699 -0.047795348 0.1699076 0.1576125 0.0846826 0.18604566 0.05449673 -0.08950712 0.18012856 -0.1888296 0.15424985 -0.007144543 0.3027382 0.2287929 0.27027595 -0.24729763 0.28947905 -0.2181143 0.319203 -0.030261466 -0.0016548024 0.19927983 0.133038 -0.08141997 -0.5875857 0.119707 -0.106080495 0.15866078 0.6573686 0.11101435 -0.07155983 0.36204368 -0.15481108 -0.034869034 -0.10416091 -0.24546343 0.091602854 0.07549988 -0.021023056 -0.4818658
line 0.08358267 -0.7629575 -0.36552206 -0.37176773 0.77521884 0.71540874 0.37467134 0.09452313 -0.19504099 -1.123318 0.21675906 -0.2220931 0.11159712 -0.32379404 0.39751482 0.1300454 0.15066022 0.6080876 0.484841 -0.38518754 0.39997154 -0.06130129 0.5981551 -0.5309121 0.8944311 -0.80454624 -0.74256265 0.06407674 -0.009726712 0.73223066 -0.07353924 -0.21711205 -1.400795 0.51995087 -0.24989524 0.5630699 -0.50771695 0.5662327 0.021072464 -0.8016544 -0.36316463 -0.14833978 0.43905017 0.17602952 0.14763372 -0.21359308 -0.23110445 0.3635249 -0.5141127 0.3314351 0.29189944 0.41944396 0.13132475 -0.085380785 0.24308632 0.19593044 0.18567646 0.041613054 0.7564823 0.07604478 0.042618938 0.09732464 0.4972442 0.16914938 0.7023784 0.08978757 -0.11631252 -0.30022463 -0.48780552 0.7186129 0.698976 -0.16214506 0.28543505 -0.34167242 0.0070089246 0.18680188 0.18136409 0.28082204 0.22312614 0.31475717 0.18557946 0.45972502 -0.05525204 -0.0865126 -0.1127002 -0.63426405 -0.24515983 -0.16040431 0.10687374 -0.09320502 -0.2870386 0.019443728 0.024336703 -0.4039656 -0.30928844 -0.54037803 0.13458195 -0.8686366 0.12908445 -0.1422056
social 0.950619 -0.5940485 -0.5736238 1.3835863 -1.3894768 0.98572594 -0.079769164 0.45419502 -0.788081 -0.3104972 -0.04161724 -0.5881139 0.6648788 0.70116794 -0.053090446 0.16360588 1.1416706 0.154425 0.22630158 0.5668951 0.38216776 -0.2530222 -0.7466297 -0.9906175 0.92844266 0.75452274 0.180447 -0.12435043 0.6650564 -0.80684614 -0.2533004 0.3647514 1.2506506 -1.8181348 -1.3716099 -0.09320242 -0.114963815 -1.0500065 -0.14188342 -1.3479275 -0.42685542 0.08396528 -0.13553956 0.658281 -1.095606 -0.67109305 0.90406394 0.80761564 -0.19458297 -0.11252991 -0.39907753 -0.9526156 -1.0400218 -0.6196883 0.81450844 -0.26307696 -0.48762602 -0.07614519 -1.3711636 0.840219 1.3031032 -1.1525742 0.11045836 -0.09513359 -0.171597 0.8354436 0.40074685 -0.5428115 0.80537856 -1.4749815 0.34272146 0.04131795 0.17292212 0.4965575 0.70748144 -0.69336486 1.0869082 -0.39809424 0.6650526 -0.24086975 0.1209328 1.0074269 0.6479525 -0.28118613 -1.834592 0.76184744 0.2833209 0.7106821 1.0868955 -0.36115986 0.08069188 2.0308619 -0.4374334 -0.21288836 -0.4497098 -0.29661578 0.050316133 0.5145236 -0.14787409 -0.64989287
about 0.37379637 -0.22770336 0.08923149 0.64843345 -0.08944224 -0.0006883981 0.06260935 -0.026272388 -0.18994033 -0.0758945 0.10819318 -0.25467733 0.42049846 0.22348198 0.08143565 0.13185383 -0.03401286 0.20648266 -0.13513242 0.23340344 0.1353969 0.16873534 -0.10095784 -0.40861 0.32966012 0.2680213 -0.07647577 -0.13904361 0.1613289 -0.025857028 0.33034784 0.33671477 0.1158677 -0.3482261 -0.0786807 -0.10871394 0.013737792 -0.31119782 0.0034179576 -0.44316095 -0.18084352 0.06924842 -0.302547 -0.108715825 -0.26892397 -0.3555319 0.16294616 0.19087352 -0.108375795 0.016968569 -0.017686432 0.06365123 -0.15322366 -0.3615542 0.2903289 -0.41175196 -0.30191582 -0.18238322 -0.04623347 -0.05007956 0.3480014 0.064850464 -0.0834798 -0.11719196 0.18650128 0.32203272 -0.0100431 0.08381119 -0.103237584 -0.14835247 -0.024509335 -0.020346468 0.42003262 0.27203012 0.3779089 -0.15397698 0.2883284 -0.19592562 0.20427474 -0.18451948 -0.037013024 0.19751967 -0.009375293 -0.019331075 -0.39082876 0.093137085 0.098581046 0.031924006 0.48490694 0.04639618 -0.062184025 0.19860499 -0.2309955 0.029065417 0.06563342 -0.26057005 0.1940668 0.06035152 -0.07480455 -0.27677146
time 0.46577966 -0.33156526 -0.25544772 0.48289526 0.3255565 0.3137901 0.24484748 -0.09425444 -0.07235949 -0.3050967 0.28590888 -0.053405132 0.36895984 0.004798401 0.08692084 -0.2509247 -0.041391846 0.16522674 0.05322429 -0.22752029 0.23069797 -0.1259564 0.27380517 -0.62898713 0.35109544 -0.24340965 -0.48686898 -0.058524057 0.15829174 0.30433708 0.036083136 0.16801767 -0.64601636 -0.008156376 -0.07485799 0.24589656 -0.13618308 0.3920382 -0.2055467 -0.8551209 -0.113332264 0.15374342 0.070998766 0.030506797 -0.06821137 -0.4731536 0.12805605 0.0077734925 -0.0823882 0.040335275 0.119968414 0.15366305 0.17104435 -0.043337442 0.19857137 -0.066244066 -0.20365515 -0.13787887 0.10541264 0.016267482 0.31435546 0.031988043 0.12973258 -0.03294375 0.22989836 0.28996757 -0.18747553 -0.117212474 -0.12933081 0.25085017 0.24126382 -0.012751022 0.24832432 -0.39679745 0.25153288 -0.093464226 0.606513 0.13742064 0.40428856 0.1760089 0.21636537 0.17228805 0.008724205 -0.15032648 -0.16338438 -0.13257201 0.02138667 -0.056088995 0.36452436 -0.055949733 -0.0972455 0.18610123 -0.080271855 -0.37578946 -0.066975884 -0.27241257 0.28811017 -0.3501637 -0.13908191 -0.18156506
can 0.40216464 -0.38935456 0.51395786 0.21282282 0.7373656 -0.14064698 0.22750181 -0.16692334 0.18494341 -0.27941257 0.08301919 -0.53080994 0.28364024 0.017535849 0.46921244 0.21938263 -0.5290385 0.40132806 -0.19585006 0.16829048 0.076881915 0.23561355 0.24789505 -0.41899547 0.38764235 -0.04005328 -0.102306776 -0.16044542 -0.06416984 0.49531567 0.48968077 0.22586334 -0.6334144 0.18782724 0.5473253 -0.06195382 -0.042825103 0.047920056 0.043170087 -0.27067614 -0.20711766 0.06747568 -0.36603805 -0.31730735 -0.120182276 -0.12985715 -0.24933605 -0.029746762 -0.5708637 0.14993209 0.063733354 0.42468897 0.2935069 -0.25402555 0.28133756 -0.37546638 -0.38837776 -0.035458375 0.64578146 -0.42981237 0.094389044 0.5580754 0.02868573 -0.093236275 0.4411364 0.18955953 -0.2755202 0.20458278 -0.5431228 0.43375438 -0.0041603693 -0.034544606 0.7856615 0.3229159 0.41810456 0.01743158 0.1895575 -0.16114333 0.19290286 -0.20009042 -0.15846342 -0.05544382 -0.08826486 -0.022532612 0.13500327 -0.37237927 -0.139914 -0.30713612 0.28397283 0.37658325 -0.16987216 -0.35232273 -0.21991776 0.018819267 -0.041504245 -0.46973756 0.14380674 -0.2693614 0.089024246 -0.1754276
great 0.33147347 -0.2830286 0.032163884 0.5323848 -0.0025797633 0.027571281 0.11135048 -0.14868514 -0.08882443 -0.054255616 0.11791555 -0.13807976 0.327352 0.2202862 0.13775757 0.059942726 -0.08386569 0.13227455 -0.03695373 0.050604656 0.17326929 0.23583342 -0.09269715 -0.46123427 0.3910379 0.15421782 -0.1661489 -0.032655574 0.14553815 0.04265877 0.27247366 0.2020133 -0.1910167 -0.322178 -0.0018195926 -0.058775567 0.04080886 -0.26270676 -0.014645054 -0.5219598 -0.14042266 0.016413148 -0.1982614 -0.046794772 -0.13164559 -0.3719895 0.20179717 0.14873187 -0.1256577 0.13636203 -0.029177468 -0.024304673 0.0023876235 -0.24846494 0.2606191 -0.3160492 -0.28461042 -0.17969194 0.09231224 -0.06609675 0.32931554 0.035843734 0.044461794 -0.02999175 0.17534173 0.3482808 -0.12295464 -0.006197731 -0.12153496 -0.043093085 0.07631351 0.0034565418 0.3904847 0.12828247 0.28026134 -0.16494828 0.31591007 -0.13113564 0.2723608 -0.07812544 0.03301551 0.14280806 -0.058996234 -0.112076856 -0.3670893 0.061153527 0.012270612 -0.0047768946 0.48943633 0.095633864 -0.07929191 0.11865987 -0.19618817 -0.03256609 0.049474508 -0.21701117 0.2763189 -0.07154336 -0.12535056 -0.29521593
via 0.33341593 -0.818826 -0.4471882 0.16271909 0.07307552 0.7801528 0.22496659 -0.11455408 -0.14977881 -0.5616582 -0.21835954 -0.22349523 0.084971614 0.29871702 0.27203584 -0.2027137 0.3359134 0.044474885 0.33902666 -0.31278983 0.40682578 -0.19586116 0.12637722 -0.6831696 0.7238869 -0.37498042 -0.25577563 -0.12580723 0.24752341 0.07913187 -0.43245474 -0.30202985 -0.63855267 -0.4516907 -0.3233915 0.32209513 -0.28454804 0.2487537 -0.1756803 -0.6560461 -0.09737316 0.112204686 0.44847348 0.4353975 -0.19272071 -0.102901846 0.24322204 0.21809687 -0.47443283 0.26335916 -0.09154938 -0.28129777 -0.042145062 -0.028615043 0.261264 0.31078222 0.0063390126 0.093885876 -0.338409 0.34416494 0.6149096 -0.32815522 0.4115168 0.11575538 -0.20267296 0.38796526 -0.030656924 -0.6043544 0.25129 -0.36267504 0.76528656 -0.0910468 -0.1015128 -0.14726877 0.033915713 -0.27734235 0.4933437 -0.04123074 0.72650355 0.18515527 0.34364873 0.31551996 0.26594976 -0.4047411 -0.49785405 0.10024106 -0.25361228 0.07085048 0.103476234 0.21912928 -0.045771763 0.8034025 -0.11573529 -0.43724883 -0.47730216 -0.17913155 0.2762718 -0.14532189 0.013199596 -0.27244732
me 0.29022908 -0.32211325 0.52451646 0.30518845 0.764137 -0.11740375 0.27519694 0.008070091 -0.104731694 -0.39867023 0.11728316 -0.6500539 0.4679269 0.12521586 0.38207462 0.35822615 -0.3494938 0.5487913 -0.27737156 0.28484994 0.1248333 0.23525317 0.2845189 -0.39369595 0.4420975 0.022541659 -0.11990138 -0.35762995 0.065290116 0.4064132 0.6484987 0.31184372 -0.4003642 0.17711419 0.36613634 -0.034840308 -0.12861457 -0.03714906 0.19151467 -0.21745147 -0.34604484 0.057683703 -0.53035307 -0.45361784 -0.1975517 -0.11498579 -0.22876044 0.20634241 -0.4945253 0.08869189 0.13207203 0.6321922 0.08051954 -0.487544 0.42592555 -0.618121 -0.32077405 -0.19542193 0.61297107 -0.41956878 0.0969854 0.60820067 -0.106345885 -0.2952742 0.610476 0.28595844 -0.054806426 0.28472978 -0.55900544 0.4811556 -0.0451099 -0.074555 0.7711335 0.51908296 0.6160689 0.0735497 0.1592315 -0.11876334 0.07323311 -0.40617198 -0.22230363 0.18386045 -0.069891885 0.119144425 0.08909716 -0.32143775 -0.087041624 -0.28817996 0.23428787 0.22133878 -0.15740916 -0.33486262 -0.27611732 0.075406045 -0.008893221 -0.5039397 0.17224394 -0.26604506 0.06855008 -0.22972362
no -0.5037544 -0.69754285 0.18219785 -0.047578733 0.52812797 0.16739681 0.27879134 0.46823695 -0.7904968 -1.2163512 0.009903915 -0.802389 0.25919273 0.11115844 0.61326545 0.8084114 0.62972534 0.98386204 0.14210358 0.32965788 0.36197403 0.21188298 0.21373127 -0.2895172 1.017678 -0.1873971 0.15006478 -0.43718448 -0.036979478 -0.038039796 0.77160835 -0.044626158 -0.58332103 0.17679253 -0.062184114 0.32372248 -0.49647784 -0.58202887 0.74199265 -0.011726778 -0.851336 -0.30972916 -0.43383333 -0.21746515 -0.10684465 0.30327418 -0.12222105 1.2864438 -0.7008205 0.06838786 0.4580764 0.6255062 -0.82595146 -0.9240135 0.5334446 -1.009583 0.35702547 -0.5333752 0.62570816 -0.09337413 0.29490465 0.19520509 0.1296602 -0.8261486 0.77363646 0.38479492 0.4823504 0.07983552 -0.84926623 0.22324826 0.072231404 -0.34109882 0.47337657 0.8308927 0.15541205 0.2622792 -0.55735105 -0.4091456 0.018757014 -0.55916977 -0.17336473 0.9514401 -0.32517314 0.11381719 -0.35086456 -0.22497638 0.06664086 -0.09642794 -0.23361762 -0.0032119043 -0.281092 -0.19770558 -0.4121502 0.21548 0.08175869 -0.22392008 0.6251391 -0.5709812 0.22551192 -0.29828006
but 0.10718965 -0.33995602 0.38740182 0.16693327 0.6131931 -0.11405854 0.21055238 -0.06650124 -0.13439558 -0.43824 0.072022974 -0.47198114 0.30020565 0.08332607 0.38348594 0.30664763 -0.20587417 0.445334 -0.112392195 0.17874037 0.20518318 0.28003892 0.21459232 -0.33887756 0.5060142 -0.05038439 -0.05063078 -0.19413693 0.03329483 0.3173487 0.5343803 0.11121162 -0.4638694 0.16321096 0.3146291 0.019934198 -0.1583973 -0.15690793 0.20520179 -0.19482851 -0.3146474 -0.051067963 -0.3611392 -0.24072988 -0.08319303 -0.052129805 -0.13861045 0.27876613 -0.4860505 0.1547512 0.15561502 0.42909417 0.005228333 -0.45442095 0.31555688 -0.47594684 -0.18121627 -0.2002153 0.6152154 -0.2990456 0.14490874 0.44183806 0.018706815 -0.19235931 0.48013598 0.26066327 -0.019332075 0.1879737 -0.5208707 0.32687905 0.06414738 -0.114722274 0.59494174 0.40732092 0.34853554 0.052130457 0.009929761 -0.1998772 0.097969994 -0.2517073 -0.12965879 0.1837599 -0.16208565 0.04441904 -0.0072543463 -0.2537825 -0.10631813 -0.19353591 0.19817688 0.21158369 -0.16678533 -0.280944 -0.2499001 0.040165283 -0.007759215 -0.36416867 0.24402645 -0.2605072 0.08087326 -0.21635091
party 0.2487412 -0.23477308 -0.14921947 0.7088062 -0.23182043 0.08539579 0.004617014 -0.14659661 -0.20120244 -0.04015987 0.034167916 -0.04190794 0.335098 0.49171117 0.12871157 0.024446962 -0.0634605 -0.0183422 -0.102821276 -0.008361201 0.13955195 0.07320792 -0.15051441 -0.47886664 0.35355532 0.27143618 -0.14684367 -0.09871986 0.3047704 -0.098932475 0.32119465 0.25052395 -0.052698754 -0.46481815 -0.07207295 -0.056992225 -0.011318049 -0.3427906 0.018553235 -0.47158608 -0.14462586 0.095220506 -0.24291572 -0.12810594 -0.1843215 -0.38615447 0.20680891 0.22958927 0.1357357 0.028921425 -0.04657939 -0.07068866 -0.14174616 -0.21969451 0.34690487 -0.46647942 -0.23996766 -0.26549304 -0.182666 -0.034373485 0.49850506 -0.101930425 -0.053668573 -0.14129223 0.113559395 0.44258055 -0.10899238 -0.097055584 0.06370638 -0.2687959 -0.003408006 0.1208205 0.22676116 0.08664316 0.2297282 -0.23988135 0.39567462 -0.086384416 0.2869397 -0.121255115 0.045348175 0.34275395 -0.054278474 -0.1797443 -0.4212034 0.23545758 0.0381694 -0.107064754 0.36397192 -0.05243099 0.062434115 0.2880692 -0.26106742 0.060704216 0.08411758 -0.08492564 0.4488953 -0.05919933 -0.17644218 -0.37343892
today 0.49427477 -0.42900807 -0.41909045 0.6259261 -0.5755243 0.5906914 0.0905395 0.09917465 -0.29291505 -0.22058664 -0.1242207 -0.30521655 0.41345972 0.42746195 0.0054603135 -0.043650996 0.38109607 0.051659703 0.23410563 0.043087553 0.30559924 -0.22137028 -0.29472113 -0.6318995 0.61785704 0.23983388 -0.1853657 -0.17951064 0.45358843 -0.23499253 -0.37551478 0.10619013 0.3830749 -0.89437187 -0.6941822 0.03598215 -0.13676563 -0.21990088 -0.099824786 -0.8985315 -0.15314594 0.10726618 0.096215054 0.33417812 -0.5130923 -0.4013984 0.39747894 0.21842092 -0.07698717 0.04944178 -0.23582958 -0.44071886 -0.3601464 -0.18498655 0.42786077 0.11907048 -0.2047262 0.06415964 -0.669598 0.44505242 0.62049425 -0.55073357 0.14244242 0.08717794 -0.03865202 0.54420257 0.09126434 -0.4551811 0.53908706 -0.68705004 0.5029125 0.05207092 0.017359277 0.084331095 0.36743894 -0.3960041 0.724599 -0.022907425 0.5796042 -0.04590436 0.13048269 0.4829073 0.4786401 -0.15798111 -0.83108956 0.41068622 -0.040885247 0.2841018 0.58594096 -0.1289595 0.097100414 1.1328456 -0.16718566 -0.2983528 -0.37139267 -0.2779968 0.08912536 0.14574008 -0.007789779 -0.42700228
we 0.6280962 -0.17063634 0.7566459 0.7825184 0.51990926 -0.4352201 0.17314664 -0.20306547 0.05668362 -0.019779028 0.021556355 -0.74207914 0.7541905 0.34122762 0.4870302 0.32230118 -0.60608315 0.34202975 -0.52056926 0.5148043 0.0712005 0.35194367 -0.05619886 -0.4740992 0.43014744 0.35617223 0.04289074 -0.49552992 0.18944955 0.26235294 0.8259768 0.63916814 0.053007536 -0.28775537 0.49993277 -0.37485093 0.015108811 -0.38363445 0.17905992 -0.35046548 -0.22214232 0.14954795 -0.8415589 -0.636355 -0.40481716 -0.2339341 -0.034990724 -0.05317898 -0.33143154 -0.023053195 -0.13531445 0.49955934 0.1628117 -0.7342264 0.50245905 -0.7474472 -0.6653661 -0.24640794 0.3955312 -0.5542734 0.26169688 0.5509604 -0.26654074 -0.33112955 0.5572576 0.49853715 -0.16657467 0.4900543 -0.46321115 0.23215105 -0.30022922 0.10081833 1.100765 0.79590946 0.9595851 -0.15572892 0.3953832 -0.25785643 0.2620774 -0.54143107 -0.3577719 -0.063267775 0.01575058 0.10152964 -0.042324867 -0.055215344 0.0037890228 -0.27846184 0.7056927 0.35750794 -0.14475168 -0.1873373 -0.46819645 0.17937328 0.14523874 -0.5374505 -0.019464822 0.018716492 -0.06264686 -0.37888303
circles 0.8504728 -0.6583607 -0.52391833 1.3625641 -1.2665924 0.8513659 0.009151411 0.22810645 -0.6889303 -0.22614363 -0.2117573 -0.6534867 0.70232934 0.8674451 0.035611145 0.10094567 0.8674325 0.065395124 0.30607483 0.39668104 0.45570138 -0.13410649 -0.8102945 -1.0099454 1.0467205 0.74836063 0.099578254 -0.22739714 0.75085664 -0.78569186 -0.2912637 0.27844492 1.0860599 -1.8800892 -1.1663852 -0.08060414 -0.09418091 -1.0247327 -0.063600525 -1.370884 -0.42020604 0.12942412 -0.17702655 0.60429037 -1.0569384 -0.5992912 0.9040662 0.71463156 -0.14931408 0.003047046 -0.49687982 -0.96209913 -0.89405596 -0.5678789 0.8356049 -0.11138968 -0.4729667 -0.0489462 -1.3129961 0.7466349 1.2142433 -1.0508447 0.19511686 -0.04048061 -0.20564286 0.95948744 0.3100554 -0.64294076 0.92365897 -1.4845598 0.5142215 0.06720397 0.17483051 0.49936497 0.62023145 -0.74912447 1.0926818 -0.3971809 0.85625976 -0.23987837 0.14726189 0.87272334 0.7729223 -0.29901898 -1.7771395 0.8050494 0.09984676 0.5981391 1.0918208 -0.13672349 0.13434269 1.9852194 -0.39926502 -0.21530539 -0.52826345 -0.31423372 0.19654897 0.46457547 -0.08589532 -0.7878802
has 0.25979897 -0.28678915 -0.07228911 0.3624457 0.24331334 0.17479852 0.23459528 -0.08848072 -0.1327949 -0.2583603 0.13032319 -0.150717 0.41053107 0.16994068 0.041934572 -0.019686537 -0.18858 0.27503392 -0.05347096 -0.06618905 0.20318943 0.035741616 0.20918135 -0.4859132 0.31537876 -0.02941949 -0.37798405 -0.15319102 0.15475743 0.22977163 0.1743738 0.2555766 -0.41101545 -0.08270427 -0.0022994417 0.11529733 -0.08632346 0.17870684 -0.02477599 -0.5020988 -0.13214388 0.09362572 -0.12004635 -0.14483245 -0.14547539 -0.31843096 0.05139284 0.07553452 -0.13151671 0.09404801 0.11147208 0.26426736 0.10286043 -0.13163315 0.2747044 -0.23088613 -0.14767125 -0.14770636 0.075888924 -0.09243949 0.19074252 0.23336722 -0.018374396 -0.08822091 0.30621645 0.25817525 -0.08876135 -0.035880033 -0.15352854 0.18819165 0.19997922 0.0030016406 0.3048902 0.018095192 0.28668422 -0.020105513 0.3616775 0.06554946 0.26842126 -0.074535415 0.10439163 0.23749955 -0.015082825 -0.07024037 -0.07950194 -0.08464285 -0.04178369 -0.087913536 0.26886806 -0.001408836 -0.004024701 0.13107303 -0.10505482 -0.13530686 -0.039264478 -0.30212048 0.32843804 -0.2320099 -0.099430144 -0.18419638
day 0.15484424 -0.27760178 -0.47772032 0.4438306 -0.0847231 0.17386967 0.14349133 -0.14484733 -0.17788714 -0.24519032 0.29593694 0.1906056 0.36301747 0.11424113 -0.056481425 -0.1809731 0.15817426 0.10163399 0.21016753 -0.22054619 0.3358725 0.12514812 0.10137822 -0.54903615 0.4209625 -0.10002996 -0.41858268 0.07636594 0.22392972 -0.0478641 0.05430373 0.15003347 -0.48415756 -0.2468757 -0.22911246 0.32224712 -0.042623047 -0.019412452 -0.051538967 -0.79262537 -0.1264465 0.026401343 0.13348693 0.10095202 0.075621895 -0.48436916 0.35812438 0.20284744 0.14406338 0.23246568 0.09953221 0.019832661 -0.06636777 -0.1982007 0.14346753 -0.20424953 -0.09348734 -0.32372183 0.018246882 0.11762946 0.45530474 -0.20226489 0.15856183 -0.031465985 0.1734066 0.45344123 -0.12946431 -0.16643557 -0.06887867 0.059730764 0.22249994 0.0041629747 0.09618605 -0.36510172 0.0378879 -0.06434182 0.34533027 0.033953346 0.37072352 0.11907028 0.27823198 0.31685543 -0.09649479 -0.2055326 -0.38091063 0.09808738 0.16782878 0.050178315 0.4517359 -0.08485553 -0.03283217 0.18084598 -0.15339695 -0.2568396 0.035851445 -0.053552605 0.4936546 -0.30930832 -0.16324347 -0.25157776
was 0.08126218 -0.48565912 0.08411942 0.09360163 0.51285243 0.13401726 0.24599019 -0.0923639 -0.1503612 -0.48316318 0.14437847 -0.30426845 0.23141271 0.0719009 0.26507854 0.23528078 -0.14782721 0.4618671 0.063847795 -0.042877693 0.27486944 0.24672025 0.2871188 -0.43006283 0.5586619 -0.20823775 -0.2557079 -0.053123455 0.059661523 0.3741523 0.38885927 0.02909972 -0.6828055 0.22562967 0.10693287 0.17506391 -0.15317509 -0.031002013 0.13068299 -0.3666685 -0.33647898 -0.07373332 -0.118095614 -0.11563735 -0.022829212 -0.17353706 -0.10441526 0.3193011 -0.3867706 0.26173925 0.18325493 0.36843467 0.029750487 -0.32729855 0.3095723 -0.33908692 -0.07607815 -0.15250304 0.6018232 -0.18868251 0.15609445 0.34490374 0.16009302 -0.052051533 0.48723242 0.24296048 -0.095966145 -0.007245324 -0.44480854 0.37576458 0.25318944 -0.14887401 0.45647088 0.15285155 0.19906923 0.07887903 0.071594544 -0.059237096 0.13486984 -0.09515732 0.011112527 0.28833514 -0.14267735 -0.03590137 -0.11362732 -0.2935007 -0.14989112 -0.20271076 0.25758827 0.13851063 -0.17775992 -0.15303133 -0.16139169 -0.089919835 -0.073548205 -0.3932902 0.3331647 -0.41050583 0.025241716 -0.2669115
cool -0.51487434 -0.87399065 0.08169264 -0.17815894 0.73098207 0.4426886 0.32981214 0.3765814 -0.78713983 -1.2697273 -0.064903475 -0.69349205 0.08878755 0.24479444 0.64863414 0.6473264 0.54801226 0.84995276 0.106402054 0.16114277 0.39295697 0.033083 0.4031776 -0.37573358 0.93584 -0.42426807 0.0033069 -0.4632037 -0.03720854 0.27314216 0.5401031 -0.2745155 -0.8965249 0.35324606 -0.055660136 0.4257793 -0.59356743 -0.1744546 0.56992906 -0.008794506 -0.737014 -0.17001207 -0.20030394 -0.08427732 -0.058206767 0.43437082 -0.27777952 1.2057482 -0.7875785 0.2066795 0.4302777 0.59822005 -0.65115076 -0.7246993 0.5004381 -0.7670772 0.5374727 -0.4209482 0.5306916 -0.08818418 0.22145666 0.38723525 0.06946533 -0.62222934 0.4536348 0.09464818 0.49957117 -0.11416197 -0.73882335 0.15618715 0.3051461 -0.47064236 0.19953354 0.6915542 0.034243044 0.22323032 -0.49502724 -0.3974766 0.1926192 -0.3693389 -0.09497045 0.82679385 -0.39652997 0.04298914 -0.17089596 -0.2578517 -0.17209558 -0.20379017 -0.43476033 0.08695022 -0.2502175 -0.07298833 -0.26937896 0.105796576 -0.07340837 -0.19385098 0.6598355 -0.649006 0.23384035 -0.25712112
free 0.70401275 -0.4292612 -0.24884667 0.6211527 0.33014783 0.51107293 0.26572716 -0.1797572 0.10904776 -0.25705945 0.055900596 -0.16132519 0.48741734 0.17333058 0.22995943 -0.4416829 -0.19731341 0.053414032 -0.12160651 -0.25386038 0.21285014 -0.3861469 0.22771023 -0.73257357 0.3491371 -0.27483532 -0.49405354 -0.330356 0.32238287 0.33508205 -0.11330457 0.1946256 -0.6456987 -0.28519708 -0.022634715 0.13776189 -0.1168621 0.5786529 -0.37471682 -0.8175785 0.08269171 0.38806313 0.08778469 0.019476568 -0.2705253 -0.4231584 0.14601657 -0.2684507 -0.15547898 -0.062273253 -0.04883487 0.056971043 0.39744392 0.057302147 0.25094613 0.12552638 -0.3949192 0.043314386 -0.18684931 0.029910915 0.4628056 -0.0049359393 0.06196996 0.015239477 0.0014712478 0.39428914 -0.2777978 -0.26905537 0.07134075 0.05725863 0.28379655 0.055890854 0.2557439 -0.32877597 0.46333176 -0.30230853 0.8687344 0.19913791 0.6438528 0.11346882 0.20316327 0.044853624 0.17037664 -0.23614 -0.09767449 -0.0005482251 -0.067751355 -0.10110954 0.247721 0.103471935 -0.07241827 0.40314093 -0.12646946 -0.43560457 -0.20340937 -0.33003876 0.12032773 -0.13820824 -0.14330213 -0.23280239
there 0.115924805 -0.30126166 0.3609085 0.15499057 0.569368 -0.17374176 0.22248258 -0.09327115 -0.113779604 -0.43325165 0.10947997 -0.36422196 0.28676853 0.0630259 0.37024543 0.32101732 -0.23712705 0.38940778 -0.024069978 0.13050441 0.20362636 0.32027635 0.1497628 -0.33794945 0.48736075 -0.08948122 -0.14328538 -0.14436582 0.029478379 0.3697127 0.514318 0.13510983 -0.49823394 0.21366805 0.27286226 0.06029901 -0.11918374 -0.18271796 0.17111114 -0.34175083 -0.31049922 -0.11558332 -0.35608518 -0.23628896 -0.06921355 -0.06950672 -0.14426973 0.26373383 -0.422857 0.20057131 0.083812 0.40262243 0.025715377 -0.42803293 0.27065304 -0.4179954 -0.14771345 -0.19480608 0.6784579 -0.2805891 0.03106278 0.46612692 0.05146668 -0.1572342 0.5524048 0.24854523 -0.025669146 0.16333151 -0.47382632 0.40073925 0.1071325 -0.12625499 0.60953987 0.30560482 0.32227948 0.044589527 0.015979813 -0.13358696 0.04467295 -0.16638826 -0.14113918 0.17634317 -0.14216943 0.0088567985 -0.062509954 -0.25773123 -0.1177438 -0.16420305 0.2713078 0.17995016 -0.20004116 -0.29306468 -0.23526981 -0.02221434 0.02217669 -0.41073662 0.2182445 -0.29290974 0.032890726 -0.25493106
as 0.32677552 -0.25317797 0.025083017 0.4515707 0.2124669 0.022437084 0.24513142 -0.13755548 -0.08786762 -0.07251006 0.16485171 -0.19161673 0.4308452 0.19721268 -0.061178237 0.048699334 -0.21978249 0.19678576 0.019226355 -0.07026909 0.1817532 0.1573501 0.052335292 -0.5040974 0.41701275 0.06563089 -0.32609954 -0.13851021 0.2551904 0.26079214 0.23249994 0.22998688 -0.26168236 -0.11816327 0.062194437 0.07616226 0.043337382 0.034695175 0.0034886242 -0.6179567 -0.20293094 0.05479563 -0.24703771 -0.22116514 -0.14471692 -0.52040726 -0.009253886 0.057698388 -0.09986053 0.19871469 0.13723825 0.22947259 0.06592451 -0.20351492 0.2581383 -0.29977268 -0.19727154 -0.14199069 0.1711654 -0.11056442 0.20431286 0.30044073 -0.024618018 -0.08386863 0.36994848 0.46837726 -0.08089208 0.021535318 -0.073473826 0.095249675 0.27290878 -0.011297111 0.42472252 0.04089779 0.32333514 -0.052075062 0.34981525 0.08455672 0.22939901 -0.1312899 -0.03184481 0.26614466 0.042660292 -0.06778226 -0.17993249 -0.034210958 -0.12426698 -0.047180694 0.45996305 0.099169366 0.025692811 0.08236356 -0.16871968 -0.1654119 -0.042009905 -0.40412468 0.42948103 -0.10197395 -0.01915608 -0.2790953
here 0.18058051 -0.35922712 0.25231725 0.12956293 0.6304121 -0.021477085 0.19792701 -0.18589486 0.031570956 -0.37548527 0.033879295 -0.34950924 0.23543096 0.080086224 0.38820776 0.13881195 -0.2850325 0.32441807 -0.06761291 -0.0033608025 0.19650948 0.20564878 0.23092502 -0.3743554 0.4505985 -0.17399397 -0.19316928 -0.18537375 0.031589426 0.39257368 0.3646483 0.10715132 -0.6582973 0.16843142 0.33555114 0.030891832 -0.14131895 0.059187833 0.06545957 -0.25849584 -0.21772501 -0.012917306 -0.21279325 -0.22816895 -0.015660176 -0.06286201 -0.13160326 0.08080231 -0.40752506 0.14672424 0.109973684 0.37609515 0.19354486 -0.27279544 0.22703226 -0.303609 -0.19780293 -0.119722545 0.55106264 -0.28024244 0.0934839 0.39784294 0.09048336 -0.1287209 0.38732725 0.22262931 -0.17406341 0.10510252 -0.44990772 0.39351547 0.13322937 -0.05037513 0.543303 0.20767644 0.29529542 0.013827379 0.114828154 -0.0985948 0.18498841 -0.11922523 -0.061356366 0.064410456 -0.118625894 -0.058791496 0.07444165 -0.29291385 -0.13997671 -0.2698025 0.15678312 0.27163303 -0.1382689 -0.27161217 -0.19685738 -0.05706445 -0.016794931 -0.3382987 0.20015907 -0.3098584 0.023947278 -0.16751155
what 0.42342603 -0.24115294 0.4915111 0.45349935 0.4154288 -0.25148788 0.13769686 -0.14711955 0.03342678 -0.1449088 0.051336545 -0.46864668 0.42169058 0.15373461 0.39005318 0.243588 -0.383385 0.33905172 -0.2111325 0.2950757 0.111906424 0.3599486 0.023968592 -0.35724196 0.37264216 0.20703158 0.016615255 -0.19150573 0.05765956 0.21865721 0.588762 0.35312814 -0.1911051 -0.12626383 0.345539 -0.16405457 0.020198384 -0.3005421 0.0748921 -0.30972308 -0.20194004 0.039217368 -0.50035715 -0.3017271 -0.20528121 -0.1762559 -0.033278126 0.061700165 -0.38101995 0.1002316 -0.061798077 0.2994695 0.109242186 -0.439288 0.32426664 -0.43763053 -0.48865807 -0.12355437 0.43170676 -0.37148452 0.18677123 0.35113263 -0.019322427 -0.12379247 0.38497186 0.2798894 -0.17371978 0.2570858 -0.3962331 0.22459698 -0.122016065 0.023202628 0.76270443 0.456623 0.50691694 -0.12372884 0.18936323 -0.22892557 0.17756636 -0.23878013 -0.16453144 -0.014387641 -0.07464262 0.04126943 -0.14819062 -0.1723783 -0.0061932895 -0.16304643 0.4511619 0.2898251 -0.15650593 -0.19169101 -0.27544975 0.12510371 0.07004794 -0.3558444 0.06969087 -0.07172994 -0.0082720835 -0.26798752
maps 0.718337 0.0015664933 -0.076678075 1.9934641 -0.9689506 -0.6047457 -0.07906289 -0.41518077 -0.26915395 0.6344102 0.44490445 0.2554689 0.9661284 0.7315409 -0.25995144 -0.06368667 -0.3501389 -0.15423615 -0.33778974 0.41693416 0.1782501 0.81524855 -0.6999185 -0.8290868 0.21877667 1.1154801 0.033308007 0.13569474 0.39751568 -0.6374599 0.837114 1.0220664 0.49722654 -1.3541569 0.0018564104 -0.40360555 0.44980976 -1.1446306 -0.18560156 -1.1650392 -0.08619191 0.0531552 -0.8617773 -0.17405365 -0.30590373 -0.9801427 0.8993387 0.25615546 0.47461748 0.00536433 -0.19048093 -0.31194377 -0.23040259 -0.46627557 0.41839764 -1.1276549 -0.8944029 -0.7785154 -0.5490148 -0.09194424 0.9119546 -0.15717179 -0.2862713 -0.36046225 -0.07284189 0.8863918 -0.26698083 0.26751587 0.117968224 -0.65632063 -0.538266 0.2429249 0.67184645 0.21660207 0.41775927 -0.5587298 0.718037 -0.5882748 0.50380945 -0.17406486 0.13359317 0.14856187 -0.28974846 -0.28550607 -1.0610197 0.61715823 0.66520804 0.26050785 1.281113 0.12348337 -0.024757868 0.25810552 -0.5000185 0.2537088 0.6318288 0.036588393 0.9006528 0.43767926 -0.65411264 -0.6873446
people 0.11531105 -0.2843994 0.11088627 0.3060184 0.3407952 -0.098143704 0.2462992 -0.10139215 -0.18961254 -0.3450744 0.1441222 -0.25844777 0.40412623 0.06622201 0.18698843 0.25624567 -0.17267518 0.41626436 0.045130536 0.04446157 0.20106132 0.30061454 0.060127016 -0.38072708 0.50063676 0.011458971 -0.27243114 -0.03142028 0.0436478 0.28667206 0.38125053 0.26524225 -0.42576563 0.049500916 0.051929142 0.050479516 -0.028085414 -0.19335221 0.21689032 -0.5264691 -0.32487568 -0.110816546 -0.27759835 -0.2439498 -0.03990295 -0.29072008 0.04419869 0.24942353 -0.10317917 0.16536123 0.15335895 0.32838714 -0.0015063137 -0.3590522 0.20959166 -0.38240984 -0.13771173 -0.26851326 0.4951582 -0.22886267 0.036520995 0.23140605 0.08993476 -0.09483135 0.5225272 0.26044294 -0.15228114 0.12251754 -0.4617688 0.394886 0.09761344 -0.069428876 0.53805494 0.18424767 0.22736584 0.076423764 0.041589744 -0.11249328 0.14314733 -0.10829731 -0.04682038 0.18099491 -0.17178477 0.017109768 -0.1351382 -0.17998742 0.0748939 -0.110789984 0.42506415 0.036514677 -0.1491725 -0.17707124 -0.15993074 0.028488362 0.02664317 -0.30052868 0.24025306 -0.35158372 0.01748221 -0.16237414
if 0.4812271 -0.38972574 0.9327132 0.26916158 0.89208543 -0.35604158 0.18276992 -0.40586537 0.38423955 -0.10644203 -0.09324999 -0.7454307 0.26982817 0.19671711 0.68743604 0.2919215 -0.7897034 0.29639143 -0.38328823 0.3443196 0.08421242 0.4389917 0.18625928 -0.4010667 0.4733205 0.04417593 0.23405637 -0.27268308 -0.016963936 0.42733926 0.73627853 0.15747924 -0.49754366 0.07290583 0.8635656 -0.27311245 0.014056898 -0.20459816 0.041935656 -0.026140075 -0.1294335 0.10058076 -0.53911054 -0.3255751 -0.23898558 0.10158365 -0.2402955 -0.12571526 -0.81881857 0.17780736 -0.13909361 0.41872153 0.39039895 -0.43190965 0.34851304 -0.45960292 -0.5953388 -0.04933472 0.7739856 -0.600138 0.18621619 0.7094491 0.044801217 -0.15396336 0.3325899 0.25747928 -0.33468604 0.29275814 -0.51167893 0.31381974 -0.056843758 -0.031864647 0.9994638 0.65952516 0.56662863 -0.09622891 0.21232416 -0.35404012 0.20957296 -0.32687455 -0.25532466 -0.27176893 -0.025097245 -0.0761718 0.14792918 -0.32783353 -0.28581738 -0.42559585 0.30946425 0.76878834 -0.2373394 -0.42598274 -0.34279814 0.099402726 -0.045490045 -0.466247 0.121843405 -0.06985926 0.097260565 -0.27767226
go 0.38494575 -0.4589891 0.5823323 0.14210778 0.5069456 -0.17489724 0.109329015 0.38094872 -0.14283355 -0.7902894 0.08065018 -0.9584385 0.63827825 -0.3825061 0.8008269 0.43513754 0.15650603 0.8212546 -0.008107113 0.3465327 0.117399395 0.2122837 0.121849656 -0.08530732 0.7661966 0.147317 0.31475163 -0.3696463 -0.018585268 -0.35833457 0.8640028 0.40429732 -0.19407907 -0.16130462 0.25270405 0.054835513 -0.3982713 -0.5008323 0.3393433 -0.010537665 -0.4852683 -0.16031353 -0.54766846 -0.18877798 -0.13122517 -0.024295539 0.17413454 0.50998986 -0.83220977 -0.18254784 0.104651116 0.4766637 -0.3153583 -0.85881937 0.43197358 -0.54588515 -0.57824117 -0.14251798 0.5279249 -0.15077275 0.4566416 -0.19163194 0.35334066 -0.5906517 0.6928035 0.552925 0.13390915 0.4321633 -0.80763865 0.27650824 -0.2130763 0.20457146 0.9684364 0.83763015 0.5113093 0.08212164 -0.11231971 -0.28367195 0.09684403 -0.54556966 -0.0827485 0.35939237 0.16661552 0.16892943 -0.39476362 -0.40091717 0.3504109 -0.07153956 0.08890441 0.14218888 -0.2750606 -0.28956598 -0.3936681 0.20488581 0.04495438 -0.27173793 -0.18163006 -0.15581834 0.20215118 -0.153198
good 0.3229914 -0.2853044 -0.049365465 0.6258498 -0.078087226 0.03997241 0.17788097 -0.12330911 -0.21378015 -0.06833576 0.10304163 -0.1598395 0.39168972 0.2926249 0.014790909 0.059656527 -0.0037988955 0.140543 0.009494326 0.03796398 0.22416988 0.17894875 -0.105463386 -0.5129486 0.45143387 0.19447951 -0.21404992 -0.09376545 0.23897386 0.02505323 0.2430157 0.22391215 -0.080793954 -0.40816155 -0.08943127 0.023393849 0.051640935 -0.2932688 0.009352433 -0.6591586 -0.21116565 0.05929455 -0.23344256 -0.07569003 -0.21634376 -0.4233783 0.2363682 0.2102746 -0.07665499 0.15254194 0.0080416305 -0.014761002 -0.117749155 -0.30157954 0.31670946 -0.3695914 -0.22552036 -0.22780369 -0.028453939 -0.0015965957 0.37816784 0.04852214 -0.019314824 -0.111486405 0.20951574 0.4647224 -0.043835443 -0.06808344 -0.021107724 -0.15188769 0.15293396 -0.041806873 0.3447215 0.12939966 0.31460828 -0.20377128 0.39531362 -0.12643418 0.31785884 -0.105860315 0.036390103 0.27693853 -0.013437877 -0.11577207 -0.4221795 0.16019464 0.012079888 0.052078962 0.53051555 0.073043354 -0.026431315 0.2876452 -0.23788832 -0.11600421 -0.0043644616 -0.25126532 0.40782514 -0.0226505 -0.083701156 -0.33127028
apps 0.6227075 -0.14609636 0.17991531 0.8234232 0.05959119 -0.030515777 0.11257519 -0.11413912 -0.0029134261 0.117886685 -0.0023026287 -0.3831018 0.5464877 0.37191135 0.09320173 -0.123244174 -0.24556842 0.057426263 -0.33154032 0.19035603 0.11459249 -0.009203031 -0.086992085 -0.5061792 0.2018578 0.3330089 -0.102368675 -0.3652071 0.27869263 0.03864331 0.21484046 0.45349824 0.10700944 -0.5412935 0.16589874 -0.1880711 0.09006791 -0.09312172 -0.107114054 -0.51301485 -0.04030326 0.26380682 -0.44092244 -0.20104042 -0.37617856 -0.35770014 0.14588192 -0.1485634 -0.093122944 -0.0624371 -0.13261336 0.029062146 0.110484555 -0.19062378 0.33998346 -0.3476709 -0.47103855 -0.16348298 -0.21254008 -0.1605129 0.41625285 0.18363419 -0.20828757 -0.20915537 0.0559647 0.45880646 -0.18232876 0.041523196 0.05949894 -0.17837635 -0.06505636 0.12947375 0.4904994 0.23722444 0.62446177 -0.30408543 0.63000923 -0.08612694 0.46617818 -0.2500232 -0.037016004 0.04530443 0.14099549 -0.108342014 -0.18048817 0.18231957 -0.0032576008 -0.065284684 0.43189433 0.21430783 -0.016295606 0.26895502 -0.2621521 -0.0509875 -0.012926876 -0.27613586 0.1422785 0.16830415 -0.117336795 -0.2621644
mobile 0.7501583 -0.014356669 0.014687045 1.6807878 -0.6210683 -0.47355026 0.025814166 -0.38439852 -0.1924042 0.41542327 0.32519385 0.101709455 0.842984 0.5869097 -0.12344854 -0.12844533 -0.30429748 -0.078918174 -0.29860723 0.36746368 0.16341051 0.5881166 -0.49810988 -0.7231711 0.16862369 0.8342707 -0.020073438 0.0026781685 0.33597142 -0.48827448 0.61489815 0.86510533 0.31606606 -1.0070444 0.051583216 -0.25767148 0.32271704 -0.7389366 -0.2285573 -0.9869247 0.017064042 0.07432312 -0.6572516 -0.19370596 -0.19237536 -0.81256807 0.67678297 0.06400701 0.28239202 0.033405818 -0.20421448 -0.18049805 -0.17638257 -0.36157328 0.32055366 -0.7730316 -0.69842434 -0.5799215 -0.4265441 -0.110641256 0.6883673 -0.04341019 -0.3156961 -0.26316318 -0.054341573 0.7224042 -0.2004656 0.24488853 0.08624385 -0.47346845 -0.34696487 0.11907917 0.55889916 0.094114795 0.37282592 -0.5211604 0.6529234 -0.46984848 0.53931224 -0.090101935 0.14179651 0.0786887 -0.2121983 -0.2364818 -0.78655446 0.48287916 0.469336 0.21172665 0.9896502 0.15882663 0.02540738 0.20912513 -0.38610047 0.13960107 0.4511257 0.0146975545 0.62834316 0.33977437 -0.4977958 -0.5199197
network 1.2920622 -0.9847915 -0.6837825 1.836137 -1.2644734 1.2012429 0.04687779 0.23876977 -0.90122163 -0.40126878 -0.031905178 -0.828708 0.982615 0.8619537 0.12727311 0.06635391 1.0052387 0.20454872 0.3326417 0.4609535 0.614925 -0.20914033 -0.75966287 -1.4649065 1.3759059 0.7217724 -0.09696768 -0.33039472 0.8237104 -0.8023473 -0.1746314 0.51986116 0.9224968 -2.1142032 -1.4116993 0.017377362 -0.14108448 -1.0789554 -0.22071691 -1.8608592 -0.5544767 0.2886196 -0.17363551 0.79124314 -1.1623284 -0.94212115 1.0813501 0.81928945 -0.33526614 -0.07945195 -0.4780583 -0.9506309 -1.0351698 -0.70463777 1.162379 -0.25442407 -0.6927708 -0.15183552 -1.4271713 0.872625 1.681036 -1.2280781 0.2967264 -0.08830746 -0.10537753 1.2633289 0.28871825 -0.75979304 0.8629844 -1.5779564 0.6154489 0.1763872 0.40629193 0.57147217 0.88367236 -0.85896724 1.4732258 -0.42227197 1.174508 -0.3115987 0.31321862 1.1041406 0.8656489 -0.36532637 -2.175982 0.7579918 0.25361827 0.68220055 1.3179886 -0.20701844 0.07886959 2.30326 -0.5384104 -0.31983057 -0.60684717 -0.4740856 0.31778124 0.41763055 -0.24189118 -0.9539864
awesome 0.49293792 -0.2683483 -0.07513635 0.66469765 0.17946506 0.22576104 0.20006779 -0.13960658 -0.0913032 -0.12741546 0.15030263 -0.12784289 0.4091403 0.25805366 0.075369544 -0.15741925 -0.1589852 0.09994036 -0.14638245 -0.018997809 0.20393737 -0.082479134 0.10834502 -0.57494086 0.2719261 -0.0022762723 -0.3356621 -0.18551709 0.21875243 0.2812131 0.12859647 0.26350895 -0.3054062 -0.20779434 -0.016836097 0.033897575 -0.036228966 0.17939013 -0.23864017 -0.671878 -0.05124602 0.21934384 -0.118155524 -0.06604261 -0.20452376 -0.39026362 0.058917534 -0.027433783 -0.098258026 0.025217937 0.026621537 0.10670104 0.110263206 -0.072266676 0.29089776 -0.23567215 -0.26986986 -0.15473978 -0.08956706 -0.058160476 0.3489564 0.17818843 -0.09883929 -0.013544329 0.09287627 0.32185912 -0.1459219 -0.11150569 -0.015793478 0.00015969758 0.17257029 -0.017331006 0.2932764 -0.06911764 0.41363853 -0.18838875 0.5741203 0.03291219 0.39502943 -0.0049243504 0.09050747 0.15067172 0.00905227 -0.12741973 -0.16018696 0.051777024 -0.07019685 -0.089772835 0.37048975 0.061750155 -0.03381365 0.26278698 -0.12690045 -0.23702802 -0.06410924 -0.27904996 0.2372989 -0.11819219 -0.16159065 -0.29066923
love -0.10499293 -0.75149035 0.18115374 -0.15764958 0.6581011 0.36806887 0.25904384 0.030388052 -0.31354472 -0.8239299 -0.092236444 -0.5494414 0.028547915 0.20374566 0.5253108 0.404324 0.11764082 0.54494834 0.05801061 0.0843467 0.3298669 0.13376345 0.33844796 -0.4141526 0.77620214 -0.3522242 -0.022053618 -0.1903497 -0.018392378 0.40836114 0.3572312 -0.24493124 -0.82679033 0.25095648 0.096652575 0.21396431 -0.34781745 -0.032020528 0.25403586 -0.082163274 -0.41112834 -0.046145573 -0.029995728 0.054442503 -0.1275238 0.24818231 -0.22150926 0.6287519 -0.75678986 0.2587826 0.20644084 0.33779034 -0.18009266 -0.41782743 0.43393588 -0.36935723 0.1813027 -0.1407784 0.5376792 -0.15076868 0.23280556 0.36213624 0.20461544 -0.17670791 0.2629788 0.058637854 0.14446077 -0.18537663 -0.49165836 0.15296882 0.3744222 -0.2785747 0.28921044 0.4465061 0.06292561 0.079207756 -0.15602191 -0.27208218 0.21254826 -0.14862211 -0.027102618 0.3797548 -0.21740325 -0.06852061 -0.10817302 -0.2940091 -0.3023691 -0.2531937 -0.11925237 0.25719607 -0.21268594 -0.02676102 -0.19710627 -0.016393984 -0.20813768 -0.26944718 0.36767876 -0.44065666 0.17619736 -0.22544597
more 0.29342404 -0.19612439 0.22829442 0.6099708 -0.09589064 -0.1384482 0.058850992 -0.042322956 -0.16877086 -0.053901542 -0.024938062 -0.38853624 0.42883295 0.2819598 0.17368907 0.17720994 -0.013127456 0.17334437 -0.11211696 0.29820502 0.14217621 0.24611825 -0.19921495 -0.36938342 0.3819729 0.36974764 0.16353182 -0.17572035 0.17576192 -0.19403145 0.3701318 0.33962524 0.24431238 -0.48817238 0.017030323 -0.15696579 -0.0033745128 -0.53698313 0.090352304 -0.30896756 -0.23423426 -0.012407712 -0.43474177 -0.08307844 -0.29439884 -0.17139497 0.23827484 0.24351123 -0.18419123 0.025942149 -0.085658476 -0.0034910524 -0.20394933 -0.41168514 0.3180041 -0.44535786 -0.3515421 -0.22201498 -0.04037287 -0.067053 0.35540667 -0.015460795 -0.013252137 -0.20806077 0.16248219 0.42955768 0.0063308543 0.09630642 -0.086118326 -0.25887105 -0.057387326 0.056426253 0.45322323 0.46855175 0.34133667 -0.1642524 0.23237309 -0.31421453 0.23936208 -0.2993795 -0.062715955 0.17781496 0.048636194 -0.041034106 -0.41814086 0.10813454 0.10915992 0.043488413 0.4059902 0.16312587 -0.033216123 0.18590109 -0.29022717 0.11925201 -0.0018423601 -0.1758626 0.21010683 0.1345716 -0.042825527 -0.25733522
temporary 0.13165197 -1.586966 -0.73341703 -0.5237875 0.6861288 1.5441998 0.44822526 0.36770988 -0.6850944 -1.8581222 0.060803086 -0.45765358 -0.20600726 -0.33557883 0.68142575 0.24258727 0.9897782 0.79717326 1.0891206 -0.42635947 0.6661952 -0.2719422 0.58725524 -0.8831732 1.6418025 -1.1854434 -0.5855786 0.13486 -0.04447035 0.709247 -0.40324873 -0.80245894 -1.786079 0.33529872 -0.9373067 0.905793 -0.8259559 0.4409392 -0.09677942 -1.160575 -0.6795175 -0.2665687 0.975369 1.0156786 -0.122127645 0.053678058 -0.041152306 1.0700713 -1.2628212 0.36801687 0.34009477 -0.029752772 -0.4804363 -0.11838597 0.4587424 0.5286787 0.4220437 0.26789498 0.44625297 0.6789681 0.45652053 -0.4067345 0.9658386 0.3864106 0.35116178 0.025847072 0.30298612 -0.88416547 -0.2678315 0.20195374 1.3826609 -0.45542616 -0.05788589 -0.2747655 -0.248834 0.0024749541 0.16865991 0.08096457 0.53343827 0.56761444 0.44417658 0.9211206 0.07443424 -0.23306985 -0.99073523 -0.6926097 -0.44589052 0.27491432 -0.03476665 -0.11785971 -0.5036662 0.72169954 0.056018796 -0.6903518 -0.7597183 -0.5546759 0.21154797 -0.8337651 0.2701588 -0.29782802
re 0.56456447 -0.17315155 0.79241407 0.4045234 0.50731826 -0.4163954 0.110676475 -0.122477 0.22017848 -0.08219397 -0.058323175 -0.81751585 0.4209275 0.07223253 0.52724326 0.20733622 -0.53412896 0.39559498 -0.3199856 0.3997363 -0.026621476 0.27776662 -0.02448358 -0.3144846 0.34102327 0.35502544 0.07530121 -0.29160938 0.077142105 0.22713669 0.65332943 0.4884106 -0.09715949 -0.120661415 0.559234 -0.33643487 0.032748345 -0.20728002 0.12962177 -0.12656243 -0.12534964 0.15208907 -0.6677654 -0.439993 -0.3402159 -0.17936026 -0.025922352 -0.11285406 -0.55447537 -0.034100514 -0.15222901 0.31438968 0.26063445 -0.45002645 0.4108177 -0.47693497 -0.60655403 0.011605672 0.47898537 -0.4750969 0.15239662 0.38681766 0.017071769 -0.29638967 0.5110456 0.34691828 -0.30887648 0.31607348 -0.5112176 0.26532853 -0.31897518 0.10881099 0.9754115 0.63262874 0.684623 -0.12780412 0.26215935 -0.23244174 0.24598467 -0.38249874 -0.23812991 -0.09047624 0.08181101 0.029413758 -0.038045537 -0.23921557 0.0153370295 -0.24534759 0.38688236 0.41829747 -0.088493764 -0.2508937 -0.34937024 0.10119359 -0.020286566 -0.4689873 -0.07058998 0.012208433 0.08820941 -0.25807965
opening -0.024018966 -1.612011 -0.5355627 -0.55689216 0.9114228 1.4664031 0.5194585 0.26941532 -0.6988763 -1.9554515 0.017202562 -0.5078886 -0.250007 -0.35227433 0.8007298 0.35788074 0.8762561 0.9289774 1.0040473 -0.37319365 0.6930359 -0.15447952 0.6259629 -0.86516076 1.6574488 -1.2793221 -0.5519069 0.18287663 -0.11913363 0.8113547 -0.20228745 -0.87561923 -1.9267647 0.48556307 -0.71257776 0.87941784 -0.80425596 0.42107004 -0.05399516 -1.0552131 -0.76061493 -0.32840034 0.8912657 0.927019 -0.021513058 0.10152028 -0.17714395 1.1567258 -1.4146672 0.39963034 0.46162128 0.17327248 -0.40896288 -0.17134888 0.51606613 0.400328 0.4577916 0.22033173 0.68565255 0.5334374 0.39646748 -0.10964084 0.9727301 0.3524051 0.42076668 -0.016610038 0.30481485 -0.81924146 -0.44126627 0.31652683 1.2910271 -0.5700567 0.07339224 -0.16664132 -0.2585514 0.089542635 0.04315365 -0.07759094 0.47343475 0.5267028 0.39811707 0.93692976 -0.07722228 -0.24440305 -0.8311369 -0.8222473 -0.49380362 0.15032066 -0.13523388 0.049445476 -0.5472804 0.50095075 0.038771372 -0.5686785 -0.65532285 -0.59755665 0.26828942 -0.919944 0.2846516 -0.3285421
how 0.21184142 -0.37714848 0.38264775 0.28083435 0.46134475 -0.13351622 0.18845814 -0.12734604 -0.08477493 -0.32979146 0.0646893 -0.39488396 0.35110587 0.15309043 0.34019458 0.3031345 -0.27916193 0.3623919 -0.11474161 0.2013358 0.18305922 0.36520424 0.12618113 -0.39230362 0.4805829 0.024450151 -0.04762972 -0.14307211 0.02971511 0.30857676 0.5487572 0.17870955 -0.41516826 0.012351013 0.26448306 -0.024639472 -0.05518107 -0.20827651 0.120034486 -0.27388242 -0.2569663 -0.016761703 -0.34546304 -0.24009553 -0.12148908 -0.11280488 -0.06594441 0.24621 -0.43284667 0.17883784 0.06371457 0.3758152 0.06285489 -0.4133238 0.33029354 -0.44885287 -0.26659688 -0.19600458 0.4725643 -0.29913187 0.17600216 0.40466294 0.014001486 -0.1292172 0.37318468 0.2612747 -0.08494325 0.16836575 -0.4494182 0.26565495 0.03546516 -0.082913555 0.6041538 0.42917514 0.36398178 -0.019954538 0.060667895 -0.21688084 0.15801807 -0.2090364 -0.13090394 0.09722124 -0.14594321 0.024482949 -0.11535635 -0.23997796 -0.06558612 -0.19199689 0.32500032 0.26836485 -0.14525634 -0.24034485 -0.25589842 0.07773676 0.015850887 -0.32334584 0.20148602 -0.20887002 0.018894846 -0.2243272
don 0.47168365 -0.62512594 0.97322375 0.29036418 0.83637035 -0.41513917 0.18947011 0.36976656 -0.13971666 -0.9621733 0.059768513 -1.3510066 0.85471004 -0.35143304 1.101906 0.73338354 -0.008357612 1.1579939 -0.0977982 0.5906927 0.16765682 0.6113078 0.19941722 -0.21471222 1.0942911 0.3343231 0.43362454 -0.46905044 -0.078172706 -0.33890685 1.3581705 0.5880657 -0.41804102 -0.19383329 0.5099183 -0.035499368 -0.38795462 -0.8524123 0.5145843 0.013134086 -0.74299514 -0.19560048 -0.9109996 -0.49533185 -0.2073345 -0.053882435 0.18384786 0.69463736 -1.1640786 -0.1236794 0.12740876 0.79855925 -0.29391372 -1.2254281 0.66547865 -1.0363894 -0.8233881 -0.28277856 0.9531515 -0.3828187 0.625082 0.08891455 0.4378995 -0.8430819 1.0876646 0.79315746 0.041156407 0.6947674 -1.2405392 0.49936035 -0.4345198 0.21341796 1.4937358 1.312747 0.83643615 0.1175643 -0.19675474 -0.51279193 0.11800311 -0.85128766 -0.18478766 0.4181604 0.046314325 0.22001034 -0.40115225 -0.56067 0.4017685 -0.1693547 0.34114936 0.34633648 -0.4308642 -0.62786466 -0.6654729 0.39227724 0.15594302 -0.52997375 -0.021885797 -0.21166807 0.22728692 -0.32922688
