1172 100
the 0.25472492 -0.14415275 0.6328661 -0.48276937 -0.15595068 -0.0906407 -0.035096947 -0.5652266 -0.2407298 0.19976246 0.56027186 0.42135337 0.12703425 -0.19582748 -0.2535892 -0.13173227 0.5054594 0.057570778 -0.32934156 0.036633853 -0.03929945 0.1181796 0.34711188 -0.2969575 -0.33208185 0.008174128 0.16382541 0.33175647 -0.07585053 0.12145274 -0.3631696 0.10440249 -0.08607584 -0.37067848 -0.12681688 0.28477663 0.05140457 0.06894695 -0.38573605 0.0969506 -0.17300543 0.14674544 -0.054806925 0.17464338 -0.18951893 0.19368061 -0.22530492 0.23335157 -0.30176297 -0.18417555 -0.17108297 0.26400897 0.075187005 0.18268906 -0.11391271 -0.41091922 -0.4468855 0.1679846 0.05125701 -0.012553113 0.18297513 0.19856972 -0.079536214 -0.54516554 0.24105574 -0.15468414 0.3347958 0.18947765 -0.06847139 0.43247068 -0.19076656 -0.16049017 0.43118462 -0.21830656 -0.08824999 -0.13547407 0.101175226 0.37555295 -0.04596301 -0.07445825 -0.18775731 0.13595398 0.9059045 -0.21208194 -0.3916158 -0.086718574 0.05213402 0.2584698 0.00830898 -0.098733045 -0.55374146 0.07241869 0.2144615 -0.08954695 0.1535027 0.4027406 0.25025576 -0.24510963 -0.07100402 -0.075117774
to 0.004920997 -0.64780325 -0.05665961 -0.3847296 0.18698536 -0.2547621 0.25147438 -0.38664547 0.0067325197 0.12820448 0.3370639 0.34571034 0.3432248 0.07263262 -0.030824678 -0.18556532 0.35339075 0.08768459 -0.39237973 0.19652607 -0.23131572 0.15106657 0.1903191 -0.49493703 -0.34285858 -0.045331668 -0.13089825 0.25970635 0.26904157 0.44817084 0.11949778 0.23437165 -0.096127935 -0.38544682 -0.08052732 0.48575866 -0.006552866 0.04559268 -0.009991024 0.042097513 -0.0018451335 -0.20719762 0.42588043 0.26261234 -0.3368965 -0.29149348 -0.058420092 0.61668545 -0.1457271 -0.241189 -0.01841313 -0.07027291 0.17143182 0.23962289 -0.14155844 -0.10799368 -0.20610398 -0.05682186 -0.3932727 0.22889443 0.28327987 0.26265705 -0.1444693 -0.5507935 0.09878339 0.26344118 0.088405356 0.10618665 -0.11444637 0.3267919 -0.2878844 -0.12980312 0.2517767 -0.05102966 -0.16404322 -0.033158462 -0.24241905 -0.052287832 0.00296224 -0.15885113 -0.13066372 0.083165616 0.5593021 -0.15765639 -0.46240136 -0.47477195 0.4037228 0.15908347 -0.08636594 -0.17937599 -0.5467371 0.22721422 -0.29599515 -0.13672394 0.116021976 0.37630862 -0.17919964 0.029915646 -0.26613405 -0.074511
link 0.11373107 -0.14487617 0.37733877 -0.4837922 -0.48001313 -0.010979021 0.17285107 -0.7173972 0.059427068 0.17717403 0.5797973 0.48380384 -0.024039255 -0.06380225 0.23072392 -0.036031988 0.45379695 0.1345662 -0.2590689 -0.16332394 0.44536737 0.4497094 -0.09253456 -0.1748507 -0.3512025 -0.21657915 -0.1015494 0.02993901 0.17506434 0.44404635 -0.65051204 0.0067688776 0.15171948 -0.27032763 -0.02799771 0.6152002 -0.17058691 0.24304868 -0.40023452 0.10566297 0.3625094 0.35928538 0.10288012 0.13127656 -0.40945768 0.43715906 -0.0016001124 0.41207576 -0.52588594 0.2872659 0.19225822 0.62922895 -0.18129073 -0.24685182 0.08905533 -0.62265956 -0.24678904 0.23274629 -0.22692312 -0.29027295 -0.03474945 0.23348776 0.118652254 -0.37006694 0.3800945 -0.09015835 0.6057134 0.41699052 0.09909353 0.6319934 -0.35331425 0.12643103 0.27101508 0.060078546 -0.21320468 0.006485015 0.37333494 0.07232579 -0.33146662 -0.60638684 -0.37165228 0.02780147 0.9123525 -0.37825015 0.12579396 -0.08666639 0.14569545 0.46660033 0.066825636 -0.019462947 -0.5796941 -0.11707217 0.2566603 -0.30958095 -0.09872905 0.39625445 0.39845198 0.029715775 -0.115461566 -0.60013115
ipad 0.27952632 -0.5912063 0.3130605 -0.55334455 0.1274067 -0.114652485 0.19698676 -0.6747093 -0.1142313 0.08870157 0.54359365 0.44076017 0.15251918 -0.084636874 -0.18212509 -0.19817649 0.532652 0.07305354 -0.40964064 0.021104934 -0.3484662 0.13486682 0.2616729 -0.4234333 -0.31956416 -0.050494898 0.046685625 0.4072429 0.065215714 0.24358447 -0.22297175 0.16115277 -0.031514242 -0.3632982 -0.09339829 0.26613662 0.055764776 0.16590677 -0.4040418 0.15311512 -0.16837732 -0.008029908 0.24472044 0.29337835 -0.17112958 0.007732674 -0.16238917 0.43739352 -0.25942197 -0.38134035 -0.21593213 0.062132526 0.23101921 0.21839948 -0.3146754 -0.311088 -0.33835518 0.19690906 -0.1064987 0.022195702 0.26548964 0.1258727 -0.07897972 -0.5343284 0.060134523 -0.02657972 0.077181354 0.119530775 -0.1860528 0.4875347 -0.090864375 -0.022514232 0.17060041 -0.15601626 0.0106882015 -0.012873053 0.04824521 0.23459812 -0.003043262 0.040222757 -0.16618127 0.24693392 0.6871721 -0.256397 -0.33730775 -0.3637227 0.15077813 0.3127197 -0.058728598 0.021667484 -0.55740154 0.0859363 -0.08351037 -0.13492942 0.0640436 0.36223298 -0.011817094 -0.11405475 -0.1650321 0.043568123
at 0.1753984 -0.21550658 0.5477893 -0.39484265 -0.25986603 -0.021220941 0.031855367 -0.48217934 -0.094442375 0.2474331 0.49460426 0.41499558 0.26443765 -0.2520431 -0.09245605 -0.25770792 0.5311395 0.09743054 -0.29517493 -0.18159322 0.045135003 0.1622273 0.24686341 -0.20647311 -0.42283574 0.06751568 -0.013809743 0.33750677 0.093351044 0.26238495 -0.29818973 0.20972243 -0.053710815 -0.19144846 0.023566509 0.4607824 0.045812085 0.37444636 -0.4605487 0.028234372 -0.20735718 0.03696157 0.104457304 0.205696 -0.15137237 0.026522987 -0.029985921 0.12002404 -0.1428292 -0.10628884 -0.20074059 0.057277046 0.014745983 0.11764724 -0.09051617 -0.31287724 -0.26771763 0.15556723 -0.096413605 -0.06694961 0.16051695 0.03745552 -0.014632367 -0.38528728 0.07990523 0.019683814 0.20714636 0.12999928 0.1252725 0.4681853 -0.01022242 0.1702893 0.34473208 -0.18819837 -0.37040272 -0.025366409 0.08835558 0.3254016 -0.109972335 -0.14492601 -0.055865884 0.29642186 0.6738708 -0.30254713 -0.12996207 -0.04892116 0.1256519 0.18050331 -0.097727165 -0.13855943 -0.4352608 0.07392734 0.20699933 -0.13357025 0.22116588 0.39568016 0.18472506 -0.0075710453 0.03692859 0.14156394
for 0.2819951 -0.31079233 0.4171015 -0.60221153 -0.06501008 -0.15269414 0.08048157 -0.7698707 -0.23862436 0.17980884 0.65824145 0.5151959 0.023200694 -0.037548486 -0.25158975 -0.07271266 0.5255251 0.14503047 -0.34443808 0.20982778 0.04197435 0.13254417 0.2622714 -0.3474103 -0.25845665 -0.10266925 0.04047526 0.27003255 -0.081743546 0.24603043 -0.5050215 -0.095217854 0.03134534 -0.4631796 -0.20877032 0.1823877 -0.11745791 0.08061054 -0.3502843 0.074766554 0.011142533 0.31445554 0.1320568 0.12653671 -0.17661361 0.44889534 -0.28921378 0.5144645 -0.44754446 -0.19628945 -0.057182964 0.5359152 0.1049477 -0.046744548 -0.23742758 -0.56516486 -0.47990417 0.25714818 -0.12178622 -0.060297746 0.17432733 0.21285838 -0.06320305 -0.46883464 0.2848048 -0.17398049 0.34884986 0.32058048 -0.21451521 0.52381027 -0.24356718 -0.14138189 0.17690304 -0.12381504 0.16576147 0.042237137 0.2762718 0.28725928 -0.056128144 -0.19282831 -0.46733502 0.09203198 1.136053 -0.274438 -0.21412584 -0.25096515 0.091208816 0.50135136 0.044732578 0.044202145 -0.61305726 -0.03545426 0.13936795 -0.22249268 0.012166043 0.40728182 0.23748994 -0.31651285 -0.21920176 -0.26589155
apple 0.15131444 -0.33688307 1.0156873 -0.6363167 -0.17125224 -0.16821425 -0.09721032 -0.8525234 -0.0973506 0.9770389 1.5162617 0.55048305 0.6733941 -0.68106496 -0.25462478 -0.81481695 0.7809716 0.14139886 -0.7193711 -0.36356726 0.3014351 0.49868864 0.037416536 -0.016047385 -0.88528526 0.117693275 -0.34431303 0.7124226 0.023711052 0.8505298 -0.46201062 0.2903875 -0.2027394 -0.031957593 0.15805025 1.453369 0.14781207 0.89880896 -1.1363702 -0.4576835 -0.30628532 -0.3716997 0.25489068 0.9144924 -0.12884203 -0.0041057663 0.056221448 0.81631684 -0.5852254 -0.14905666 -0.36025307 0.026682826 0.1788953 0.36481434 -0.5294382 -0.41066462 -0.14327334 -0.06253644 -0.79928243 -0.284596 0.53309566 -0.14001617 0.04916373 -0.41602927 -0.1498779 0.5944594 0.057078574 0.67489594 -0.056487948 0.64618 -0.20256197 1.0374354 0.68538886 -0.29268932 -0.6739854 0.37265232 0.13791569 -0.016293017 -0.12518992 -0.4888763 -0.4356344 0.83490473 1.5840304 -0.71612585 -0.2961742 0.12272984 0.34446722 0.21837442 -0.60162437 -0.28566676 -0.5135355 0.4364013 0.55427766 -0.48637712 0.41209832 1.2185664 0.5474472 0.053739697 -0.26941136 0.09699869
is 0.20587286 -0.23380545 0.39567447 -0.30028656 -0.48410985 -0.26077548 -0.08206003 -0.31928113 -0.23722203 0.15831801 0.40441 0.39982015 0.17411599 -0.047200035 -0.10973636 -0.003228924 0.28619012 0.0894925 -0.19166581 0.047794115 -0.04070987 0.11781183 0.49999306 -0.33533064 -0.31589422 -0.010014846 -0.054628007 0.42877164 -0.067745894 0.045833763 -0.29983658 -0.007248643 -0.1021995 -0.043572728 0.17693087 0.0338329 -0.036264457 0.20216317 -0.16912207 0.19341166 -0.015376423 0.14026393 0.036630362 0.11085417 -0.37872088 -0.24152187 0.08992395 -0.13532563 -0.08160329 -0.1585935 -0.15145719 0.30317706 0.16248901 0.20943603 0.03159894 -0.4254282 -0.22820221 0.0077619916 -0.069667235 0.10470125 0.107173465 0.17989156 0.0017869924 -0.1960512 -0.06060892 -0.064187326 0.22123377 -0.16912255 0.02635555 0.28291672 -0.17620014 -0.021108294 0.25354058 -0.33515343 -0.18900193 -0.20479997 -0.029655552 0.4613547 0.12929884 0.09918345 0.09293446 0.2218038 0.5360275 -0.18198517 -0.1432288 -0.110348836 0.13334545 0.13742046 -0.11641195 -0.12410142 -0.39664173 -0.09341264 0.20013857 0.20179309 0.45609385 0.1297918 0.26297092 -0.2685887 0.015335646 -0.0029039271
google 0.028107526 -0.29722515 -0.22792941 -0.101514444 -1.207827 -0.38779637 0.35211918 0.10976374 0.31957832 -0.4232915 -0.59120464 0.43091556 0.1868049 0.6623169 0.74270904 0.45677117 -0.3784798 0.14083157 0.10703223 -0.008602943 0.39847884 0.50552166 0.36964852 -0.5771851 -0.2916474 -0.35096693 0.05982732 0.022528395 0.35038465 -0.30791175 -0.13944897 0.35208336 -0.16414785 0.09187873 0.5391073 -0.68028265 -0.43309912 -0.25966716 0.8105017 0.46017382 0.7219781 0.33469525 -0.025156707 -0.36289662 -1.5728846 -0.79554874 0.36370167 -0.45005488 0.076708615 0.36435235 0.35086685 0.9005254 -0.14058349 -0.040478963 0.8573257 -0.35936978 -0.28966144 -0.39546064 -0.011913442 0.4531763 -0.5102666 0.70088774 -0.053246617 -0.4198022 0.36529216 0.091976106 0.6484527 -0.82153255 0.34696406 0.30203134 -0.9491783 -0.83020365 0.59351736 -0.30615094 -0.49762663 -0.97467697 -0.5930121 0.5982436 0.03435844 -0.42146435 0.44970068 -0.5758156 -0.3092039 0.23738837 -0.017693365 -0.3465068 0.27833837 0.00045797907 0.19421847 -0.55341065 -0.39599195 -0.28533325 -0.18841004 0.43198174 0.3863305 -0.45026824 0.08552304 -0.11964053 0.442121 -0.8040956
of 0.2019239 -0.22953723 0.41843295 -0.31344953 -0.38325864 -0.23011127 -0.10242259 -0.22900471 -0.18230286 0.150901 0.2569546 0.2875636 0.3073878 0.058247272 -0.1312187 -0.1259989 0.14235719 0.08379797 -0.2133034 0.012978223 0.029925093 0.093933135 0.48554263 -0.2570318 -0.4046179 -0.005674961 0.07332922 0.41426995 -0.09084331 -0.008743801 -0.039570812 0.25609028 -0.19352618 -0.09083793 0.03865484 0.068122424 0.0067069447 0.04420814 0.013660547 0.12181072 -0.048302356 0.06193858 -0.0652061 0.14406511 -0.5608001 -0.33884966 0.037582323 0.038769234 -0.027794763 -0.15721756 -0.1557346 0.1539145 0.075616516 0.3485724 0.18732402 -0.2214906 -0.2668743 -0.052785877 -0.06509622 0.28009394 0.0810338 0.24870068 -0.07123134 -0.4004732 -0.053427562 -0.0787763 0.2376181 -0.37369043 0.045756996 0.22695136 -0.36794904 -0.23993011 0.54714376 -0.26216298 -0.17770313 -0.46535257 -0.34065402 0.4014266 0.055614743 0.023901012 0.13100137 0.09553086 0.4071589 -0.08787019 -0.3832448 -0.07644436 0.17873482 0.01252292 -0.16668867 -0.3373261 -0.3473911 0.07486869 0.12894483 0.22947894 0.3438262 0.15520774 0.14411996 -0.23257357 0.036291543 -0.02575429
in 0.31295973 -0.22734176 0.79237986 -0.66018754 0.10297679 -0.16082007 -0.06125529 -0.8046006 -0.22501425 0.61072373 1.130051 0.5084238 0.19183283 -0.23383969 -0.46313494 -0.37129945 0.65307474 0.14484796 -0.52942276 0.07047511 0.23709163 0.29935268 0.2612013 -0.20203373 -0.48337412 -0.046158716 0.035966825 0.3826103 -0.113316 0.38315487 -0.5072304 -0.04502783 -0.12958284 -0.42739257 -0.17296942 0.5958613 0.03730536 0.22237414 -0.5688582 -0.2753461 -0.11041398 0.1235584 0.03637875 0.5520882 -0.16766325 0.37692183 -0.33485696 0.86282873 -0.540629 -0.18067661 -0.15558472 0.3767882 0.21195191 0.12352599 -0.34336144 -0.5394841 -0.51405257 0.067290895 -0.33197305 -0.06122422 0.37245372 0.12799469 -0.10335929 -0.6031836 0.28563014 0.13164693 0.31629044 0.5100564 -0.28564993 0.502621 -0.35734436 0.19660503 0.3987492 -0.15323031 -0.029200194 0.07075714 0.21037853 0.19092186 -0.0037259425 -0.36068922 -0.7063104 0.21684465 1.544223 -0.4310131 -0.44130787 -0.056143276 0.09191477 0.4232018 -0.15788919 -0.178272 -0.4979682 0.21423157 0.32536405 -0.4513991 0.052881498 0.7683186 0.3995624 -0.36443046 -0.33245304 -0.1844184
and 0.22015929 -0.41019267 0.12693825 -0.38374537 -0.25672966 -0.18124771 0.15655439 -0.38622344 -0.15040751 -0.12800859 0.15358204 0.41887027 0.0503148 0.09415373 -0.003051643 0.02615454 0.32103682 0.1209557 -0.2107488 0.12926805 -0.23333375 0.05574148 0.3531844 -0.5113433 -0.21129546 -0.06675227 0.050512563 0.2564308 0.052522942 0.053195328 -0.1694515 0.070669495 0.029040303 -0.26783082 -0.011397918 -0.02705967 -0.0645208 0.021227177 -0.028519575 0.35721 0.034346066 0.18074109 0.12924671 -0.008917134 -0.3890593 -0.04751579 -0.030733963 0.07736155 -0.10208993 -0.20848183 -0.077164665 0.2700474 0.11077464 0.11980797 0.040531464 -0.43003252 -0.30856943 0.18357974 0.04408978 0.11682403 0.07956205 0.28200203 -0.063326694 -0.39031568 0.107336074 -0.19366351 0.29941478 -0.18518044 -0.030296095 0.43685085 -0.14922288 -0.33397505 0.21286328 -0.20661981 -0.024514228 -0.19983046 -0.011181492 0.38886234 -0.0035163308 0.12135457 0.081833206 0.024001984 0.40634862 -0.08639427 -0.1914557 -0.39815253 0.16503128 0.2175012 0.088020645 -0.048810743 -0.5679406 -0.1106445 -0.062544905 0.1267456 0.19649574 0.00667031 0.05252511 -0.1755644 -0.013953466 -0.073797196
iphone 0.38774377 -0.6391456 -0.16393611 -0.41757736 -0.053166747 -0.31593755 0.43273082 -0.6588917 -0.12718526 -0.38691503 0.077165104 0.55568546 -0.07663017 0.08583303 0.036533516 0.20782371 0.38875926 0.16031347 -0.31057552 0.32541192 -0.6659037 -0.06285068 0.40388927 -0.76057786 -0.17139876 -0.13386133 0.1411026 0.3713272 0.015217082 0.113328435 -0.10017978 0.0730603 0.27056286 -0.6173439 -0.15898687 -0.44160298 -0.24050094 -0.20971209 0.030500103 0.7842635 -0.15418807 0.23661213 0.49184063 -0.2807425 -0.36879703 -0.07175996 0.09227443 0.08693576 -0.14471991 -0.74195576 -0.1900743 0.30847862 0.17559087 0.21798393 0.04701075 -0.5386335 -0.42910138 0.63966936 0.2606798 0.2095519 0.08372257 0.30338547 0.030016232 -0.5614592 -0.06493422 -0.6491566 0.16031349 -0.31192195 -0.059338395 0.73174614 0.05958898 -0.55956745 -0.013010773 -0.07548484 0.27021807 -0.15989228 0.0626516 0.5989187 -0.10832305 0.41788772 0.07515705 0.13374618 0.102325395 0.09283181 -0.17430404 -0.75458306 0.15651032 0.3579628 0.117513694 0.24349947 -0.97608536 -0.2581434 -0.28616992 0.3268384 0.029597063 -0.15459478 -0.38463753 -0.10891881 0.10968585 0.029023383
store 0.31697816 -0.315744 1.3377461 -0.89738834 -0.03911298 -0.14807452 -0.14980733 -1.3620917 -0.23262215 1.1699907 1.9428769 0.6679899 0.523624 -0.63750404 -0.4398441 -0.89226544 1.0552247 0.14003237 -0.8864902 -0.2314297 0.44529724 0.62897915 0.17162417 0.01782351 -0.9247705 0.10952135 -0.19502355 0.71100986 -0.038839612 0.91682124 -0.82099414 0.22074391 -0.258137 -0.35668516 -0.0994926 1.6266835 0.1100857 0.82618594 -1.4000041 -0.59019136 -0.26954374 -0.13546288 0.15904714 1.021913 0.06557721 0.43156365 -0.2004387 1.2174538 -0.8426796 -0.20236565 -0.33603057 0.33578795 0.18804483 0.24572247 -0.5951576 -0.6945725 -0.39695838 -0.008461473 -0.82025623 -0.36065957 0.5559281 -0.11490778 -0.02112364 -0.71005696 0.26591426 0.43642315 0.29053026 1.0802621 -0.21982525 0.7935356 -0.43810692 0.9818911 0.6541903 -0.1931894 -0.5137844 0.4292373 0.34039986 -0.026619919 -0.1615626 -0.74373233 -0.9150393 0.79205644 2.2388132 -0.7969038 -0.4596418 0.22455002 0.21093632 0.5454596 -0.45073318 -0.24205737 -0.60041565 0.48459357 0.7019101 -0.79597455 0.28075534 1.3816686 0.6706623 -0.14987524 -0.47208968 -0.1863987
it 0.16547658 -0.5353728 0.18934913 -0.19263476 -0.4236204 -0.23865399 -0.0002722935 -0.2618958 -0.24605344 0.09288004 0.6373744 0.41014746 0.08269772 -0.3644274 -0.018269721 -0.2775264 0.41022375 0.04238385 -0.26571062 -0.069845855 -0.37360337 0.124100715 0.2982862 -0.51461554 -0.39868256 -0.023209073 -0.2859772 0.5067877 0.1144826 0.42213967 -0.19829549 -0.07446532 0.09945798 0.10973055 0.47315386 0.66852516 0.2282168 0.46523398 -0.4395895 0.3675906 -0.06820294 -0.23759378 0.27903455 0.45668337 -0.2374238 -0.45076144 0.43272027 -0.08778805 -0.026817746 -0.25943005 -0.32904163 0.02987721 0.39188263 0.4514423 -0.18661247 -0.61108327 0.06439945 0.10146697 -0.2451924 -0.07028189 0.25546122 -0.0046603265 0.13962476 0.015245155 -0.46803725 0.08652585 0.038990717 -0.08878714 -0.040859085 0.5389433 0.1212735 0.47962847 0.1258576 -0.40151167 -0.39883426 0.26544198 0.10515358 0.22010718 0.17392823 0.39602447 0.41846573 0.556651 0.43174893 -0.32603094 0.01874415 -0.39999846 0.274333 0.022225806 -0.3035368 -0.02745069 -0.4748911 -0.07704669 0.1851015 0.2520019 0.69161373 0.2814239 0.31467023 0.055584975 -0.073314674 0.31053856
on 0.297822 -0.4193168 0.26844272 -0.44644967 -0.26223725 -0.19096038 0.08555156 -0.44739723 -0.3321958 -0.13216148 0.30258596 0.43300146 -0.07084751 -0.0056161936 -0.16926466 -0.016598819 0.43917316 0.084749006 -0.23416214 0.20031103 -0.30591425 -0.04470686 0.48520675 -0.5637365 -0.23259786 -0.060831983 0.07335975 0.34176895 -0.03576895 0.05158338 -0.27745703 -0.025895687 0.032372136 -0.32863826 -0.03467072 0.048560478 0.04962055 0.05322035 -0.14853673 0.440787 -0.025586896 0.21356505 0.0821297 0.048573427 -0.30531847 -0.015044473 -0.05858628 -0.018189196 -0.09421774 -0.22693652 -0.16453974 0.28942382 0.22579584 0.22389877 -0.05824671 -0.50576174 -0.37325832 0.25955728 0.12623739 0.06845038 0.101895265 0.27915296 -0.086859435 -0.3806292 0.04109259 -0.29561326 0.32259348 -0.120467775 -0.06487556 0.45428297 -0.11092444 -0.3230346 0.17044707 -0.28215727 0.016938526 -0.13226873 0.09643922 0.44166455 0.07071108 0.2557405 0.11220862 0.061953187 0.5734656 -0.1192917 -0.26066396 -0.41179943 0.12373435 0.25525767 0.11217913 -0.0052516204 -0.6026734 -0.15779732 0.016813982 0.1360983 0.26961148 0.060071718 0.16978183 -0.2535298 -0.02188177 0.018147502
up 0.24806938 -0.25172585 1.2701794 -0.66445345 0.006408912 -0.29647848 -0.097608514 -0.9523584 -0.10215746 1.2258394 1.6589621 0.64546174 1.0682977 -0.62903345 -0.47516116 -1.0256319 0.76861215 0.2495445 -0.81556684 -0.3514705 0.40330186 0.48397502 0.061344 0.15867646 -1.0637252 0.2856792 -0.35929644 0.9531693 -0.05677616 0.87359583 -0.35671395 0.51678574 -0.3660772 -0.03556792 0.059932157 1.4030225 -0.024822367 1.0049424 -1.333468 -0.7556865 -0.5508691 -0.5275211 0.43143335 0.8090761 -0.055470936 -0.04354423 -0.038263403 1.0160905 -0.5778068 -0.3482723 -0.47383478 0.018836915 0.12930244 0.40524453 -0.5211172 -0.20724903 -0.26567817 -0.1677242 -0.9433179 -0.15402089 0.60653126 -0.24677873 -0.0077978545 -0.5190643 -0.1371551 0.75796664 -0.10440405 0.7334629 -0.09873335 0.6541887 -0.35076028 1.1277019 0.8626807 -0.26635334 -0.68008786 0.33835787 -0.12370713 0.052755978 -0.22265072 -0.6430967 -0.60301876 0.95839393 1.7600135 -0.7510744 -0.43605733 0.34874728 0.33849052 0.31578234 -0.69238085 -0.45695278 -0.42568737 0.6565594 0.56005275 -0.53270906 0.35066536 1.347184 0.3367809 0.06913584 -0.27535424 0.14145637
app 0.26835287 -0.37135026 -0.030768199 -0.43296152 -0.22769724 -0.19028698 0.36476034 -0.8241857 -0.18863489 -0.29076958 0.33782732 0.6180612 -0.20747001 0.04130308 0.16050349 0.19523954 0.4499907 0.16526812 -0.21644112 0.23038436 -0.23495688 -0.03064167 0.1656828 -0.57220906 -0.057639048 -0.17807962 0.09677907 0.20292443 -0.022022458 0.24691083 -0.43817195 -0.1600989 0.3438462 -0.56780404 -0.12848504 -0.023235874 -0.31046402 -0.111277245 -0.2203114 0.7153289 0.08333992 0.46130806 0.3300158 -0.30360004 -0.1834649 0.4996701 -0.034710895 0.276793 -0.32359666 -0.35741028 -0.019115398 0.612193 0.034693785 -0.004789463 0.0046018506 -0.80707926 -0.33142126 0.71241385 0.21465883 -0.18029603 -0.003953683 0.29353362 0.15168425 -0.39660352 0.11018408 -0.73296297 0.4798279 0.004842211 -0.04876266 0.79010594 0.04711988 -0.40104935 -0.012396359 0.043314688 0.16788967 0.07197914 0.41225874 0.5096108 -0.19761479 0.071564205 -0.06704244 0.110327914 0.59860396 -0.1499613 0.12452358 -0.5491016 0.14541598 0.5580749 0.19779104 0.3453711 -1.0083094 -0.40491742 0.041120432 0.124603264 -0.055155635 -0.06465465 0.045933567 -0.093083136 -0.054211773 -0.22973815
my 0.2368498 -0.6609941 -0.11135597 -0.33492348 -0.11241515 -0.27111045 0.26360112 -0.37672174 -0.11383011 -0.23852743 0.039699364 0.50600326 0.15448335 0.040814437 0.009385747 0.059435803 0.26367489 0.17607939 -0.31459752 0.20865072 -0.55553144 -0.06837791 0.40859723 -0.68701696 -0.2831439 -0.094705746 -0.009293741 0.4844178 0.052245297 0.08979259 0.0951921 0.2162794 0.06963085 -0.43726513 -0.025366222 -0.20929049 -0.14816499 -0.08141795 -0.018139716 0.5427093 -0.19264612 0.051747013 0.42116925 -0.03631529 -0.42303076 -0.31343395 0.11639536 0.045187052 0.023132121 -0.58040017 -0.24847868 0.065209106 0.206 0.31184852 -0.073976226 -0.3578322 -0.26065555 0.32994592 0.052822195 0.22825359 0.14139414 0.284288 -0.1072953 -0.47986317 -0.14850385 -0.34445012 0.069485694 -0.4035329 -0.03612553 0.5352568 0.022484075 -0.3571069 0.2127493 -0.1400178 0.026245335 -0.19599834 -0.109442584 0.47396246 -0.08916074 0.29635715 0.2460819 0.16894095 0.12212134 -0.008172257 -0.2609594 -0.70914495 0.23791301 0.24319382 0.026093358 0.035133537 -0.7487998 -0.09833192 -0.29788148 0.23025659 0.25465137 -0.057488404 -0.30475518 -0.06614998 -0.0026803869 0.11696892
an 0.29755607 -0.74473405 0.10826671 -0.48357904 0.1861735 -0.1320695 0.17712164 -0.38782644 -0.2537099 -0.07158749 0.34056288 0.49145725 0.1674804 -0.13478169 -0.1904687 -0.22311638 0.4438279 0.06446129 -0.43106398 0.14178964 -0.6855172 -0.12725739 0.4101922 -0.7504146 -0.29740918 -0.049717184 -0.09112938 0.46064126 0.095361784 0.22394651 0.10648927 0.09388138 0.09890001 -0.3956189 -0.021528427 0.2701716 0.14833531 0.14445393 -0.3204462 0.35508734 -0.27019906 -0.15041097 0.39937583 0.30160782 -0.17663597 -0.28670692 -0.011487045 0.26488867 -0.032705862 -0.5753064 -0.28932127 -0.15432934 0.3691487 0.3706663 -0.3375809 -0.32879964 -0.22662108 0.19596905 -0.08095761 0.111377366 0.35376346 0.1498562 -0.18563749 -0.43408382 -0.21507832 -0.09323451 -0.061150037 -0.107128605 -0.19907665 0.50167954 0.1408035 -0.07241331 0.14485231 -0.18297748 -0.04019282 0.04492172 -0.015658716 0.24403217 0.02968402 0.39318603 0.20744438 0.27364796 0.4482074 -0.098869726 -0.3956851 -0.7642068 0.34323725 0.195797 -0.033006962 0.01592183 -0.6943977 0.048639335 -0.26048052 0.088835165 0.30565143 0.19204284 -0.16909415 -0.09780978 -0.12517066 0.29847008
rt 0.02685755 -0.15824182 0.23648138 -0.18791999 -0.5817595 -0.24888216 0.034079093 -0.2993379 0.058514934 0.2600572 0.43330362 0.33893248 0.3536803 -0.072589025 0.17606108 -0.123146154 0.16246508 0.16824706 -0.20144202 -0.14044179 0.28866297 0.3707791 0.07091129 -0.12529036 -0.40984866 -0.037923854 -0.26863942 0.365618 0.11692412 0.32948628 -0.33389255 0.13085404 -0.05666084 0.051923186 0.29221457 0.36001375 -0.20188046 0.3900008 -0.24324268 -0.025122633 0.1478848 0.017325694 0.24819146 0.15352379 -0.4606236 -0.20710199 0.17974426 0.1512504 -0.24479534 0.047182877 -0.0120775 0.42051414 -0.022755431 0.06084696 0.09379315 -0.3600183 -0.0805538 -0.12672046 -0.40319946 0.0023834817 0.009107409 0.12415205 0.1012344 -0.17208517 0.018784255 0.24907221 0.25309932 0.059056967 0.077503376 0.38222983 -0.32112905 0.2864173 0.31962106 -0.18084306 -0.43048906 -0.028257469 -0.076303795 0.19996955 -0.05042553 -0.3482766 -0.076626696 0.26505843 0.53536093 -0.33676526 0.07728706 -0.0197922 0.20326242 0.17970078 -0.22063932 -0.23206733 -0.3614027 0.005525417 0.22447188 0.0352709 0.3020569 0.32769206 0.21798019 0.046139803 -0.011947511 -0.29878217
new 0.044467002 -0.33875775 -0.30199987 -0.3775534 -0.5229252 -0.24935013 0.4386646 -0.45149517 0.2667425 -0.2464515 0.0797636 0.5042684 -0.09737116 0.25622627 0.46455833 0.278461 0.099546745 0.23089884 -0.15861604 0.11589004 0.23667903 0.38682804 -0.057812568 -0.507823 -0.18911535 -0.33042336 -0.132745 0.036045436 0.22074644 0.19749229 -0.4876206 -0.057661153 0.1938341 -0.2995955 0.111330144 -0.12399826 -0.49274966 -0.101889186 0.14684352 0.41804183 0.5538581 0.4581347 0.34621838 -0.26847857 -0.77672863 0.20739087 0.023125738 0.2792111 -0.34889603 0.16225749 0.30726558 0.89015025 -0.18141307 -0.30773208 0.22877733 -0.64508724 -0.2803759 0.18370797 -0.056393765 -0.035795096 -0.28725973 0.507952 0.039455205 -0.39832488 0.31374112 -0.1739278 0.6028055 -0.018624086 0.0121402275 0.59057707 -0.48874995 -0.25472993 0.019575892 0.13498884 -0.06455542 -0.22080097 0.1330328 0.21106811 -0.2300941 -0.54034376 -0.27202868 -0.2097245 0.41222513 -0.111006945 0.18521526 -0.51487297 0.20814255 0.5681426 0.25148702 0.050124604 -0.6896893 -0.3531341 -0.13416928 -0.021763865 -0.11992643 -0.070681095 0.029555764 0.019851323 -0.01911391 -0.85105056
you 0.13550538 -1.1434146 -0.48411453 -0.15765834 -0.21167152 -0.31744057 0.39021793 -0.06885907 -0.1619282 -0.45791587 0.18217753 0.3735542 -0.1703865 -0.11295513 0.24430475 -0.11977775 0.4123101 -0.082201645 -0.089415334 0.14583616 -0.9438071 0.013441201 0.47644278 -1.1155896 -0.31500468 -0.18728282 -0.3543853 0.30253524 0.38955095 0.43948442 0.17062517 -0.09381663 0.26062703 -0.10808284 0.61710674 0.7196062 0.4136924 0.25552088 -0.058997847 0.8128762 0.18551403 -0.38841024 0.4600751 0.4684685 -0.50341564 -0.91706663 0.5429966 -0.104796074 0.27012813 -0.17950234 -0.20448144 -0.24337322 0.77344155 0.53665876 -0.044149566 -0.561627 0.16420332 0.14257029 -0.042355515 0.063927926 0.18927957 0.1974768 -0.016862037 -0.07680176 -0.6150157 0.08034864 -0.035861183 -0.38724366 -0.03136005 0.7005531 0.11310183 0.119349316 -0.17931667 -0.45050412 -0.4912445 0.1401085 -0.14403848 -0.026811952 0.40160263 0.66726005 0.8040833 0.16336592 -0.16062117 0.04016037 -0.072281666 -1.2003355 0.57866794 -0.12682651 -0.17157474 -0.04791427 -0.67868143 -0.28197005 -0.36307943 0.38004777 0.8069193 -0.16482086 0.016541785 0.026943559 -0.11833955 0.38826895
with 0.20818527 -0.3527165 0.2762927 -0.29674554 -0.40466237 -0.24378309 0.11083418 -0.3460113 -0.0703917 0.11916777 0.16446766 0.44409162 0.43831804 0.02162384 0.013371098 -0.19165884 0.22676702 0.21365097 -0.28885064 -0.0847043 -0.09901938 0.09349826 0.292253 -0.2483394 -0.39260113 0.09739704 -0.04619956 0.5207784 0.0649266 0.0997195 -0.029955132 0.34659952 -0.118036844 -0.10690315 0.09872186 -0.016900297 -0.23269776 0.30519605 -0.18938197 0.19389865 -0.22574182 -0.010283779 0.29931876 -0.06014946 -0.3863165 -0.31849357 0.11587591 -0.014134183 -0.038114224 -0.35365465 -0.17848015 0.09799684 -0.0055662715 0.24171184 0.09705757 -0.23267624 -0.20307578 0.079555586 -0.12263924 0.2089489 0.05886261 0.13456354 -0.014293054 -0.3735855 -0.10787542 -0.036055528 0.11958241 -0.3131727 0.11017228 0.38445628 -0.12892017 -0.07407123 0.4774658 -0.25248188 -0.26653114 -0.25947535 -0.29027286 0.5457467 -0.07802187 0.018050192 0.17795773 0.30182508 0.23900755 -0.19259913 -0.12355694 -0.12301052 0.20382115 0.15012555 -0.14065348 -0.22014038 -0.44411597 0.06739882 0.04858722 0.24302235 0.30921227 0.0922409 -0.09696675 -0.004471068 0.1575347 0.093887426
just 0.25376222 -0.45932758 0.24201877 -0.38481593 -0.05689859 -0.19718628 0.083152525 -0.47244006 -0.27953038 0.034258418 0.4245283 0.42961308 0.15791413 -0.13776688 -0.26805562 -0.12936859 0.4132602 0.13419299 -0.34659743 0.18136638 -0.38759056 -0.013878561 0.39544284 -0.49466434 -0.28566417 0.009023736 0.0061181756 0.5043722 -0.03470933 0.15252349 -0.116665386 0.09285314 -0.02394568 -0.37624842 -0.05025264 0.13059177 -0.014949462 0.14027533 -0.29602468 0.2838011 -0.24881858 0.029976571 0.23111737 0.17692195 -0.18274473 -0.083862916 -0.04243751 0.21036167 -0.124205284 -0.4840861 -0.30580768 0.10563857 0.25571162 0.33185893 -0.22548443 -0.39986956 -0.32481867 0.21053946 0.007991271 0.10958528 0.19604483 0.14636531 -0.085273184 -0.43733034 -0.07634677 -0.15890205 0.07392131 -0.10355851 -0.12449755 0.48361263 -0.017052429 -0.11727698 0.23212914 -0.25605518 0.022524701 0.006801198 -0.014244949 0.37648326 0.03496528 0.21794476 0.035296846 0.27555653 0.5432224 -0.13264726 -0.28575122 -0.4426255 0.16129947 0.23492782 -0.069943935 0.011175771 -0.60824054 0.014775948 -0.01608005 0.0709868 0.25040242 0.22082563 -0.021922383 -0.18319663 -0.13001855 0.15817769
austin 0.21019244 -0.26013988 0.9432289 -0.8779912 -0.07430058 -0.15285924 0.028181098 -1.1370769 -0.12652187 0.82278836 1.4558823 0.6132152 0.2906566 -0.22671318 -0.28187448 -0.449777 0.78757125 0.12539253 -0.6101305 -0.031255912 0.5646383 0.60955226 0.06434502 -0.17618947 -0.6474071 -0.12835804 -0.14370555 0.27317166 -0.088377886 0.57279366 -0.79442275 0.07098708 -0.15381606 -0.39579028 -0.20563827 0.9909533 -0.13520148 0.40916517 -0.851778 -0.61506414 0.0894048 0.15388547 0.0628942 0.6913161 -0.18456484 0.70659137 -0.37945327 1.178273 -0.8782129 0.05010638 -0.0058604903 0.6468373 0.10178097 -0.13713938 -0.5039939 -0.69501513 -0.52090263 -0.0066590407 -0.64567864 -0.3093026 0.3890887 0.10766054 -0.1178109 -0.68123114 0.58780265 0.3542534 0.3971952 1.0212305 -0.32455692 0.5888574 -0.6796212 0.40366453 0.52847636 -0.03096609 -0.17832085 0.21217392 0.37664625 -0.03522096 -0.27421218 -0.8131594 -1.0202065 0.25800875 1.9913112 -0.7182611 -0.37216032 0.015506685 0.23108877 0.6832264 -0.14841317 -0.17159882 -0.60939705 0.16995144 0.3706345 -0.70974773 -0.04920465 1.09064 0.65238744 -0.2798827 -0.497469 -0.5252346
this 0.076666206 -0.37781534 0.14887677 -0.25194168 -0.20584475 -0.26667467 0.12541918 -0.28244254 0.055803202 0.15531133 0.22905995 0.4243828 0.5035633 -0.002726087 0.025031967 -0.08214339 0.14987087 0.19816133 -0.33908546 -0.030758891 -0.1075803 0.14652379 0.22562739 -0.27504867 -0.36927024 -0.007230436 -0.10889921 0.5161017 0.09206346 0.17770791 0.027067382 0.3195887 -0.075764924 -0.13126507 0.11641486 -0.0030527972 -0.19473332 0.14901175 -0.09553077 0.08906313 -0.21614888 -0.12106218 0.351672 0.1073594 -0.42676023 -0.3597707 0.09476221 0.15707321 -0.09969143 -0.36551535 -0.18950574 0.0742383 0.055313032 0.28712618 -0.011531587 -0.18901251 -0.22976877 0.018939842 -0.22235312 0.25292492 0.14054385 0.1505814 -0.020896973 -0.39500904 -0.07790279 0.069918446 -0.013644866 -0.20230742 -0.020113874 0.37188214 -0.11265058 -0.010723153 0.35393366 -0.15089954 -0.2175349 -0.15248169 -0.22257744 0.36771488 -0.07900954 -0.029545974 0.035115633 0.28610498 0.28156534 -0.14522998 -0.23439863 -0.21673205 0.21925439 0.13289939 -0.18791614 -0.20182364 -0.4841577 0.13435306 -0.10267406 0.16337742 0.23749946 0.22648388 -0.15988626 0.032951105 0.0027759667 0.07800611
that 0.18517664 -0.50839746 0.19362125 -0.29175884 -0.09076614 -0.26042572 0.08663631 -0.27765623 -0.13247155 0.13582972 0.3109866 0.423815 0.42672443 -0.09217435 -0.09504733 -0.19008777 0.2545095 0.12463001 -0.33597362 0.04742574 -0.32991087 0.037669357 0.43508604 -0.46263474 -0.42160946 0.06155377 -0.099409774 0.566107 0.07639881 0.1907194 0.08296294 0.25776026 -0.13860641 -0.18007056 0.14069119 0.102395065 7.300622e-05 0.20894332 -0.1750315 0.10879531 -0.26926515 -0.24593945 0.3268928 0.23805657 -0.3451928 -0.5106936 0.15306821 0.10013819 0.03486643 -0.45545617 -0.26911113 -0.04798299 0.27086458 0.40439692 -0.097861856 -0.14862351 -0.21509352 -0.016001185 -0.22861728 0.2669328 0.24410371 0.091063924 -0.104278624 -0.39402238 -0.20530619 0.13788338 -0.093513645 -0.22788583 -0.04540447 0.3373023 -0.09430751 -0.0046409443 0.2825655 -0.30352393 -0.25793934 -0.13024116 -0.26890418 0.35409787 0.10411035 0.1747879 0.17141947 0.32999766 0.3267817 -0.094167605 -0.29948616 -0.35370785 0.25009516 0.01607679 -0.21021889 -0.18710327 -0.4699668 0.13827385 -0.09418636 0.14314693 0.41672564 0.23363414 -0.12331245 -0.08506916 0.035498716 0.26796362
be -0.07496277 -0.597541 -0.21024188 -0.38648388 -0.14333855 -0.13395809 0.33412686 -0.08442447 0.35312685 0.13909267 0.040342674 0.33148593 0.45206147 0.25251067 0.35415965 -0.061016876 -0.03606745 0.09349654 -0.3296545 -0.0420275 0.08450344 0.39840323 0.14615278 -0.43515116 -0.49954417 -0.22729798 -0.26665527 0.03263705 0.3815268 0.22445662 0.1994314 0.39226848 -0.09660858 -0.13359106 0.07703433 0.08749339 -0.191632 0.01396408 0.19930592 -0.028852893 0.13238148 -0.2248762 0.3579381 0.2655618 -0.7603812 -0.43892112 0.1436185 0.39639255 -0.012677622 0.075688325 0.15426019 0.16142993 0.0571601 -0.07161188 -0.012611132 0.00012273563 -0.20145118 -0.27640736 -0.45506743 0.30577454 0.0025111123 0.3271568 -0.22045872 -0.5008637 0.1536347 0.45246142 0.0054722303 -0.088178016 -0.040313132 0.30676377 -0.42133215 -0.014248791 0.1971586 -0.025786126 -0.43667936 -0.29481533 -0.33032417 -0.038995646 -0.13369821 -0.47554788 -0.079176754 -0.09076767 0.19632825 0.08612771 -0.1897009 -0.5112098 0.35670227 0.10445152 -0.04230723 -0.37529504 -0.39950746 0.16889441 -0.4107714 -0.24556975 0.14786188 0.22661072 -0.17504676 0.03933467 0.039348006 -0.32834044
have 0.06092739 -0.7702805 -0.28053862 -0.19390526 -0.070268184 -0.29390112 0.28791615 -0.073134676 0.06756281 -0.051949456 -0.01965192 0.38105226 0.39348355 0.10694386 0.18667267 -0.14529093 0.06741579 0.11486211 -0.2859944 0.005412372 -0.4844521 0.035389036 0.34783283 -0.6351389 -0.4098868 -0.09369453 -0.19075252 0.41134366 0.24182224 0.24019086 0.45346418 0.36336753 0.025339065 -0.16214535 0.18205006 0.03212481 -0.05199911 0.043847255 0.12135791 0.39394876 -0.14709264 -0.3398039 0.4789926 0.14150459 -0.6006382 -0.79055005 0.3620816 0.16010268 0.18730634 -0.45275757 -0.15629806 -0.19446667 0.26848876 0.39725772 0.0731302 -0.122151315 -0.04616495 0.05143484 -0.1965837 0.38366592 0.15612908 0.20487131 -0.09995726 -0.36605763 -0.3977822 0.04964604 -0.19614258 -0.52028304 -0.008598169 0.42486063 -0.052037332 -0.07585388 0.242915 -0.10817599 -0.32608578 -0.2580976 -0.44220746 0.21561797 0.021192266 0.2040264 0.41555154 0.20091145 -0.14506085 0.07027982 -0.23276554 -0.69510096 0.3910143 -0.099791825 -0.20523874 -0.17493346 -0.5965131 0.10284276 -0.36911494 0.3114544 0.3652643 -0.009046137 -0.36154598 0.053359255 0.046982884 0.21110725
pop 0.11089721 -0.2692949 1.4038131 -0.7431368 0.0045227977 -0.17935571 -0.22808926 -1.1791722 -0.32654986 1.290172 1.8736795 0.60507786 0.9144293 -0.91219664 -0.4180517 -1.0397856 1.0797223 0.21645774 -0.98409945 -0.3596897 0.34449896 0.46561295 0.12631215 0.1200379 -0.99879664 0.324 -0.36382875 0.94496936 -0.08019981 1.0169417 -0.52918774 0.37533236 -0.3616078 -0.10068476 -0.098770626 1.7600578 0.12811168 1.1243273 -1.5283731 -0.69896835 -0.550349 -0.46133515 0.25324294 1.0799301 0.28536037 0.14187433 -0.15577322 1.1150023 -0.78408873 -0.39339924 -0.5389818 -0.16447045 0.14298905 0.5228112 -0.8076829 -0.39115152 -0.16458166 -0.17274883 -0.9865543 -0.3082288 0.7833218 -0.25674337 -0.05916385 -0.67486537 0.0110923285 0.7564649 -0.04834467 0.9564619 -0.092415296 0.5917141 -0.119771436 1.1396856 0.9657393 -0.32378933 -0.7630087 0.45974046 0.13624512 0.12115153 -0.1683711 -0.52670467 -0.7169559 1.0699601 2.0131435 -1.0011966 -0.5015203 0.29015297 0.26217735 0.2694604 -0.7565984 -0.3567476 -0.5732265 0.64406824 0.78687346 -0.7080336 0.484859 1.5713595 0.528877 0.01421218 -0.29069373 0.23222283
out 0.24919769 -0.49622935 0.21755797 -0.34765822 0.0008075704 -0.2693125 0.18507323 -0.4781215 -0.29169494 0.025606457 0.6618304 0.50543797 0.06483722 -0.1823967 -0.25591144 -0.37180343 0.5017915 0.13358015 -0.37226954 0.09589551 -0.4486718 -0.00934642 0.22052634 -0.37351766 -0.3162101 0.09830301 0.106502 0.34063998 0.029736247 0.4191594 -0.087747015 0.0010609347 0.15850918 -0.22472022 -0.10433977 0.45899016 0.011787936 0.14168596 -0.34724593 0.46083638 -0.294758 -0.042539693 0.24235514 0.15684511 -0.007258283 -0.03196088 0.031965878 0.402644 -0.20426553 -0.36961952 -0.1626569 0.20665978 0.18063441 0.3539045 -0.20360355 -0.5547444 -0.22992194 0.39206648 0.06698008 0.033498187 0.23136038 0.08813497 0.08467551 -0.3320382 -0.05427372 -0.2010929 0.26150277 0.034849197 -0.14251183 0.6080819 0.07791368 -0.12141634 0.21011876 -0.14895274 -0.09742373 0.19805141 0.021194274 0.29619303 0.010029088 0.29436922 0.12063682 0.24132358 0.63952744 -0.10680814 -0.32006204 -0.3505397 0.08261286 0.090335734 -0.046181932 -0.021454845 -0.6665519 0.030569812 0.07427486 0.18505426 0.23578577 0.17399713 0.119895674 -0.13481769 -0.13140784 0.116841905
not -0.08292539 -0.46782666 -0.08873155 -0.13407286 -0.35544416 -0.22682513 0.18425609 -0.12157393 0.2700306 0.22263102 0.28918406 0.3774296 0.45293385 -0.016113332 0.3691018 -0.19790335 0.0261629 0.14683294 -0.2411924 -0.20482722 0.076524906 0.36879775 0.08964442 -0.28234267 -0.4690764 -0.105925895 -0.38572764 0.31488916 0.30156884 0.40482876 0.06440245 0.2924261 -0.04203151 0.13420884 0.39968464 0.4279219 -0.09509669 0.35662934 -0.09816611 -0.016638605 0.07924512 -0.3027461 0.37324387 0.33557332 -0.57124007 -0.63092333 0.4384922 0.22395976 -0.05670898 -0.045380324 -0.016617611 -0.010997898 0.0818749 0.16741844 0.06926015 -0.22068585 0.06910594 -0.20720957 -0.58058107 0.109944075 0.11974918 0.100453965 0.051810417 -0.1398493 -0.23204164 0.44293785 -0.059427164 -0.10203522 0.06932205 0.33617136 -0.18710887 0.4504609 0.23752144 -0.08914052 -0.5582864 -0.045968257 -0.19984019 -0.0032025685 -0.04217151 -0.28012663 0.13607913 0.29851687 0.14667736 -0.23191524 -0.004925364 -0.32059786 0.3687936 -0.008499006 -0.30801862 -0.26156145 -0.31025603 0.14418772 -0.06717473 0.03494943 0.4184361 0.26067504 -0.0004569746 0.16954157 0.0064315354 -0.06255437
by 0.18823002 -0.25285956 0.32300487 -0.45485544 -0.34015003 -0.09987577 0.099189796 -0.5639549 -0.12632763 0.020224037 0.47745407 0.44025365 -0.07343079 -0.08226617 0.06773843 -0.02097848 0.44077727 0.075727604 -0.24986173 -0.013748427 0.06885995 0.24798326 0.18013692 -0.3540372 -0.26754367 -0.14472356 0.056613863 0.15840542 0.06925474 0.2713574 -0.51606864 -0.014687034 0.13143349 -0.2993266 -0.019878238 0.35108528 -0.02526934 0.10326961 -0.26983368 0.23628089 0.12719509 0.27714998 0.02381615 0.08426668 -0.35043815 0.21853763 -0.045628298 0.20563538 -0.29076862 0.03894431 -0.021285057 0.49054113 -0.026056146 0.006297266 -0.0029945532 -0.56049305 -0.33053535 0.267282 -0.003437046 -0.11102037 0.047130838 0.22213928 0.034679953 -0.42310533 0.25934017 -0.26178953 0.48921272 0.19600673 0.07586878 0.60021 -0.20652524 -0.1256271 0.24145184 -0.10634255 -0.1552654 -0.078066655 0.25627786 0.2481433 -0.13155466 -0.19699311 -0.11802756 0.026608704 0.7168993 -0.24121037 -0.030627133 -0.19026096 0.06724559 0.30490738 0.059378903 0.013346121 -0.60679376 -0.14083558 0.14501326 -0.08690127 0.06472991 0.2753386 0.2753512 -0.093677476 -0.03802068 -0.2796238
from 0.26194337 -0.45771262 0.15310219 -0.32499304 -0.35707578 -0.21765333 0.106702484 -0.26862258 -0.3093494 -0.20333874 0.06928536 0.36618188 -0.00076629827 0.07727968 -0.066989794 0.019599803 0.29851234 0.055876914 -0.1704609 0.21577586 -0.34048626 -0.027738154 0.54260564 -0.59895587 -0.20314094 -0.087409355 0.06064049 0.2942579 0.034660984 0.044705912 -0.11793354 0.021034123 0.01626956 -0.29143566 0.018052623 -0.045622 0.061122473 0.019426422 0.029531345 0.48539606 0.030911751 0.1581564 0.06546891 -0.015103756 -0.41685593 -0.23968963 0.039887525 -0.12828442 -0.0064793495 -0.20651528 -0.11840532 0.28584263 0.23197314 0.26413333 0.12182421 -0.43759477 -0.3061405 0.1803032 0.11910305 0.16969542 0.048100438 0.3328787 -0.06307774 -0.36352897 0.06179614 -0.26390368 0.33237484 -0.2748056 0.0276183 0.40973127 -0.19219781 -0.46752498 0.23680177 -0.32887346 -0.07799798 -0.24981454 -0.092341535 0.4608306 0.08376475 0.31277302 0.28362593 -0.04229381 0.3318085 -0.004659448 -0.2684756 -0.42256382 0.17450204 0.11587814 0.08520835 -0.11044073 -0.57770157 -0.16351026 -0.0598715 0.26732686 0.30454138 -0.04280728 0.08448156 -0.20913944 0.07970878 -0.0027034197
android 0.34874418 -0.41321194 0.018927697 -0.29595506 -0.23734483 -0.26569834 0.3053295 -0.69236517 -0.21191032 -0.3247598 0.14043644 0.5869008 -0.10896976 -0.08498333 0.10121503 0.16780467 0.4867103 0.09853409 -0.23810707 0.19157533 -0.53965276 -0.10474603 0.43991873 -0.64270765 -0.13634458 -0.056125518 0.22351012 0.37198776 -0.01159929 0.18510167 -0.23869413 0.041080505 0.30103028 -0.50499386 -0.085352115 -0.1648527 -0.14265202 -0.12635429 -0.11795358 0.79476625 -0.1620436 0.31177747 0.2991786 -0.33097535 -0.25125426 0.04879214 0.13412659 -0.08731574 -0.12692712 -0.562676 -0.22327584 0.29182377 0.081321746 0.2120396 0.17858756 -0.66711783 -0.3653927 0.6877798 0.3376981 0.04760857 0.069841824 0.18369423 0.17688759 -0.47141972 -0.046612773 -0.7613375 0.2982831 -0.26579124 0.058235582 0.820698 0.14936683 -0.47403833 0.13377163 -0.14600791 0.0557037 -0.08862926 0.19576922 0.673347 -0.10088386 0.40706983 0.21499926 0.15345293 0.16049896 0.0067556794 -0.047630347 -0.52112603 0.15340747 0.28561372 0.049124155 0.22422008 -0.993473 -0.32585672 -0.0019810821 0.41025177 0.13713278 -0.20038801 -0.13324344 -0.06691382 0.16453308 0.07983968
are 0.21403672 -0.74745387 -0.03261826 -0.29927132 -0.13473704 -0.25510436 0.18873471 -0.12037143 -0.23533672 -0.14197305 0.14017086 0.426179 0.17578085 0.16775471 0.009786865 -0.17848411 0.24484819 0.032741968 -0.22177124 0.10046248 -0.5635086 -0.07649801 0.6407871 -0.7622024 -0.35339022 -0.02521773 -0.026987951 0.31484097 0.16438666 0.13377301 0.32559863 0.23649086 -0.041456938 -0.1594637 0.16145054 0.118567996 0.14971554 0.07918856 0.13635021 0.46822974 -0.10849223 -0.20394577 0.22025107 0.2358679 -0.52125907 -0.7666372 0.2776254 0.0043665515 0.2266284 -0.3486186 -0.12752205 -0.0892732 0.44541264 0.4720232 0.10600607 -0.29097986 -0.15714964 0.033948652 -0.052731246 0.3381563 0.16226654 0.21572135 -0.12664084 -0.37093046 -0.24256562 -0.033944514 -0.0063825916 -0.47284088 -0.014325046 0.40280476 -0.17879021 -0.26726252 0.23925221 -0.35135183 -0.24957204 -0.33521715 -0.3963156 0.25512725 0.23173751 0.37929764 0.5198294 0.052134495 0.11879299 0.0998793 -0.38420448 -0.6179486 0.3630265 -0.12919739 -0.04543633 -0.21001975 -0.54774946 0.027637577 -0.17320204 0.35806262 0.4840964 -0.050490648 -0.0675261 -0.19684744 0.06698953 0.30873275
get 0.116477996 -0.6671418 -0.15236172 -0.30317816 0.037809256 -0.1826009 0.2497702 -0.36925024 -0.10723475 -0.05539632 0.3754202 0.36282322 0.050678443 -0.0513143 0.07422673 -0.2383475 0.33971083 0.09409428 -0.31703612 0.08481146 -0.437641 0.030239629 0.19480532 -0.5299312 -0.30626386 -0.06749635 -0.17252932 0.25068116 0.12889417 0.39509913 0.07915995 0.078125425 0.16333424 -0.26707008 0.061219413 0.4709447 0.06508902 0.1267236 -0.21343543 0.4470716 -0.013343923 -0.16303086 0.3737196 0.20053257 -0.23096126 -0.25696188 0.18426763 0.35273698 -0.13078962 -0.2682589 -0.09680979 0.04690359 0.25956586 0.23629063 -0.09229372 -0.38116613 -0.069166854 0.26799694 -0.14429057 0.0061383136 0.15602595 0.16522686 -0.038573913 -0.28001368 -0.13875979 -0.059854023 0.014084846 0.020274028 -0.13382529 0.4982886 0.00870779 0.050461594 0.07452375 -0.09070005 -0.1528493 0.10244205 0.0017382805 0.065581486 -0.013825311 0.16729473 0.1443159 0.23885469 0.34063533 -0.080154754 -0.1779082 -0.640869 0.3177227 0.13820958 -0.08119446 0.025280017 -0.6831333 0.026359685 -0.1357685 0.056844957 0.22051871 0.14561544 -0.07440746 0.042723995 -0.12860212 0.021164676
they -0.16298997 -0.91484356 -0.35982865 -0.09013246 0.14466712 -0.63795257 0.31317556 -0.020518037 0.3491922 0.23425403 0.1583683 0.3970119 0.89695555 -0.0009273802 0.29698792 -0.36340854 -0.09853548 0.18360524 -0.4661062 -0.027988201 -0.51268154 0.1947697 0.32354686 -0.53125674 -0.6854877 -0.07886642 -0.36084285 0.729842 0.33192632 0.60003746 0.8317121 0.7265163 -0.14858715 -0.048565645 0.22832222 0.4651049 -0.10382775 0.050811872 0.21852723 0.13998123 -0.24544625 -0.72049123 0.71938074 0.42540863 -0.85343426 -1.2583848 0.4980665 0.6631489 0.09341386 -0.59975475 -0.28189105 -0.6350514 0.24714805 0.70837986 0.20196743 0.114155784 0.13762976 -0.15941572 -0.73678267 0.59552836 0.42351854 0.20689346 -0.061814412 -0.5406469 -0.64524555 0.44765565 -0.3316836 -0.56841826 0.025256671 0.3472866 -0.1715733 0.096694276 0.6159703 -0.068099014 -0.57220477 -0.3075576 -0.9458425 0.010773792 0.0096563 0.047228113 0.30591595 0.41708222 -0.32244852 0.13339171 -0.64792174 -0.7064216 0.7035764 -0.3225359 -0.76721746 -0.55649155 -0.61843395 0.464341 -0.5032756 0.3376765 0.52363414 0.19172467 -0.6194904 0.16530181 -0.09402168 0.25291857
launch -0.19665936 0.011165635 0.045799572 -0.60164887 -0.7683091 -0.21756785 0.32257795 -0.50724494 0.77308667 0.49654093 0.41084456 0.49988475 0.44223282 0.45094413 0.66849184 0.058090135 -0.1008127 0.39500317 -0.3917656 -0.25730792 1.2881485 1.007674 -0.38702294 -0.03790497 -0.56369746 -0.42610636 -0.33760765 -0.07618745 0.38657662 0.34883428 -0.6758372 0.35102686 -0.18845803 -0.19988966 0.0050605205 0.21085747 -0.7849094 0.12270952 0.09474399 -0.5342522 0.7328355 0.4271572 0.26590678 0.012752754 -1.2255892 0.31263095 -0.16751193 0.88899094 -0.73699385 0.66913825 0.61881685 1.14017 -0.6372967 -0.6605113 0.3618183 -0.41047466 -0.37292832 -0.37513164 -0.76921505 0.024124391 -0.3185221 0.5997024 -0.0404078 -0.6983712 0.8545738 0.55038524 0.75383854 0.41553205 0.08492714 0.3939635 -1.2060966 0.12012367 0.6269764 0.33366686 -0.43979388 -0.54286194 -0.10553409 -0.053993657 -0.61817396 -1.7592745 -1.0308363 -0.34310383 1.0240961 -0.4948332 0.055934586 0.06888307 0.3048063 0.73752636 0.076922156 -0.44327092 -0.4275517 0.02945129 -0.004002289 -0.5546685 -0.39842275 0.5593491 0.24284358 0.07191413 -0.08026797 -1.5616614
so 0.24512191 -0.50323623 0.28926942 -0.23945503 -0.15437351 -0.2900267 0.02657205 -0.26712397 -0.21485369 0.10193284 0.3006121 0.45609167 0.37272507 -0.14763445 -0.12815881 -0.16243406 0.3133749 0.13277532 -0.2706664 0.017088424 -0.36009768 -0.0571624 0.47307986 -0.44070217 -0.35740194 0.104163565 -0.07214897 0.626273 0.014760584 0.13426778 0.015517828 0.24832535 -0.10204226 -0.09738673 0.16174287 0.05362107 0.026379436 0.2666665 -0.29162866 0.17320265 -0.32704723 -0.15250157 0.25238028 0.23411673 -0.2819901 -0.4905402 0.12780069 -0.06848295 0.068928264 -0.4442896 -0.32059976 -0.031227794 0.31397486 0.41016147 -0.13108855 -0.22802548 -0.20085357 0.013283457 -0.093820006 0.21490136 0.24961321 0.010895894 -0.09714782 -0.31403023 -0.25642982 0.02604998 -0.088585146 -0.24375317 -0.023846854 0.38947904 0.032533154 0.044995174 0.27619895 -0.38782406 -0.25111434 -0.09972576 -0.2486632 0.432938 0.1217139 0.28623176 0.29029933 0.3654298 0.27325666 -0.109136954 -0.18577899 -0.341001 0.21531151 0.05089009 -0.21106349 -0.15665706 -0.41791424 0.017454246 -0.043554872 0.16724168 0.49240384 0.14247006 -0.0842463 -0.12864818 0.033610158 0.37956208
your 0.28339383 -0.7771174 -0.18518639 -0.18309502 -0.19940898 -0.27714682 0.32245663 -0.2944522 -0.28979045 -0.4048276 -0.02489502 0.44588387 -0.019927835 0.034089558 0.08925389 -0.047704156 0.33611774 0.04400196 -0.17872046 0.20333405 -0.7669635 -0.16392496 0.47865885 -0.7978478 -0.19724438 -0.055977777 -0.032654207 0.38470012 0.121372364 0.19263421 0.16373532 0.06396045 0.20653918 -0.32595617 0.17980461 0.05146658 0.08040162 0.023716101 0.0058207125 0.8156457 -0.08787611 -0.078906074 0.3661681 -0.06199992 -0.34521836 -0.52107763 0.29992905 -0.16318889 0.11804543 -0.52885693 -0.21699882 -0.022085931 0.37819338 0.4242758 0.13227895 -0.50670105 -0.124448486 0.39778066 0.15912163 0.16280152 0.110874265 0.23751174 -0.016914567 -0.28098908 -0.32079247 -0.3688966 0.10282079 -0.45366994 -0.010718293 0.6145776 0.10716343 -0.3610978 0.10573989 -0.30190933 -0.15262936 -0.04643574 -0.11497248 0.43562916 0.115517974 0.67151695 0.59782284 0.14465486 -0.022372777 0.043800417 -0.18233693 -0.8135287 0.36608332 0.021358237 0.0042349836 0.023800934 -0.7887041 -0.20508227 -0.19741875 0.5033111 0.4632502 -0.26138058 -0.18245238 -0.008717672 0.09560469 0.2884921
one 0.12694666 -0.5625936 0.35940906 -0.16491838 -0.2984826 -0.4653863 0.037042975 -0.41517007 0.056850553 0.56705517 0.58259994 0.5593077 1.1215032 -0.30812654 -0.035810854 -0.66544914 0.21809228 0.28003192 -0.623018 -0.34316292 -0.34278542 0.09683281 0.335328 -0.15972161 -0.8240155 0.2435193 -0.25221536 1.1506054 0.0061874837 0.51135975 0.35521278 0.75455636 -0.19639707 0.031167928 0.2643506 0.46326047 -0.19187728 0.58118564 -0.48774943 0.060359083 -0.7275804 -0.5704155 0.6747707 0.2747475 -0.41322693 -0.88854766 0.4773415 0.2476585 -0.026026009 -0.8924183 -0.5712518 -0.529188 0.08396918 0.70388675 0.07577579 -0.11655766 0.048267916 0.1384584 -0.5867731 0.36531898 0.47722057 -0.11546253 0.036382906 -0.426169 -0.7777841 0.12605684 -0.3165711 -0.5263432 0.07551541 0.58809745 0.109632485 0.49157232 0.89056134 -0.24855807 -0.67998946 -0.15014367 -0.6125626 0.58568454 -0.14298496 0.19768372 0.35089496 0.9870063 0.19206055 -0.37227452 -0.36947387 -0.13511585 0.47220594 -0.079851404 -0.83240205 -0.4750232 -0.5891108 0.46086913 0.11050681 0.5349046 0.67680854 0.36362132 -0.3692683 0.2177963 0.10519856 0.5965291
now 0.19141388 -0.21703401 0.23905589 -0.3954929 -0.04450527 -0.24060245 0.15064037 -0.6297409 -0.0846731 0.20342012 0.59686357 0.43551558 0.17640872 -0.14134054 -0.089185715 -0.07506234 0.328872 0.14203891 -0.3178438 0.16094601 -0.01896464 0.106581695 0.13598837 -0.27544996 -0.27544722 -0.03879129 -0.02913082 0.40727833 -0.11277385 0.27331573 -0.28530982 0.026109658 -0.02666908 -0.37824264 -0.10517823 0.13052486 -0.22727828 0.025123298 -0.361763 0.15522969 -0.12704016 0.118953705 0.2956876 0.07773026 -0.17714138 0.24878547 -0.08037203 0.43372545 -0.38981664 -0.3808868 -0.1059168 0.3370837 0.07976908 0.09327819 -0.14374873 -0.42417842 -0.31981885 0.33063537 -0.1004527 -0.0030767284 0.12976453 0.1494633 0.029042384 -0.43879637 0.05425975 -0.15648977 0.15729351 0.17454912 -0.13228633 0.48731053 -0.134266 -0.05545525 0.18791845 -0.024505274 0.060664255 0.07181613 0.092441045 0.31220064 -0.07082202 -0.09724475 -0.35111332 0.271257 0.75063133 -0.18210669 -0.18214555 -0.25472075 0.149828 0.39037213 -0.09024394 0.086067796 -0.6166959 -0.008662025 0.08041205 -0.051792663 0.06691626 0.28416196 -0.0036988796 -0.15553361 -0.101467654 -0.17218967
sxsw -0.024977708 -0.08436177 0.5196986 -0.40769032 -0.32649446 -0.012032398 0.07335664 -0.68337345 0.044773586 0.454162 0.8488165 0.40825102 0.19350062 -0.35348132 0.22585978 -0.41102618 0.52285993 0.063702576 -0.42388102 -0.38306543 0.4120382 0.4804687 -0.15860099 -0.0030733407 -0.4769217 -0.086216286 -0.18309662 0.183492 0.20171757 0.7125341 -0.48038968 0.17846003 0.048006054 -0.09762792 0.060938712 1.1634946 0.019971414 0.53628397 -0.68378174 -0.07026778 0.09195022 -0.020684298 0.13625063 0.38083354 -0.20246778 0.19830362 0.10689485 0.5397693 -0.48809507 0.198605 -0.044773955 0.17122726 -0.14153232 0.053148117 -0.05590198 -0.4792221 -0.015647687 0.12746172 -0.46646965 -0.35238272 0.16640665 0.030949743 0.19039941 -0.34576312 0.12695654 0.1276263 0.35043615 0.5230108 0.19279148 0.6379747 -0.20359148 0.5878175 0.47915256 0.024985122 -0.5094346 0.15891744 0.3221354 -0.06303661 -0.34496856 -0.6292782 -0.2876725 0.3912989 0.9159717 -0.5523947 0.034178372 0.100863084 0.21764232 0.21906982 -0.2150851 -0.06288487 -0.4882177 0.1331567 0.39617285 -0.37605336 0.05110604 0.690011 0.44202274 0.2603878 -0.1322532 -0.30514836
all 0.24833213 -0.47427008 0.10603723 -0.27183568 -0.28566837 -0.24380285 0.16940598 -0.32912123 -0.17113641 -0.12100112 0.07818644 0.41052458 0.19610173 0.110982314 0.03918254 -0.008312956 0.24211633 0.110448204 -0.19890447 0.097768486 -0.35137907 -0.02189233 0.46976757 -0.55925065 -0.2740625 0.004253578 0.05584183 0.38425848 0.079587564 0.05505289 0.020936206 0.20561169 -0.015843129 -0.23009829 0.08242803 -0.08444604 -0.071029596 0.051914167 0.030629158 0.3894649 -0.10022257 0.029779091 0.24559242 -0.017998684 -0.42646626 -0.39796546 0.11899172 -0.039766964 0.040849578 -0.38043 -0.17673528 0.10825611 0.21033734 0.31188962 0.14887975 -0.303496 -0.24613407 0.10989721 0.009570921 0.26754034 0.08399013 0.1929962 -0.051197864 -0.39093673 -0.08290694 -0.16490854 0.11719546 -0.36675754 0.012777546 0.41205284 -0.122509755 -0.34635466 0.26416194 -0.27459204 -0.13653679 -0.29537064 -0.23275676 0.45988184 0.08772134 0.24680588 0.28134933 0.09869125 0.14201841 -0.0041273246 -0.2200386 -0.42745292 0.24191935 0.08516953 -0.030728485 -0.14419435 -0.5651504 -0.08799312 -0.094855025 0.3018598 0.31717935 -0.06314386 -0.10084367 -0.14952385 0.12085099 0.1149557
like 0.14390709 -0.46379647 0.09967113 -0.26036748 -0.4082621 -0.17991282 0.1065095 -0.17569503 -0.05332907 -0.056854807 0.16963568 0.40712476 0.18114388 0.015017647 0.07849991 -0.055402864 0.1623374 0.11349299 -0.15975721 -0.0047647236 -0.26719627 0.056332592 0.41289768 -0.48318765 -0.33052042 -0.044414695 -0.079673536 0.4293273 0.11799121 0.045217596 -0.04342377 0.14174509 -0.07131675 -0.059107378 0.29516175 0.04152254 0.0053702462 0.17598756 -0.05256449 0.36757526 -0.092159905 -0.036697343 0.2303408 0.10114024 -0.51795274 -0.46704325 0.23039924 -0.15803474 0.079181 -0.259953 -0.14110775 0.08079652 0.20680302 0.30987433 0.06561306 -0.3534001 -0.14969711 0.05528128 -0.063965976 0.17991519 0.05172952 0.21113023 -0.017223079 -0.2681834 -0.23277754 -0.011366424 0.08939214 -0.41191494 0.026039869 0.3579038 -0.03953455 -0.07365508 0.19800979 -0.30775836 -0.25002807 -0.24107613 -0.17432441 0.41732836 0.10764091 0.20596342 0.34391397 0.24959531 0.09523366 -0.12304022 -0.1254164 -0.40969318 0.24096227 -0.00013197868 -0.08279898 -0.12776862 -0.42057416 -0.062995076 -0.08091606 0.27641806 0.48831728 0.012968003 0.03130062 -0.07886603 0.09556467 0.14552921
will 0.030126004 -0.3842196 -0.0025084529 -0.22607489 -0.62710536 -0.093230456 0.20236465 -0.06796877 0.14950119 0.015459715 0.04667779 0.32218942 0.13351296 0.3636065 0.34173504 0.14040512 0.10725911 0.09556314 -0.03245924 -0.01116519 0.22266187 0.3688873 0.22271156 -0.4387711 -0.23174958 -0.19226743 -0.117301546 -0.06171199 0.37458003 0.08609646 -0.08577269 0.2171411 -0.11401821 -0.054535437 0.35157627 0.1482653 -0.10924112 0.036156967 0.3022888 0.10126313 0.42185077 0.07390532 0.11993335 0.110029876 -0.7678833 -0.5406099 0.23476622 -0.054512717 0.0707099 0.24822684 0.22732416 0.40016568 0.092028864 -0.044238593 0.2495282 -0.25811806 -0.13418292 -0.318373 -0.21040602 0.18728767 -0.17084168 0.41287705 -0.09982943 -0.34240612 0.25554553 0.28680837 0.29438087 -0.12890206 0.13829327 0.25164688 -0.4460109 -0.20085262 0.20283255 -0.12427887 -0.3908191 -0.29619086 -0.17959012 0.14146456 -0.055908255 -0.2644506 0.17172512 -0.1431153 0.20091984 -0.15877688 -0.049507108 -0.33160844 0.24874203 0.10634407 0.10730297 -0.3374315 -0.3157584 -0.10429296 -0.18309867 0.0062740464 0.2366027 0.13147306 0.1518828 0.0042934953 0.010367645 -0.3544619
line 0.22467622 -0.25049934 0.9088063 -0.6965704 0.09184245 -0.05862068 -0.09956019 -0.8137006 -0.22839841 0.71646076 1.1811757 0.46920133 0.39203185 -0.43048388 -0.45095614 -0.61262196 0.7008218 0.068890356 -0.572477 -0.13133496 0.14341219 0.25220627 0.2853088 -0.11062304 -0.6313023 0.13673952 -0.02489731 0.48055235 -0.12130388 0.39494687 -0.3890776 0.19264245 -0.29068708 -0.31585217 -0.19957834 0.8949333 0.09787897 0.4513366 -0.86030716 -0.39444062 -0.36999196 -0.12210267 0.041241743 0.6472476 0.058906376 0.3191264 -0.3081689 0.71463156 -0.44568497 -0.19455822 -0.26841933 0.010826598 0.14341432 0.22744994 -0.49278486 -0.33777583 -0.38145474 0.03669133 -0.3384828 -0.13546754 0.39412943 -0.056733537 -0.1556813 -0.5885213 0.1663256 0.22192383 0.09728808 0.5130191 -0.17631175 0.39762625 -0.19945042 0.37870234 0.5513798 -0.20522861 -0.25761458 0.10671804 0.104503915 0.14500953 -0.04625029 -0.34157312 -0.5192829 0.47697997 1.4137906 -0.5291035 -0.43464038 0.07702335 0.1688869 0.3335143 -0.2167146 -0.18255654 -0.40587804 0.29547948 0.35249883 -0.45582378 0.1709631 0.8901793 0.40153375 -0.25340506 -0.30588594 0.077677354
social -0.22277299 -0.3452054 -0.63525176 -0.4473464 -1.4823859 -0.38193145 0.8232088 -0.371886 1.2118657 -0.16204302 -0.47127622 0.78150415 0.47976723 1.0541002 1.4266746 0.6172513 -0.4443462 0.48086187 -0.12654781 -0.34631583 1.2080327 1.1760883 -0.33631837 -0.5021752 -0.58622295 -0.6908056 -0.3248509 -0.113802075 0.7848308 0.1070961 -0.56874835 0.656516 -0.09208277 -0.26005617 0.3749772 -0.5180902 -1.2000879 -0.09410251 0.807772 0.09211962 1.1956123 0.61940485 0.5528536 -0.5095438 -2.2455165 -0.31175676 0.23756881 0.42450306 -0.51426685 0.7540451 0.873486 1.5028884 -0.8267387 -0.745074 1.0183371 -0.5430738 -0.45582396 -0.3423021 -0.60122514 0.368261 -0.7537201 1.025942 0.002550164 -0.9313218 0.91489524 0.263247 1.0564158 -0.39462146 0.47714967 0.68083996 -1.5179503 -0.57612324 0.75210845 0.301418 -0.63384515 -1.1924545 -0.54722047 0.29822114 -0.69967794 -1.9657938 -0.4736543 -0.7180525 0.15352423 -0.23151919 0.3854746 -0.41597176 0.48927546 0.6984376 0.29919514 -0.56833076 -0.75990397 -0.24022548 -0.41614342 -0.110250935 -0.30619356 -0.065307595 -0.088770255 0.28435892 0.290866 -1.97965
about 0.03979919 -0.35497478 -0.022293184 -0.21565452 -0.36554274 -0.24312718 0.19818601 -0.10742473 0.06991027 -0.05957442 -0.051048268 0.36216962 0.23491573 0.16356716 0.21465766 0.09771435 0.036251534 0.14551292 -0.10883817 0.009859432 -0.055632707 0.16045782 0.3032378 -0.40103754 -0.30435085 -0.0848832 -0.060793627 0.29345396 0.17457607 0.039104898 -0.014723785 0.2330584 -0.09946907 -0.11298792 0.17471792 -0.15983467 -0.18817014 0.046859197 0.15614383 0.18679899 0.09148754 0.014686235 0.20643882 -0.026314916 -0.6378563 -0.4245629 0.15764268 -0.04551747 0.017314235 -0.082788095 0.013923033 0.27555165 0.07585339 0.15642668 0.2148007 -0.1971644 -0.18608342 -0.089645326 -0.12509759 0.24705099 -0.0738722 0.2750117 -0.045087565 -0.3546336 0.013770707 0.062116362 0.17899016 -0.32724684 0.121781684 0.29954913 -0.31524384 -0.24760117 0.26550737 -0.20935184 -0.2565736 -0.36353853 -0.28883806 0.32910454 -0.014203626 -0.13651612 0.15557334 -0.02599175 0.08376778 0.019815562 -0.13537723 -0.30980292 0.22284497 0.07702663 -0.013323079 -0.22882134 -0.37267902 -0.041134387 -0.13049623 0.14109227 0.2628898 -0.02327102 -0.041425467 -0.051992252 0.12038043 -0.19011839
time 0.34715363 -0.25084022 0.4327946 -0.5020916 -0.2849035 -0.11554689 0.027444063 -0.54159135 -0.2936049 0.05476149 0.56768024 0.44571233 -0.1076057 -0.017872246 -0.24997884 -0.108733565 0.4324616 0.08396158 -0.3065386 0.16490486 -0.04751861 0.13465339 0.36025023 -0.4110619 -0.22956355 -0.07955306 0.17457446 0.20571291 -0.119739346 0.066454604 -0.3556799 -0.07425156 0.02986446 -0.35760814 -0.16074269 0.12830874 -0.036351226 0.068059914 -0.23719525 0.14684264 -0.01928916 0.29213858 -0.07810988 0.1212447 -0.2585501 0.25568318 -0.2053112 0.3477835 -0.291979 -0.1953423 -0.065632306 0.48740768 0.113558754 0.10049522 -0.0838698 -0.6007007 -0.46286425 0.19125688 0.10888135 0.042553544 0.08928715 0.21774708 -0.07408958 -0.50947356 0.26473227 -0.2653865 0.44730362 0.062007807 -0.13649882 0.46093056 -0.346678 -0.3368827 0.3283414 -0.17314065 0.1005266 -0.122657605 0.13190794 0.39688367 -0.013325662 -0.024554145 -0.18346357 0.05201931 0.797442 -0.2506841 -0.2746757 -0.24472398 0.059042312 0.34415793 0.121505424 -0.02016579 -0.58887446 -0.08519468 0.1525889 -0.031905662 0.10295048 0.27795452 0.34665966 -0.32480344 -0.1360747 -0.23512584
can 0.22727567 -0.8242889 -0.048805963 -0.25069606 0.07902879 -0.2178409 0.21702872 -0.2587888 -0.3090363 -0.06371074 0.25456947 0.3896022 0.18118446 -0.101451054 -0.15260582 -0.25098988 0.38219962 0.053454783 -0.29792988 0.14422017 -0.740861 -0.14444464 0.50115067 -0.68504393 -0.33418825 0.022150433 -0.11537097 0.48613214 0.07752676 0.21486892 0.26051345 0.12253956 0.022073278 -0.2839272 0.16152772 0.29889622 0.19459979 0.16607036 -0.13508427 0.46718192 -0.2148332 -0.29615745 0.38307315 0.27765736 -0.22921439 -0.609547 0.25164327 0.030303488 0.10952213 -0.5141016 -0.28709427 -0.20812827 0.53058064 0.5105925 -0.061071876 -0.31950766 -0.114614464 0.19636379 -0.04794414 0.191486 0.2571409 0.103780754 -0.13653915 -0.30694738 -0.41225293 -0.08592184 -0.15755922 -0.29482475 -0.11636528 0.4844356 0.08894168 -0.049074136 0.1281404 -0.35426208 -0.23237123 0.048275925 -0.20322688 0.22405896 0.2547205 0.5497367 0.43826252 0.30322048 0.24886383 -0.04882232 -0.32006016 -0.6970207 0.36034855 -0.012961986 -0.12464045 -0.049832236 -0.5922534 0.0273718 -0.15704189 0.25160775 0.45695364 0.028530287 -0.108941175 -0.07356441 -0.06321798 0.4071198
great 0.12901741 -0.41062155 0.10757765 -0.24960512 -0.4083319 -0.23202361 0.13278209 -0.13592133 -0.085230805 -0.14036268 -0.011259504 0.3325725 0.13388942 0.16289869 0.09305902 0.06258852 0.13773073 0.11797735 -0.1042112 0.113416076 -0.15721342 0.10151366 0.4550693 -0.51228994 -0.26245055 -0.13139962 0.030780794 0.265534 0.120578796 0.004334246 -0.05681064 0.13539973 -0.095346116 -0.1499584 0.15685451 -0.077727005 -0.0542127 -0.023992155 0.15550146 0.32692617 0.111056186 0.0956721 0.11562023 0.0069444743 -0.63676757 -0.3954662 0.09873768 -0.10501473 0.04109277 -0.08381061 -0.043105073 0.27000266 0.157753 0.20860536 0.25243586 -0.3487157 -0.23750465 -0.031710163 -0.007889809 0.23553996 -0.051117502 0.34243032 -0.08778678 -0.39626646 0.063889354 -0.04768872 0.3153153 -0.34253532 0.03683355 0.31236812 -0.31446874 -0.38415167 0.3056994 -0.29502785 -0.21387409 -0.36760798 -0.2638972 0.36851323 0.0882894 0.08969871 0.2713163 -0.085021675 0.18117659 -0.013855683 -0.24880429 -0.37991107 0.22798406 0.04155963 0.02668405 -0.2437962 -0.41413993 -0.12303273 -0.12104564 0.24669173 0.31123403 -0.060979065 0.06944973 -0.15880582 0.08849441 -0.13674761
via 0.0023202137 -0.10641925 0.24419871 -0.39201152 -0.615704 -0.007878507 0.26651752 -0.6432112 0.2171845 0.14845255 0.5510928 0.45854938 -0.15600398 -0.0049833586 0.5016703 -0.050179534 0.3664515 0.07753687 -0.23614255 -0.30591786 0.58333397 0.6198278 -0.22604536 -0.18043591 -0.2936746 -0.36923993 -0.14916219 -0.1241954 0.3021059 0.5278197 -0.6943309 -0.01151869 0.17810735 -0.18498117 0.12748262 0.7211271 -0.16474085 0.28768957 -0.33528686 0.08396298 0.5393817 0.3758543 0.038337346 0.12637514 -0.56157446 0.3512987 0.11029121 0.4236265 -0.5171942 0.45602587 0.24098197 0.65589684 -0.21934792 -0.29816404 0.22359419 -0.75266564 -0.1545239 0.2062143 -0.29593414 -0.36986905 -0.098495 0.31234315 0.21664272 -0.33910295 0.40907064 -0.06509626 0.68727016 0.4744927 0.24095607 0.7172721 -0.43981358 0.23443133 0.28207573 0.149435 -0.3666067 -0.029780366 0.45862043 0.01257312 -0.42856383 -0.7379528 -0.33674037 0.0045402767 0.80659544 -0.46587285 0.2745038 -0.064235106 0.15846997 0.43549097 0.06681208 0.015593146 -0.54711044 -0.18396033 0.26093468 -0.33537576 -0.15964666 0.36995575 0.5189231 0.1822918 -0.047886167 -0.74459916
me 0.25758806 -0.772142 0.03565848 -0.30258024 -0.009487726 -0.28414124 0.18600905 -0.32653615 -0.2169777 -0.062500514 0.23750742 0.4901377 0.37305155 -0.11575154 -0.14558735 -0.21893217 0.35302418 0.13529293 -0.37272012 0.1151718 -0.7382986 -0.14937434 0.51711917 -0.66086686 -0.41269502 0.076587275 -0.101707496 0.67753434 0.032393347 0.19467033 0.23100679 0.24181697 0.009867344 -0.3004241 0.12256374 0.05375375 0.0010921389 0.19506145 -0.21466582 0.44188085 -0.45120767 -0.2637278 0.5175916 0.13247831 -0.261542 -0.56664586 0.19747692 0.025124107 0.079264745 -0.76752913 -0.37494224 -0.18293306 0.38129884 0.5491409 -0.1636782 -0.23869988 -0.15326293 0.23622853 -0.064686105 0.25683972 0.3078079 0.0988074 -0.098697625 -0.38847956 -0.41331136 -0.124218024 -0.17875299 -0.42281002 -0.09910436 0.48041427 0.14028633 -0.098839894 0.24607229 -0.3398899 -0.14080131 -0.0742976 -0.2682356 0.4918754 0.09479324 0.5176123 0.4087215 0.4723369 0.1557588 -0.06258255 -0.33987406 -0.652969 0.33502603 0.042382557 -0.2215222 -0.080046125 -0.66989154 0.061001163 -0.24420932 0.33188334 0.4895872 0.09387909 -0.324286 -0.04422362 0.025697172 0.4614683
no 0.004633467 -0.34468633 0.44775516 -0.0892568 -0.4136232 -0.45037046 -0.022863064 -0.32587603 0.23162758 0.8205986 0.5877695 0.55449724 1.3759785 -0.24778104 0.052773762 -0.6968744 0.0438946 0.35642686 -0.61559653 -0.51331955 0.04270095 0.25253513 0.19179222 0.14995655 -0.9218168 0.31227905 -0.33101904 1.1908743 0.02000486 0.4798915 0.36248815 0.96025866 -0.37232983 0.22298399 0.352808 0.42269477 -0.40295717 0.6732311 -0.47472265 -0.2089386 -0.7075733 -0.6324229 0.72678775 0.23162225 -0.4944711 -0.9557675 0.5101226 0.31199777 -0.10622063 -0.804205 -0.4977256 -0.4957699 -0.0932569 0.6135605 0.16501491 0.04182823 0.102170564 -0.0626865 -0.79367787 0.40990162 0.40797135 -0.13152787 0.09896313 -0.3892945 -0.72526616 0.42913023 -0.37043405 -0.504916 0.12054982 0.42209113 0.00594342 0.63508564 1.0377727 -0.20620196 -0.75641334 -0.25557995 -0.7637015 0.5953593 -0.21545087 -0.105727114 0.20441324 1.0430107 0.17127083 -0.48182 -0.30117145 0.15148687 0.4494131 -0.09761919 -0.9732909 -0.6309662 -0.38769695 0.60968274 0.17421846 0.46467546 0.64076495 0.45825225 -0.41291842 0.31368464 0.14167774 0.4671903
but 0.15583968 -0.53468454 0.1880473 -0.25083432 -0.10519024 -0.26518315 0.0894641 -0.22757141 -0.08311333 0.14862873 0.30914962 0.40013927 0.4426795 -0.10418553 -0.10976329 -0.2694365 0.21661001 0.14713663 -0.32100397 -0.0002320041 -0.36821014 -0.012685078 0.40013936 -0.38352746 -0.4466841 0.094946824 -0.12070539 0.5816722 0.05637205 0.17996512 0.16236252 0.2947511 -0.096748576 -0.05673719 0.15593553 0.1557162 -0.0006438705 0.25597137 -0.18573827 0.14647934 -0.31872717 -0.30095732 0.3423711 0.2803307 -0.2865304 -0.53729635 0.19500835 0.11344649 0.025765548 -0.48210436 -0.27023605 -0.1475246 0.24981655 0.42131174 -0.13260116 -0.16274638 -0.15191093 -0.0149057675 -0.24223147 0.2692384 0.27326545 0.04046817 -0.09642175 -0.28775597 -0.3414524 0.12165523 -0.13364996 -0.29061052 -0.05599169 0.30697563 0.007906539 0.07546605 0.31403023 -0.27870184 -0.25790492 -0.08493737 -0.2829206 0.33031243 0.077718884 0.24861208 0.22702883 0.4115106 0.2477771 -0.085121416 -0.30576754 -0.3365247 0.2743645 -0.0023313325 -0.24266618 -0.2000118 -0.41869918 0.17250872 -0.08004782 0.20637724 0.46911246 0.20461185 -0.11836945 -0.04101619 0.009283287 0.31267688
party 0.071577415 -0.04522211 0.18410882 -0.24490921 -0.70889586 -0.16710743 0.097087495 -0.22221239 0.0688814 -0.015545813 -0.02287971 0.31047863 0.2378889 0.106623285 0.25900862 -0.003350847 0.1945256 0.110530235 -0.09249138 -0.10884713 0.14118592 0.24809787 0.3320609 -0.26842687 -0.29982692 -0.005679925 0.055365037 0.19648516 0.17741062 0.02943396 -0.28987622 0.2779169 -0.11300976 -0.14541237 0.07733325 -0.029224604 -0.1762377 0.16159031 0.08103186 0.26433408 0.05440974 0.29062003 0.056372955 -0.16808212 -0.5747613 -0.21210708 0.033557616 -0.1986568 0.005440667 0.039602935 -0.004782465 0.28161022 -0.19197139 -0.022973917 0.36354747 -0.32531855 -0.24234468 0.07333546 0.036567677 0.16998744 -0.107642226 0.2708163 0.0184778 -0.4222535 0.25325102 -0.16390793 0.44539362 -0.3033515 0.25874993 0.42376426 -0.22589669 -0.20987904 0.44483265 -0.194664 -0.34698927 -0.39456362 -0.1805753 0.49506825 -0.08152219 -0.22354905 0.13650736 -0.03112039 0.18616602 -0.17673808 -0.02711614 -0.028434886 0.18266203 0.1220321 0.052802652 -0.2317175 -0.39462677 -0.12851186 0.1070825 0.22840971 0.1710679 0.01635959 0.11088918 -0.05313731 0.20839734 -0.21261907
today -0.043676432 -0.22396117 -0.13467678 -0.40378943 -0.6184828 -0.0574156 0.540736 -0.5086896 0.5652465 -0.047856856 -0.020454952 0.57175034 0.08771936 0.36353287 0.7596659 0.2200751 0.05594662 0.21830192 -0.19142942 -0.23470989 0.63273495 0.6497546 -0.1551036 -0.3200609 -0.35105538 -0.40694922 -0.07358757 -0.15538545 0.46871558 0.21174921 -0.4130073 0.32231936 0.092860505 -0.32438043 0.080950506 -0.05740484 -0.60031056 -0.013384617 0.15483649 0.071431786 0.51835006 0.3682353 0.28641957 -0.18448263 -0.99846375 0.10606673 0.16688561 0.35078666 -0.28937352 0.32573825 0.37036622 0.6822668 -0.41671112 -0.43300724 0.39014915 -0.47931448 -0.28343257 0.07411466 -0.24612239 -0.01062155 -0.2844292 0.45303893 0.04095764 -0.6186848 0.53115594 -0.038796775 0.5656761 0.013542496 0.3434378 0.6313187 -0.56305087 -0.18908805 0.33207065 0.3087915 -0.37569773 -0.48492908 0.042984556 0.19471733 -0.54849416 -0.99582565 -0.30707604 -0.29740858 0.27137282 -0.20437291 0.2930099 -0.27717596 0.21614553 0.44428653 0.2284202 -0.09505099 -0.5559203 -0.21193261 -0.16578555 -0.28326827 -0.28551868 0.07551458 0.0370733 0.15667982 0.19857426 -0.8804121
we 0.2555744 -1.0793184 -0.4704095 -0.2267636 -0.05969064 -0.5034403 0.5200755 -0.18412851 -0.013168034 -0.5257106 -0.24272884 0.6033184 0.27034253 0.21981664 0.26789144 0.09242679 0.15914838 0.18756239 -0.17879313 0.23198108 -0.9342826 -0.109927036 0.6308536 -1.0298934 -0.27557257 -0.103911944 -0.120110795 0.5344886 0.31304246 0.17941368 0.46404046 0.35447147 0.15445068 -0.39394557 0.19089936 -0.26288536 -0.13906963 -0.06471486 0.29199588 0.7416484 -0.10854756 -0.2021064 0.66870004 -0.010821568 -0.74437255 -0.91920483 0.29468393 0.061864994 0.2621234 -0.6667988 -0.21978393 -0.16881539 0.44209212 0.48580876 0.24764065 -0.27328563 -0.22052461 0.21313453 -0.00417665 0.49395025 0.13202915 0.33050245 -0.078997165 -0.5247274 -0.3599391 -0.16207808 -0.023410672 -0.67413664 -0.021671766 0.57443863 0.045712855 -0.6020455 0.06702032 -0.30682302 -0.18591686 -0.29503417 -0.5698823 0.4552053 0.16406496 0.5713911 0.61423486 0.09053631 -0.45645955 0.3099773 -0.31180668 -1.1323072 0.5252745 -0.03770353 -0.13168068 -0.23152445 -0.8955813 -0.12558106 -0.6018544 0.5568203 0.5292385 -0.355486 -0.57448804 -0.077364214 0.14288642 0.30025026
circles -0.17859511 -0.3702504 -0.5426012 -0.5415394 -1.5745265 -0.28699574 0.87578154 -0.35649306 1.2132366 -0.15759222 -0.4624114 0.900146 0.3397497 1.0112394 1.5788308 0.58817124 -0.32213393 0.4334207 -0.17510958 -0.4239573 1.2701441 1.2336426 -0.23129682 -0.64077246 -0.6115089 -0.78881377 -0.31141055 -0.24568056 0.9663845 0.23262198 -0.5510527 0.6897863 -0.029805394 -0.30122367 0.4086498 -0.42456532 -1.1394961 -0.047302675 0.83821136 0.17630276 1.1870565 0.68785393 0.551843 -0.47776493 -2.3169892 -0.39137325 0.40824327 0.33046338 -0.30734357 0.7937464 0.79029465 1.3597225 -0.8230527 -0.78578496 1.1129194 -0.6884771 -0.39938325 -0.24813174 -0.5758411 0.35537034 -0.71558213 1.0162133 0.059543073 -0.991062 0.8715231 0.21408665 1.1101965 -0.4477163 0.6720199 0.8793997 -1.3658673 -0.50555634 0.665405 0.40281597 -0.7865681 -1.2165895 -0.37703153 0.33827773 -0.775056 -1.879875 -0.29425752 -0.6919552 0.008594438 -0.26710254 0.5297517 -0.5110666 0.50919574 0.6581585 0.3916 -0.5078197 -0.83177555 -0.41839108 -0.46029866 -0.14469065 -0.3093779 -0.11645544 -0.084505 0.33506882 0.4237659 -1.817597
has 0.26713595 -0.31717342 0.34785965 -0.35073277 -0.22538559 -0.1798696 0.04259413 -0.42151898 -0.19975764 0.11003748 0.32761765 0.42865798 0.1563562 -0.09234808 -0.16314593 -0.097144 0.3703806 0.1288903 -0.28969726 0.08630753 -0.17758535 0.079709604 0.3998816 -0.37730148 -0.29194894 0.04674249 0.016957385 0.42074037 -0.04138742 0.13310416 -0.13632056 0.094593294 -0.038692668 -0.2682105 -0.06377367 0.03401049 -0.043627873 0.12470572 -0.30311072 0.19333059 -0.2029106 0.05012921 0.12144556 0.043762177 -0.2409251 -0.056772403 0.00886065 0.0790018 -0.08725542 -0.35966983 -0.20121083 0.18859012 0.08463891 0.25666133 -0.043970082 -0.30472997 -0.27435577 0.19110475 0.024026014 0.10952531 0.15096234 0.13741094 -0.007895664 -0.37042686 -0.05101851 -0.20687765 0.13492239 -0.14809856 0.032185193 0.3748093 -0.11573485 -0.116095036 0.26094052 -0.17355794 -0.05476551 -0.17397341 -0.056763563 0.403362 -0.032574784 0.05827048 0.007774656 0.22829774 0.48720744 -0.11383625 -0.16226774 -0.21288562 0.10214244 0.14494848 -0.046547387 -0.024255479 -0.54372656 -0.0038876827 0.055834964 0.09468578 0.21930335 0.19870013 0.01958548 -0.1461869 0.018641323 0.07503257
day 0.29516098 -0.01527468 0.58128345 -0.39663315 -0.5509001 -0.086025715 -0.14518394 -0.3266265 -0.2696548 0.10263238 0.379573 0.30256084 -0.028750764 0.015328379 -0.21641566 -0.019177642 0.2655305 0.048558515 -0.22760382 0.07528291 0.23233561 0.1885918 0.36053154 -0.21731223 -0.2360672 -0.07056526 0.19333616 0.21273439 -0.08681262 -0.103223845 -0.39617988 0.04675348 -0.13633123 -0.19502605 -0.065272875 0.042303145 0.03792235 0.058719456 -0.08072962 0.08157482 0.06380923 0.3231781 -0.2638044 0.09167296 -0.49856314 0.10745826 -0.16348627 0.069809295 -0.20725997 0.0323739 -0.050374616 0.5416803 0.00096170016 0.08154485 0.11509211 -0.48953405 -0.46210247 -0.0067997742 0.116056345 0.11431945 -0.0017407708 0.3219568 -0.083893955 -0.48791444 0.30410808 -0.15593359 0.5423063 -0.11651193 0.024980167 0.2931124 -0.44095948 -0.41173804 0.52867764 -0.2958951 -0.06764911 -0.3780654 -0.0018851937 0.46917555 0.0091842245 -0.1532171 -0.06012332 -0.07067193 0.6953756 -0.18554866 -0.30491364 -0.043426298 0.021847485 0.23423195 0.10020918 -0.23934759 -0.3709912 -0.025357416 0.22970286 0.027051501 0.19964749 0.2339558 0.42740005 -0.30454338 0.0031998763 -0.30697334
was 0.24393673 -0.466866 0.47542742 -0.42828655 -0.17975585 -0.1383871 -0.03550132 -0.38126105 -0.2690279 0.22907642 0.6034797 0.4400806 0.24541834 -0.23492436 -0.2632849 -0.27892777 0.4528233 0.060673438 -0.353872 -0.0007709953 -0.28269452 0.010020771 0.5075201 -0.4148461 -0.42105213 0.074467584 -0.04581504 0.5305107 -0.00088278623 0.17613856 -0.12574922 0.124494925 -0.15109581 -0.18182743 0.13018814 0.38500106 0.13712552 0.30995822 -0.41412634 0.13820498 -0.2993779 -0.12202278 0.11883976 0.38915846 -0.21443462 -0.2973893 0.03751269 0.099649824 -0.018914536 -0.35148573 -0.28789413 -0.017974863 0.31665042 0.40362892 -0.24633908 -0.33551925 -0.2172694 0.052794404 -0.0937971 0.10842565 0.26267952 0.06412978 -0.09251236 -0.3650799 -0.15491356 0.037285313 0.0506579 -0.10855669 -0.06432838 0.38070723 -0.023125455 0.10718488 0.29481652 -0.3652429 -0.23225985 -0.07227182 -0.06480391 0.35312682 0.1484206 0.1639021 0.17003104 0.39119327 0.62472403 -0.22423473 -0.33685848 -0.30177802 0.19518057 0.06267747 -0.14926918 -0.15849712 -0.44594568 0.097182736 0.09608483 0.043971784 0.47856674 0.3490153 0.17154464 -0.18940502 -0.070737205 0.29965115
cool 0.1476233 -0.19884628 0.69147706 -0.05912932 -0.5139184 -0.42476076 -0.017898861 -0.4969137 0.079914264 0.819572 0.71632415 0.51581407 1.2142581 -0.3871362 -0.05957191 -0.65241486 0.2256199 0.37012327 -0.6053238 -0.4609273 0.086166166 0.27256465 0.100194246 0.20405954 -0.7935398 0.34453 -0.36463735 1.1609372 0.0003122961 0.52723867 0.09750024 0.737242 -0.28778854 0.22886339 0.3074997 0.47098276 -0.38754323 0.850269 -0.7635213 -0.2581935 -0.63880235 -0.48173353 0.6370217 0.17084515 -0.24236536 -0.63344574 0.43054336 0.19888413 -0.21961872 -0.776982 -0.5293139 -0.2444923 -0.11474516 0.5192183 0.0474349 -0.070660055 0.07549919 -0.038185734 -0.7338141 0.21839212 0.39040577 -0.21997066 0.1525491 -0.28045735 -0.5720578 0.37365606 -0.28737774 -0.1781149 0.17621866 0.47925246 0.026085272 0.7421221 0.880414 -0.30116093 -0.69002444 0.03116403 -0.50553244 0.6223022 -0.22884923 -0.021951573 0.057629876 1.0661795 0.3692445 -0.5651877 -0.12476883 0.27931294 0.32747513 0.00012211871 -0.84399176 -0.47473273 -0.37288707 0.514145 0.35161236 0.37209874 0.58732516 0.5358427 -0.22406615 0.31906807 0.22085308 0.39227983
free 0.2476439 -0.4115483 0.07644754 -0.44368532 -0.06999741 -0.16742246 0.2426452 -0.7297465 -0.23210894 -0.14635818 0.4297037 0.5235478 -0.23214103 -0.0067326883 0.013209813 -0.02586169 0.5303851 0.08544903 -0.32632223 0.2053882 -0.21862407 0.14630385 0.19993272 -0.56919265 -0.11732465 -0.20792226 0.06058113 0.09748714 0.046649367 0.4030434 -0.42727488 -0.13339703 0.32448825 -0.54784936 -0.17796603 0.22374783 -0.11548522 -0.018527834 -0.24322039 0.47836465 0.093728594 0.31977788 0.25765902 -0.09203399 -0.19401033 0.4295452 -0.082520775 0.4606351 -0.42156753 -0.24625918 -0.029369183 0.49757048 0.04508847 -0.013648744 -0.026479889 -0.75657016 -0.39597577 0.5681064 0.035757028 -0.13815108 0.14382681 0.28566617 0.092065334 -0.44373098 0.2968746 -0.48791498 0.50384116 0.25148022 -0.12448821 0.71597123 -0.1380886 -0.33501494 0.10986821 -0.027676959 0.16794084 0.03141214 0.3886724 0.30495635 -0.17850651 0.03584014 -0.1968483 -0.020507876 0.76234967 -0.16147661 -0.103751525 -0.49059558 0.15301527 0.42672986 0.099102795 0.16070214 -0.8884138 -0.18464985 -0.02979244 0.00789986 -0.0688037 0.2046859 0.13238314 -0.08519503 -0.15472895 -0.28924
there 0.2620831 -0.5567728 0.31770456 -0.311365 -0.0721908 -0.24206944 -0.011716709 -0.23757552 -0.18865135 0.16098242 0.38351414 0.42414606 0.41149366 -0.100958884 -0.22669837 -0.27851555 0.32976687 0.097628795 -0.30754513 0.06649788 -0.44827634 -0.02882976 0.5642831 -0.49687818 -0.41057038 0.09572325 -0.08616126 0.62512785 0.018183716 0.10394185 0.1449577 0.23497595 -0.13411254 -0.10585952 0.20695704 0.12575665 0.11985849 0.20781423 -0.19159101 0.11753625 -0.385158 -0.30333298 0.2126053 0.39123285 -0.32932857 -0.56802535 0.13327953 0.06233899 0.1317709 -0.56651944 -0.34641117 -0.25938538 0.385167 0.5331173 -0.15991022 -0.19884606 -0.20632073 -0.04149441 -0.15770489 0.32643914 0.3407728 0.05258709 -0.15691341 -0.37459335 -0.35049033 0.12598829 -0.17767204 -0.33997294 -0.10309529 0.31475857 0.025014298 -0.00861161 0.30567285 -0.3971489 -0.21303923 -0.15787822 -0.32308954 0.40002808 0.21745175 0.44202906 0.26439 0.40435183 0.29766753 -0.081011854 -0.40072384 -0.42790595 0.2827161 -0.06445686 -0.26589143 -0.26217586 -0.41426662 0.16528985 -0.10936994 0.261511 0.58186775 0.24441913 -0.073887 -0.1900433 0.014037797 0.47983575
as 0.23374029 -0.50270927 0.22418073 -0.4636351 -0.19062161 -0.08413515 0.13216102 -0.3150497 -0.104928605 -0.043066975 0.167772 0.42816362 0.09864022 -0.00660369 -0.07027462 0.09844292 0.34463027 0.087288395 -0.22551195 0.059967007 -0.27051988 0.08868395 0.53475475 -0.5823281 -0.28143403 -0.111721344 0.06221827 0.34891453 0.060455598 -5.0176375e-05 -0.18270603 0.039393567 0.010542926 -0.34305468 0.05745842 -0.05837286 0.07273893 0.0099161165 -0.063962474 0.31804335 -0.08440418 0.08493069 0.050211042 0.1482873 -0.47675923 -0.21769617 0.013970349 -0.11154255 0.022126935 -0.22691129 -0.19355053 0.20295365 0.20531625 0.293119 -0.013331876 -0.39786336 -0.3726188 0.14868936 0.10612247 0.14615431 0.16082674 0.23051912 -0.07099465 -0.47163805 -0.041356817 -0.26611128 0.1653721 -0.32382745 0.08044639 0.47604415 -0.11785641 -0.2455844 0.21371323 -0.25190914 -0.14333074 -0.3162557 0.02414194 0.457334 0.034389842 0.15038481 0.2026636 0.08961462 0.33421588 -0.10209488 -0.2363446 -0.40835434 0.17049833 0.19042802 0.08149296 -0.055161573 -0.54804873 -0.15377177 -0.07973006 0.114416964 0.27320796 0.043096174 0.056662742 -0.2024532 -0.010991435 0.06223679
here 0.18160261 -0.44736707 0.24644716 -0.24271649 -0.07538171 -0.17306587 0.0788426 -0.3054457 -0.19538553 0.08258447 0.38101354 0.35547304 0.1901363 -0.120822646 -0.067481905 -0.27096778 0.33374628 0.06927008 -0.26982376 -6.330173e-05 -0.3338841 0.006572612 0.36258486 -0.39590117 -0.3110658 0.04603459 -0.0612067 0.39153257 0.065417595 0.23050265 0.036874276 0.1565663 -0.033566575 -0.10623144 0.09437625 0.35384953 0.10751994 0.24173555 -0.28091076 0.21540503 -0.17150964 -0.17503382 0.17377862 0.2830102 -0.20412928 -0.32432204 0.12545162 0.12973338 -0.004430435 -0.31362584 -0.22337137 -0.1321176 0.25669613 0.33931816 -0.06598512 -0.29521266 -0.11804486 0.08427409 -0.12766843 0.11167862 0.2559398 0.046777695 -0.05671055 -0.28614736 -0.18741393 0.032815564 0.007671795 -0.10558309 -0.034715943 0.34170383 0.009982967 0.061056476 0.24247025 -0.24582614 -0.20096669 -0.043270294 -0.12467584 0.23480424 0.09306726 0.23851682 0.17891575 0.30474657 0.3486987 -0.13403499 -0.25088727 -0.33273253 0.23914677 0.024771634 -0.1699244 -0.10765243 -0.43112817 0.077227086 0.039705984 0.12161808 0.3792874 0.19032383 0.04124416 -0.09243346 -0.010729772 0.24263522
what 0.12583627 -0.6422275 -0.12088593 -0.24343412 -0.109026045 -0.30655164 0.24169782 -0.18107536 -0.06794112 -0.08872121 0.12435806 0.36183208 0.25017565 0.05219004 0.09244653 -0.119057864 0.18298891 0.10393113 -0.23356543 0.12247358 -0.45814043 0.015263205 0.4142009 -0.63951117 -0.36158884 -0.047726125 -0.106852524 0.37851137 0.17198175 0.21087256 0.20621699 0.20082803 -0.031922664 -0.22167675 0.16751388 0.13737142 0.016455928 0.039522998 0.06583478 0.3543269 -0.07310607 -0.2103231 0.3566384 0.18088506 -0.49118692 -0.5938576 0.2054969 0.12886715 0.09628815 -0.34630942 -0.14981203 -0.06390002 0.32397437 0.40274557 0.06814668 -0.23970798 -0.13340272 0.03856362 -0.14427453 0.29565024 0.15890741 0.22938569 -0.10208772 -0.35825735 -0.21515179 0.045827653 -0.008149208 -0.34029946 -0.024024565 0.37194777 -0.13356972 -0.17025451 0.21337764 -0.23333877 -0.27341393 -0.17647246 -0.3303971 0.24672484 0.10636338 0.22114491 0.30735198 0.11513694 0.088426426 0.05940511 -0.3117278 -0.6108717 0.35933286 0.0033248104 -0.11638094 -0.16978401 -0.5386922 0.027958881 -0.21711627 0.20790634 0.39920527 0.02110203 -0.16729327 -0.07223821 0.01556927 0.15450281
maps 0.3259151 -0.1928965 0.026719738 -0.18069458 -1.5336385 -0.44926155 0.059896972 0.28173313 -0.2028343 -0.53422606 -0.7150012 0.37995413 -0.043513507 0.81944925 0.3195205 0.55035764 -0.20828567 0.03214118 0.14777695 0.33625928 0.029918397 0.29319263 1.0114084 -0.99619985 -0.24412553 -0.34854093 0.22371055 0.15314774 0.1314989 -0.59571314 -0.0836938 0.08648496 -0.2215694 -0.15647183 0.34790722 -0.95433235 -0.13811998 -0.35775074 1.0393262 0.75876904 0.63517314 0.61045045 -0.31389418 -0.5106138 -1.7184196 -0.9766838 0.28069448 -0.82171607 0.28202415 0.21904853 0.17962548 0.9422703 0.017708138 0.2792922 1.1209608 -0.5522397 -0.5025547 -0.28314403 0.39272028 0.75548905 -0.44283724 0.974941 -0.13829218 -0.58382154 0.34578994 -0.31809747 0.9535149 -1.2390848 0.42637333 0.3275575 -1.1520065 -1.4240112 0.7173902 -0.6543115 -0.25860566 -1.3176178 -0.81891245 0.8881188 0.2827284 0.20465897 0.7245768 -0.7297417 -0.1876988 0.3015682 -0.32022282 -0.37194088 0.30801028 -0.117874354 0.32967773 -0.5901505 -0.5648174 -0.4387161 -0.09566787 0.9209175 0.57804865 -0.6639773 0.29469097 -0.58511525 0.5193429 -0.70185983
people 0.2885176 -0.46450582 0.4524028 -0.33715165 -0.11864976 -0.28438076 -0.009085994 -0.19493371 -0.22151603 0.19520773 0.29314113 0.3422977 0.2806486 -0.029596208 -0.24215338 -0.22837272 0.22832479 0.04828703 -0.25256604 0.07181891 -0.2792817 -0.033684485 0.5267993 -0.43439686 -0.42442596 0.052720632 0.025613742 0.49830848 -0.0066122063 -0.040248074 0.048622616 0.26301637 -0.20855716 -0.17629479 0.02528798 0.015946565 0.05176055 0.1528348 -0.11534064 0.09363857 -0.21329479 -0.14110968 0.08347477 0.3367608 -0.41840836 -0.4490314 -0.013546715 0.09171206 0.07384388 -0.38613823 -0.20806544 -0.011700671 0.28285807 0.42864785 -0.04683519 -0.23346129 -0.3057382 -0.14345892 -0.062128067 0.34960723 0.22682688 0.16614722 -0.20885421 -0.47028086 -0.10084886 0.07818068 0.060828906 -0.23001191 -0.071305856 0.21689028 -0.27067578 -0.17376019 0.42046505 -0.40707812 -0.22765826 -0.34881285 -0.40955353 0.37428594 0.2056403 0.21400657 0.15164039 0.15933394 0.41536787 -0.0713999 -0.4646038 -0.29049745 0.22726515 -0.0008429701 -0.10420631 -0.33378768 -0.37795687 0.0716752 -0.015974347 0.14077239 0.4585348 0.18504097 0.034388468 -0.30134323 0.049818423 0.19217929
if 0.14619714 -1.075544 -0.3918415 -0.1850675 -0.06800505 -0.22621801 0.295784 -0.09130049 -0.18042289 -0.315998 0.08860337 0.41503152 0.029159617 -0.022871708 0.13923995 -0.16689251 0.29914707 0.011317383 -0.1587458 0.06968601 -0.8694585 -0.12124663 0.4785519 -0.9505682 -0.32478878 -0.14308494 -0.28210735 0.32693213 0.31082174 0.33846772 0.37663266 0.02171081 0.22295143 -0.14648841 0.44566724 0.43883955 0.26278716 0.19190928 0.043118186 0.6952132 -0.024439076 -0.40548733 0.49276617 0.34824008 -0.47172758 -0.92376584 0.5385648 -0.00904151 0.2921548 -0.41682053 -0.2410696 -0.28826237 0.62111604 0.4867486 0.008096318 -0.41296437 0.039750457 0.17738114 -0.08250861 0.205558 0.19807318 0.12640138 -0.06542569 -0.17148983 -0.5723908 -0.020133236 -0.1697056 -0.48788998 -0.06262557 0.57955194 0.17825148 0.003604539 -0.12353326 -0.30514053 -0.3437246 0.050892316 -0.24536073 0.12313211 0.30894518 0.6650498 0.7445083 0.22315732 -0.1739099 0.039214097 -0.12357037 -1.0960337 0.51661605 -0.1611137 -0.1930211 -0.01729976 -0.7171898 -0.12224147 -0.35955504 0.355657 0.6243465 -0.18971612 -0.17303364 0.01815122 -0.06702638 0.44112033
go -0.2001808 -0.85469574 -0.43371713 -0.1577373 0.13713019 -0.535221 0.32305452 -0.1735712 0.31854227 0.2568324 0.31986275 0.32889307 0.7753087 -0.122508675 0.26432613 -0.38415492 -0.055645064 0.12650846 -0.6423934 0.033291798 -0.5106703 0.17101294 0.111264 -0.47969905 -0.69766265 -0.11413453 -0.34170195 0.61457807 0.3133389 0.7446623 0.6670966 0.5756177 -0.021109922 -0.17918517 0.04944005 0.60774386 -0.059532527 -0.019825472 0.027947515 0.3460357 -0.25306547 -0.6041233 0.72317183 0.2817035 -0.6733269 -0.9710849 0.5095275 0.71358526 -0.08237933 -0.6135951 -0.23516935 -0.42693368 0.07504198 0.5793383 0.0833073 -0.0019458032 0.14064324 0.15058844 -0.669477 0.4303916 0.3458284 0.22066684 -0.01618005 -0.53703165 -0.57146794 0.16546758 -0.24326093 -0.4142915 0.021782463 0.50699353 -0.16607104 0.2338438 0.5764525 0.1163786 -0.44285184 -0.19755647 -0.6535894 -0.036449708 -0.1810639 -0.056480143 0.19535315 0.4905055 -0.10247851 0.09428083 -0.5981447 -0.683234 0.60029125 -0.15755488 -0.6670205 -0.30544373 -0.8009714 0.48325816 -0.35817942 0.27022085 0.271588 0.31086195 -0.6028223 0.3000056 -0.10726255 0.073436014
good 0.19262506 -0.31842726 0.24854086 -0.34165242 -0.49083543 -0.16480216 0.1585526 -0.23721589 0.024218116 -0.0051225806 0.11749376 0.41177502 0.108031526 0.14094405 0.16259755 0.081879824 0.16875502 0.12844932 -0.17048627 -0.034932245 0.10126761 0.27184886 0.32700762 -0.4051042 -0.31448516 -0.16620617 0.015614961 0.24396677 0.15211949 0.016114596 -0.2464141 0.12833288 -0.041363675 -0.15905705 0.16788203 -0.08395828 -0.1111919 0.062009957 0.061269365 0.18007068 0.139551 0.16184366 0.052900273 0.072745405 -0.7081905 -0.23922652 0.10092885 0.007837488 -0.05506589 -0.0431378 -0.0027936336 0.4264171 0.02294624 0.10151535 0.20388733 -0.45057815 -0.292296 -0.05442565 -0.059953593 0.17911483 -0.0318065 0.32002857 -0.047633294 -0.46635407 0.15701038 -0.065674834 0.3628189 -0.24228086 0.11264199 0.4374016 -0.41792223 -0.23289016 0.34001878 -0.20732765 -0.23683976 -0.4091394 -0.13535789 0.37805584 -0.04557062 -0.15238912 0.09811942 -0.05125501 0.32142475 -0.13027738 -0.1225341 -0.26719573 0.16242495 0.15406638 0.063651405 -0.21728463 -0.43920413 -0.14397731 -0.037648495 0.10132052 0.22585891 0.07442402 0.16519389 -0.10448589 0.098975495 -0.28299272
apps 0.15736325 -0.5505223 -0.2468938 -0.30139062 -0.37529632 -0.18116246 0.34894997 -0.2612523 0.051262967 -0.32993507 -0.1385926 0.43713567 -0.012715644 0.29360414 0.3158434 0.18227264 0.13908383 0.11821809 -0.13029341 0.07693422 -0.25476143 0.07692321 0.26666632 -0.5899671 -0.1566965 -0.20982048 0.001181887 0.174926 0.16586557 0.09054555 -0.025051769 0.15354566 0.20230356 -0.27706307 0.07836849 -0.17710607 -0.20488071 -0.06853278 0.20266329 0.56444323 0.17522141 0.17645855 0.27049735 -0.16501461 -0.64056826 -0.25192317 0.17881137 0.007910265 0.0046069217 -0.16954005 0.051079903 0.2999062 0.082194164 0.09244101 0.29031375 -0.4339707 -0.1695027 0.26385686 0.07852592 0.1592159 -0.059878454 0.3943957 -0.011898454 -0.3718227 -0.024922179 -0.33165473 0.30269146 -0.4177868 0.06958011 0.5666243 -0.17209865 -0.44085437 0.13829546 -0.069964215 -0.09152706 -0.34978065 -0.12769009 0.37211856 -0.09185344 0.072074346 0.25012034 -0.1028775 -0.028054535 0.050115936 -0.012627423 -0.60583043 0.266788 0.21457843 0.12022389 -0.055652343 -0.66473454 -0.2622716 -0.24842414 0.29485056 0.1554374 -0.2639891 -0.11249799 -0.0314407 0.09248858 -0.21276191
mobile 0.3173591 -0.29817185 -0.0056190602 -0.1918381 -1.057699 -0.4400877 0.1873801 0.0007337914 -0.11472065 -0.50259125 -0.4780881 0.43650362 -0.045304798 0.6418228 0.35635325 0.45731154 -0.1559547 0.06516597 0.05647057 0.2978559 -0.047748886 0.21498264 0.7429462 -0.8591773 -0.13681681 -0.2990491 0.23786038 0.11676707 0.12442132 -0.3710863 -0.08072831 0.12184867 -0.0950415 -0.13137124 0.29758877 -0.75958943 -0.13338143 -0.38870525 0.77549225 0.72864854 0.53960955 0.4701418 -0.1803473 -0.38627687 -1.3534555 -0.7522218 0.27761757 -0.57837945 0.15557355 0.022142904 0.14748293 0.79669124 0.10405536 0.2513419 0.8283078 -0.49890965 -0.38505295 -0.15429151 0.2624887 0.53222865 -0.33239982 0.7458471 -0.060073745 -0.4446855 0.22225568 -0.3045924 0.7002893 -0.94085 0.27008143 0.32222694 -0.8420672 -1.1557957 0.5466525 -0.43937472 -0.15016745 -0.966244 -0.54742306 0.7478924 0.15190822 0.24538387 0.55230814 -0.52325183 -0.16958642 0.31698123 -0.28239977 -0.4375286 0.23744623 -0.07272736 0.22950938 -0.43690854 -0.58036304 -0.38746154 -0.11622258 0.6923025 0.42254618 -0.5489475 0.14690122 -0.42291898 0.41895515 -0.4669418
network -0.19273634 -0.5304779 -0.55780625 -0.7885952 -1.8466413 -0.4531085 1.0081791 -0.6217912 1.3003747 -0.21007194 -0.3554694 1.15235 0.3731383 1.0630473 1.7244692 0.6797225 -0.26084748 0.6326955 -0.36009362 -0.3327536 1.4467013 1.5100305 -0.17218414 -0.8522925 -0.80260056 -0.94603443 -0.2865764 -0.062267832 1.0417017 0.35016248 -0.8094328 0.75933677 0.0056162616 -0.45118123 0.46949798 -0.46778652 -1.414507 -0.11329377 0.84359044 0.32650566 1.4223803 0.92782915 0.60799706 -0.58936495 -2.7793057 -0.26684433 0.3744563 0.50839674 -0.57446676 0.8763864 0.9275767 1.8421606 -0.9031937 -0.83226913 1.2803342 -1.0091754 -0.5876448 -0.22127843 -0.6550514 0.34645778 -0.8175224 1.3402655 0.06897257 -1.2704201 1.0619677 0.18902302 1.4619381 -0.47695577 0.645107 1.1984346 -1.7168014 -0.6697846 0.88413393 0.38306057 -0.87421006 -1.4562457 -0.370086 0.57474023 -0.854083 -2.2148135 -0.4821517 -0.76128966 0.41955575 -0.31916007 0.4429247 -0.65527135 0.68230367 0.94740045 0.45711708 -0.5699953 -1.2397022 -0.5274615 -0.44607374 -0.12640575 -0.31238684 -0.10211059 -0.009942496 0.24851768 0.41140544 -2.3076968
awesome 0.25300866 -0.33157802 0.20606539 -0.33986008 -0.31694877 -0.21631332 0.13809739 -0.45478585 -0.19778284 -0.10514479 0.2888978 0.4316435 0.0033499685 -0.0015594162 -0.030143948 0.011302712 0.3287345 0.09560057 -0.23150471 0.13117582 -0.18349251 0.09001628 0.3154403 -0.49225903 -0.18622085 -0.10343156 0.029377237 0.29798803 0.024591653 0.1085556 -0.2731117 -0.015489524 0.0644805 -0.2875792 0.046274852 0.000514579 -0.07476698 0.037718993 -0.14914377 0.37844652 0.004595831 0.2050375 0.13460875 -0.012275554 -0.35755587 -0.02044566 0.018204795 0.06466248 -0.17557748 -0.23979466 -0.11441328 0.38916203 0.12944236 0.1683168 0.017386997 -0.5237029 -0.2957589 0.21340196 0.051049553 0.05547166 0.05304404 0.24987957 0.0039054523 -0.36257067 0.08750867 -0.23838106 0.30936638 -0.06605762 -0.045944534 0.49356592 -0.16885199 -0.23313965 0.19746761 -0.20358779 -0.018304773 -0.09882905 0.078590974 0.4143235 -0.014620843 0.11825944 0.04287021 0.07665445 0.48421332 -0.116752945 -0.15273668 -0.3708127 0.13528942 0.24639337 0.04454018 0.007763845 -0.5932125 -0.11959769 0.029684728 0.15122043 0.21445993 0.08021435 0.120378695 -0.15150999 0.013065687 -0.11974249
love 0.11697205 -0.41160303 0.39447278 -0.1982177 -0.29823738 -0.2528844 0.029950846 -0.40453148 -0.09631075 0.41271487 0.6206292 0.4369482 0.58979243 -0.3124872 -0.024511602 -0.47370565 0.35337186 0.17454328 -0.39842862 -0.24136783 -0.12387619 0.14680181 0.19512446 -0.13721168 -0.562285 0.17786363 -0.27315935 0.69345134 0.08575775 0.46894002 -0.011852651 0.3316105 -0.093518905 0.067482926 0.27087647 0.6230706 -0.042376515 0.6174543 -0.57871205 0.03528788 -0.35104975 -0.34065062 0.42665225 0.34131917 -0.1255005 -0.45486408 0.31618324 0.1668541 -0.123742744 -0.40235463 -0.32603055 -0.13384303 0.15334052 0.4057892 -0.13368684 -0.23280445 0.015453309 0.017296208 -0.45058665 0.037565257 0.26784644 -0.11308263 0.07262715 -0.1887817 -0.38074514 0.24041404 -0.126971 -0.038347777 0.06675395 0.45132607 0.06379729 0.53480667 0.41716972 -0.29287583 -0.5374836 0.11632095 -0.18557502 0.30545762 -0.020173237 0.06309614 0.16505727 0.6819823 0.41832957 -0.3732433 -0.09041355 -0.11195309 0.28258076 0.021575507 -0.45150328 -0.21339539 -0.41533294 0.237571 0.20782813 0.12943414 0.5031276 0.40517783 0.019974193 0.16735274 0.020146817 0.3124057
more 0.101111636 -0.3946662 -0.16204947 -0.1456702 -0.44310877 -0.2711734 0.22448796 -0.013716193 0.13954872 -0.12988101 -0.14871871 0.38765556 0.22856599 0.29698953 0.3402287 0.0913769 -0.08510362 0.10740544 -0.13908485 -0.02031054 -0.1026155 0.16507371 0.2828111 -0.5012297 -0.32501784 -0.17646545 -0.08754027 0.24276033 0.22406949 0.023667026 0.116762355 0.2992909 -0.048526455 -0.03136696 0.21994849 -0.23878536 -0.19848377 -0.02360053 0.27756009 0.34569135 0.15591767 -0.0042757434 0.24616593 -0.038368057 -0.80971014 -0.5854896 0.3281318 -0.101508394 0.09691393 -0.12961695 0.055850845 0.16532512 0.044562645 0.18818855 0.33995602 -0.23093763 -0.09713436 -0.056884285 -0.1376543 0.32151842 -0.035977554 0.31037092 -0.038358994 -0.32324222 -0.09040938 0.013042887 0.17054734 -0.50763476 0.13456619 0.28548506 -0.3138488 -0.29218137 0.30974436 -0.13427182 -0.25164893 -0.48283166 -0.39880735 0.3115895 -0.031697717 -0.013048352 0.31116208 -0.04694286 -0.16565399 0.07904878 -0.099776514 -0.38486356 0.29445097 0.006826212 -0.034043927 -0.2462927 -0.44352335 -0.061559927 -0.21101674 0.30959848 0.30488417 -0.14989422 -0.1270494 -0.03598008 0.19972704 -0.16659081
temporary 0.010616413 -0.10374686 1.1345428 -0.79843503 -0.4857019 -0.23225515 -0.06223342 -1.1119004 0.08973661 1.2147423 1.7834208 0.7160806 0.6779335 -0.461754 0.0026780022 -0.6091296 0.7925098 0.2356015 -0.73941207 -0.42412487 1.0153747 0.96306443 -0.14914551 0.07737938 -0.966471 -0.10632138 -0.44180825 0.4698639 0.099829994 0.93626255 -0.9663773 0.16912699 -0.2304425 -0.00981171 0.12561029 1.5563658 -0.13741188 0.87819046 -1.0887743 -0.8177505 0.16764088 -0.033783298 0.16824317 0.9203011 -0.3974917 0.37247026 -0.0988567 1.2192085 -1.0307649 0.30477375 -0.028998705 0.6255272 -0.09261825 -0.092858456 -0.4391919 -0.7031774 -0.31553048 -0.28005683 -1.1531549 -0.4076164 0.4347538 0.022854464 0.063600324 -0.55154306 0.4517342 0.8295788 0.41799566 1.0889663 -0.089981005 0.68441373 -0.7160614 1.0959929 0.8185227 -0.07355283 -0.6874708 0.24849887 0.38343352 -0.060595687 -0.3910125 -1.2164065 -1.0517797 0.58111507 2.166863 -1.0753376 -0.14423181 0.33191758 0.26846153 0.6125927 -0.5398348 -0.35732928 -0.5564255 0.34019625 0.67105967 -0.82903826 0.16837724 1.4833803 0.8229151 -0.013479079 -0.4305081 -0.6548002
re 0.036662307 -0.9630911 -0.5109017 -0.15239944 0.11946628 -0.2707227 0.4536422 -0.04170772 -0.04421627 -0.31553468 -0.07226487 0.40035483 0.26885638 0.26684034 0.25076643 -0.11242746 0.06474263 0.0832352 -0.27932385 0.08714988 -0.7900483 -0.12157237 0.4759166 -0.86689955 -0.3395249 -0.13187869 -0.106166944 0.27728498 0.37585166 0.30772865 0.6368247 0.33409664 0.15040569 -0.2598098 0.21988694 0.10001705 0.050531935 -0.0061643906 0.29055828 0.65026045 -0.12232974 -0.3851044 0.5348485 0.16729312 -0.55113006 -0.96866477 0.42606527 0.20087571 0.2541889 -0.49034324 -0.08118542 -0.2818201 0.45543873 0.50404876 0.17786969 -0.20004761 -0.04446632 0.17386347 -0.110999174 0.4206373 0.1666533 0.21715444 -0.082490645 -0.39035112 -0.43637246 -0.06633924 -0.2266288 -0.62366253 -0.042666163 0.5361154 -0.015592391 -0.21543655 0.09720327 -0.17844076 -0.31722552 -0.30199516 -0.4694593 0.13821183 0.151117 0.35525367 0.62196434 0.013928155 -0.2652436 0.21326971 -0.29761502 -0.92710626 0.5058389 -0.18070711 -0.09174977 -0.14376044 -0.67803544 0.07304003 -0.42047107 0.4488275 0.33921668 -0.1496737 -0.4188197 0.021900637 0.06855456 0.35471505
opening 0.10570155 -0.23386098 1.256904 -0.72885317 -0.37274942 -0.28246495 -0.12882145 -1.1093079 -0.03912235 1.2983419 1.9410373 0.6981711 0.7695638 -0.5918375 -0.2008803 -0.83178645 0.82413733 0.2132133 -0.84537715 -0.37621382 0.7464406 0.85056716 0.05095458 0.07045997 -1.0265374 -0.0018296265 -0.48425922 0.7477941 0.0847551 1.0274742 -0.84404904 0.21678218 -0.32326546 0.0052007604 0.2183152 1.6459333 0.0043237773 0.9711024 -1.2865328 -0.8176913 -0.07788087 -0.25827315 0.21685053 1.0919893 -0.26036182 0.12889645 0.0524821 1.1377767 -0.90484476 0.022878267 -0.22024064 0.40902925 0.109654136 0.19660354 -0.5144201 -0.7071137 -0.27384204 -0.27943552 -1.2022655 -0.29594326 0.5954805 -0.101271436 0.09742065 -0.5000987 0.13854617 0.86413294 0.2389221 1.0302826 -0.14099978 0.6698978 -0.56533396 1.2550151 0.822553 -0.27303332 -0.74149036 0.39934337 0.27130878 -0.025744997 -0.17593408 -0.89027107 -0.8850908 0.87333673 2.1965523 -1.0134202 -0.3139278 0.2804037 0.33467433 0.42586103 -0.6824987 -0.3913458 -0.52270126 0.4921809 0.75591594 -0.6937292 0.46313342 1.5165495 0.81850606 -0.07572687 -0.47909802 -0.2913761
how 0.2097099 -0.5902007 0.11388283 -0.2267463 -0.17590138 -0.29619208 0.10019088 -0.20276815 -0.2215098 -0.049891923 0.17663996 0.39196533 0.2852383 -0.061149735 -0.052648045 -0.15109259 0.26666704 0.08861487 -0.24178156 0.10463231 -0.50672925 -0.060303126 0.5088292 -0.5783905 -0.36343724 0.031036533 -0.1106822 0.54352283 0.07858174 0.16085628 0.1542951 0.18317176 -0.03491298 -0.1444491 0.17485902 0.114505395 0.100354075 0.1833939 -0.13169533 0.38628563 -0.22231783 -0.19007626 0.2890973 0.19484437 -0.35628676 -0.5982503 0.23003583 -0.07621942 0.09802897 -0.4370138 -0.27618352 -0.093480185 0.36299023 0.50071067 0.0005166058 -0.23833102 -0.13848753 0.06618067 -0.09169399 0.25729433 0.2123716 0.13340038 -0.072563894 -0.28539896 -0.3033668 -0.0019168978 -0.042263605 -0.33163396 -0.0118647795 0.3865534 -0.026297105 -0.10490754 0.26179972 -0.38525444 -0.2653253 -0.1332743 -0.2947024 0.36077067 0.15447776 0.4213502 0.42541924 0.2956617 0.16024305 0.013653588 -0.27948102 -0.5062942 0.31807864 -0.037680566 -0.1705686 -0.1682373 -0.51796323 0.019534323 -0.11594853 0.2842579 0.5151831 0.056182392 -0.10430042 -0.0940082 0.07445241 0.33121365
don -0.118766755 -1.2970985 -0.604516 -0.19333409 0.035547048 -0.75996274 0.47092816 -0.13522747 0.31298476 0.12960772 0.15418954 0.5817185 1.1114084 0.085494004 0.4232294 -0.4854702 -0.0027445515 0.20744526 -0.7123596 -0.011291473 -0.8835601 0.12683392 0.46173647 -0.8793204 -0.9223711 -0.12114463 -0.42605296 0.96347845 0.4368544 0.7904244 1.0607978 0.95742255 -0.07580249 -0.24083212 0.3072121 0.5484641 -0.072568916 0.03240799 0.2527416 0.6286028 -0.42688543 -0.87265456 1.0818893 0.3221552 -1.0877405 -1.7173022 0.8052721 0.58306634 0.16671851 -0.94137245 -0.335305 -0.6996691 0.324568 1.0004622 0.32254052 0.010650188 0.17635629 0.11585627 -0.766324 0.7386206 0.4753583 0.365011 -0.03220847 -0.711893 -0.8729172 0.23508583 -0.3721662 -0.9605622 0.07803306 0.7026465 -0.19301404 0.018985014 0.8560502 -0.13490613 -0.7262581 -0.45944583 -1.0453382 0.214319 -0.09503932 0.22059831 0.7417486 0.5902001 -0.388998 0.07355486 -0.80159026 -1.0341446 0.9357097 -0.33882415 -0.8023967 -0.52102995 -1.0910683 0.54925287 -0.63868815 0.6752305 0.6367914 0.14422879 -0.8706386 0.36139297 -0.057702355 0.41500816
