1172 100
the 0.24250317 0.32492375 -0.23380892 0.05539331 0.18976739 0.2707833 0.4683199 0.45458353 0.10599709 0.12951492 -0.27178198 0.014193559 -0.046497397 0.08891058 -0.35002655 0.25869873 0.22801706 -0.1809622 0.20125768 0.20557198 -0.27852446 0.22990562 0.10526364 -0.23919371 0.11851089 -0.03755271 0.024574082 0.1608646 -0.37178326 -0.1094039 0.14650321 -0.045756098 -0.27465785 0.052589763 -0.13043907 -0.37237516 -0.24172153 0.15926118 -0.21414788 0.6682584 -0.54244447 -0.003867685 0.19831872 -0.4226484 -0.3402657 -0.28527638 -0.22824878 -0.08126435 0.14877851 0.28129694 0.0470312 0.11671729 0.11269858 -0.47447535 0.09736012 -0.28967705 0.5182155 0.020195823 0.61848724 -0.26424 -0.16071445 0.11075807 -0.0719445 -0.2721762 -0.066971 -0.05970293 -0.07442018 0.0835024 0.30537394 0.34706345 0.12146624 -0.0681799 -0.25095892 -0.10761226 0.24719644 0.35232753 -0.24193554 -0.1931539 -0.31203562 -0.2429633 -0.4448613 0.044818074 0.16146769 0.32525182 -0.078351945 -0.48876417 -0.16810127 0.19042438 0.53304946 -0.06845184 0.082177885 0.14808272 0.16444378 -0.0028978058 -0.2090005 -0.12537783 -0.22926483 0.22107369 -0.2880963 0.018505082
to 0.2411896 0.22423376 0.340501 -0.04127968 0.09391602 0.32366934 0.16995296 -0.12912467 0.10717266 0.066139534 -0.031288747 -0.36336386 0.22996879 0.12276518 -0.54813766 0.30695063 0.1973327 -0.38795915 -0.17354253 0.43792692 0.1027694 0.39390144 0.22266202 -0.053208273 0.16922133 0.070227765 -0.017521832 -0.04868864 -0.4087895 -0.544093 0.21267489 0.1013761 -0.39959735 0.19205639 -0.13717526 -0.14130141 -0.5173609 -0.039413337 0.13034192 0.24209912 -0.52301204 0.06787312 -0.1287781 -0.38454303 -0.48555022 -0.07025501 -0.011685155 -0.19975503 0.072052985 0.36969236 0.16236715 0.069440335 0.026844941 -0.07255463 -0.032830905 0.18853699 0.3866242 -0.290402 0.2518101 -0.3497814 -0.098063044 0.02847013 -0.13073692 -0.50417036 0.19108011 0.06680429 0.19625519 -0.081479646 0.26662806 0.32783398 0.04116451 0.33234254 -0.13369696 0.16057286 0.27878526 0.014154244 -0.25456327 0.0323177 -0.4849534 0.03070759 -0.43012583 0.053705137 0.18361172 0.21152712 -0.18756108 -0.7301808 0.10382532 0.16107969 0.35374779 -0.082800224 -0.074711025 0.29025918 -0.055201374 0.3887893 -0.41622165 0.32553077 -0.12287806 0.1766831 0.28115588 0.29751208
link 0.3342917 0.09926134 -0.28058246 0.008512488 0.36995828 0.097920865 -0.09213076 0.49644053 0.24670872 0.54408365 -0.6721205 0.2868977 0.045393176 0.07213569 -0.56990796 0.25851333 0.24675865 -0.1699056 0.2445598 0.4624168 -0.43969205 -0.05130869 0.30683222 -0.067558795 -0.35050035 0.21851198 0.1468181 0.51243657 -0.36312357 0.05233894 0.23625606 -0.19383986 -0.3387019 0.40317047 0.1255491 -0.5910247 -0.022838673 -0.067444436 0.024716873 0.70027286 -0.8176542 -0.038822986 0.34909144 -0.59241724 -0.6355887 -0.21311575 -0.3540912 0.014564096 -0.15081526 0.6212248 0.22433212 0.19858353 -0.20379168 -0.27652165 -0.05631322 -0.19865032 0.19789608 0.424488 0.28006002 -0.15852575 -0.2668787 -0.026298728 -0.20364031 -0.42427212 -0.05477346 -0.113705374 0.03724573 0.025966058 0.008697139 0.11263586 0.06204791 -0.22895418 -0.4840237 0.052642804 0.028944852 0.35021386 -0.73952276 -0.14527737 -0.1942592 -0.24149328 -0.41321254 0.06698037 -0.060994957 -0.046036225 -0.21297511 -0.29168126 -0.726846 0.50125706 0.6106085 0.3080486 0.18092357 0.22577022 0.08647413 0.083180934 -0.45255083 -0.1034438 -0.08661374 0.28860512 -0.17626506 0.004152157
ipad 0.21665472 0.35850143 -0.050074458 0.25553825 0.09229784 0.4580615 0.606745 0.2633479 0.19109184 0.21814989 -0.40811843 -0.12649551 0.08187738 0.105927914 -0.38837805 0.28680918 0.23592383 -0.17846778 0.24326025 0.30412477 -0.1569215 0.4272522 0.25722992 -0.2511456 -0.087482475 0.102052666 -0.1330867 0.03585261 -0.35039464 -0.4533151 0.23376568 0.10668063 -0.25867608 0.15950902 -0.13398486 -0.22213218 -0.46906662 0.1668632 0.16527413 0.45427555 -0.50225157 -0.06268864 -0.015816152 -0.5076597 -0.4138186 -0.27682623 -0.00954183 -0.21642348 0.12493238 0.30275932 0.059537582 0.15874864 -0.18241441 -0.34538546 0.060807385 -0.27149844 0.4692271 -0.031278435 0.41536695 -0.13998272 -0.073447615 0.053581975 -0.016860468 -0.25011516 0.14263779 -0.2311418 0.08276438 -0.07764009 0.36477503 0.3885382 -0.061085712 0.18941028 -0.3695232 -0.027663665 0.23557147 0.071507074 -0.35720938 -0.07050315 -0.22352251 -0.04099891 -0.4234655 0.13134865 0.21361952 0.20582105 -0.117857486 -0.67698103 -0.3113175 0.21219936 0.4960393 -0.06901392 0.16726224 0.35883954 -0.025389493 0.23652303 -0.39059505 -0.03566344 -0.27231574 0.101757385 -0.079915866 0.08438966
at 0.3250536 0.34825772 -0.20017003 0.124455355 0.12077284 0.2327804 0.38481316 0.421155 0.16889185 0.1335481 -0.37984896 -0.07376792 0.0031589314 0.10364829 -0.40089762 0.2636289 0.06681633 -0.018765004 0.16946843 0.11415287 -0.16019696 0.29409587 0.10737274 -0.1461403 0.09419235 -0.07596674 0.1477339 0.23937348 -0.27692804 -0.025672112 0.268246 -0.05878404 -0.3367752 0.07013353 -0.050518144 -0.2440234 -0.16699737 0.023330042 -0.28236365 0.54430735 -0.60514235 0.024754465 0.2673332 -0.5478093 -0.23561686 -0.14100614 -0.116061926 -0.117389746 -0.01758231 0.43251154 -0.025678165 0.00729021 -0.0075548487 -0.41674113 0.25923094 -0.25815633 0.34968495 0.11112227 0.46346116 -0.1481064 -0.194276 0.17898326 -0.031968415 -0.17553937 -0.26293796 -0.020601435 0.09504859 0.06763952 0.29428107 0.40253696 0.005271203 -0.032364164 -0.4016082 -0.12631954 0.29580426 0.29166484 -0.16556174 -0.049115255 -0.37761977 -0.23688143 -0.5101723 0.029299801 0.27351475 0.37279817 -0.024765627 -0.36259526 -0.28240803 0.3420573 0.58785176 0.05813586 0.08625135 0.18570973 -0.072344884 0.18458071 -0.27528095 -0.10645403 -0.35134757 0.18585193 -0.24427843 0.26538792
for 0.25696006 0.41303858 -0.1716716 0.16043325 0.21613036 0.4216915 0.54680043 0.46122807 0.18990898 0.32589713 -0.4265716 0.0070928945 0.047660794 0.118293956 -0.32026684 0.31499442 0.33910245 -0.2797987 0.30352524 0.3690825 -0.35580775 0.2125472 0.281344 -0.3685658 -0.10335495 0.13169536 -0.29185593 0.258556 -0.3704507 -0.35860127 0.13496417 -0.03622136 -0.3279435 0.22900294 -0.20142813 -0.35419574 -0.53363657 0.3073434 0.013976177 0.5848109 -0.5580204 -0.087468445 0.13198774 -0.4772154 -0.61698556 -0.41512072 -0.15168118 -0.11165997 0.21201392 0.20971568 0.09615019 0.2541086 -0.009516179 -0.4246762 0.037647642 -0.36965293 0.59923667 0.051657073 0.593027 -0.28673875 -0.08103886 -0.12797937 -0.058488782 -0.318003 0.30255532 -0.11371244 -0.12700373 0.03123577 0.19505101 0.2711707 -0.0108523965 0.07110218 -0.26845858 -0.1100326 0.18600856 0.114577755 -0.4946143 -0.33737788 -0.20973878 -0.04321425 -0.38755685 0.18327686 0.09647381 0.14195144 -0.11036513 -0.7390901 -0.35020837 0.11431071 0.646764 -0.08954051 0.19834878 0.19528617 0.2242884 0.017112512 -0.36161083 -0.12176831 -0.18728796 0.24559525 -0.1680314 -0.17593418
apple 0.65169513 0.3833469 -0.5749918 0.24830423 0.33861786 0.0040691383 0.6274156 0.88429976 0.17211446 0.25107294 -0.64462364 -0.23826012 0.26999623 -0.47140115 -0.15518382 0.93586546 0.09093532 0.4445154 -0.13269812 0.5327197 -0.18611908 0.48556975 0.23139639 -0.06873293 0.3863141 -0.35014558 0.67851645 0.4267251 -1.0797741 0.08268403 0.6344594 0.012908044 -0.9430408 0.091992326 0.14737049 -0.46681616 -0.15376288 0.01688428 -0.7194745 0.79736036 -1.1077502 0.010886104 0.7990381 -1.2534357 -0.56784755 -0.36428207 -0.10085166 -0.27744347 -0.8094029 0.83650035 0.21959212 -0.11277311 -0.06697742 -0.53618443 0.6167681 -0.7022084 0.7533701 0.23223267 1.133508 -0.023773404 -0.6068646 0.68075734 0.023285558 -0.46352184 -0.30723923 0.79040706 0.20948038 0.5602683 0.55777186 1.0527233 -0.28039193 -0.4227251 -0.7027086 -0.41222194 1.053364 0.51907104 -0.2675407 0.2790594 -1.2232553 -0.20362553 -0.7459076 0.53921455 0.46448073 0.6413647 0.40463918 -0.5325939 -0.28775096 1.2121876 1.0567377 0.33146903 0.01220786 0.3242706 -0.40623087 0.5440691 -0.8731456 -0.32415688 -0.19157644 0.06859581 -0.2648435 0.508213
is 0.11458257 0.4301739 -0.023892945 0.062271398 0.19292697 0.20673123 0.36334395 0.09841353 -0.020597879 -0.008130209 -0.28281286 0.17295264 -0.051810052 -0.023303753 -0.3859188 0.15455236 -0.048788145 -0.052389223 0.052593388 0.20617977 -0.014249921 -0.047231138 0.13480684 -0.09996515 0.27758437 -0.013129044 0.16316314 0.09313826 -0.4110435 -0.033786885 0.14252308 -0.22279082 -0.3082867 -0.00963291 -0.44655672 -0.2589463 -0.39668438 0.06956218 -0.17389105 0.41709277 -0.26279214 0.17103711 -0.07052172 -0.21299966 -0.07768125 0.02704144 -0.13924605 -0.29903802 0.14388368 0.025375126 0.16394393 0.21475197 0.025293276 -0.42168045 0.070230745 -0.07455586 0.39970294 -0.14446497 0.5157379 -0.29888988 -0.021552317 -0.015210003 0.023687012 -0.22540197 -0.3068337 -0.19104703 0.068090394 0.11396719 0.051840033 0.079696506 0.20673831 -0.13184653 -0.22344784 -0.025496796 0.1461942 0.30379602 -0.12140977 -0.2635099 -0.235676 -0.20850348 -0.21874022 -0.3690277 0.06948496 0.040920272 0.10171592 -0.4791753 -0.1280299 -0.08883677 0.32245147 -0.20248663 -0.21613595 -0.12170712 0.0464566 0.110326305 -0.32166344 0.11761771 -0.29936907 0.23274407 -0.12740214 0.0239586
google 0.19806749 -0.05686201 0.8585595 -0.6661215 0.2292856 -0.06818178 -0.5710797 -0.70969284 -0.3384732 0.121126026 0.20829426 0.58959794 -0.041545846 0.3010144 -1.1422237 -0.38277182 0.091503516 -0.73475194 -0.14551261 0.22143836 -0.049647518 -0.31164882 0.46373317 0.5623509 0.52415293 0.3245897 0.34037623 0.1433604 -0.44774234 -0.20621656 0.0373112 -0.6297263 -0.12809008 0.1459585 -0.82868373 -0.46840632 0.104800895 -0.43690175 0.3079431 0.5053979 -0.31199834 0.33621302 -0.48614246 0.6637061 -0.09537992 0.50171417 -0.6092827 -0.100532815 0.3990503 0.18265665 0.63796496 0.43843117 -0.025906581 -0.45704922 -0.51211363 1.0240042 0.13402879 -0.23391747 -0.18504141 -0.8630285 -0.15254614 -0.33495876 -0.24459027 -0.55193174 -0.59322965 -0.65317005 0.27933615 0.039741337 -0.104363866 -0.92598313 0.7852402 -0.12899375 -0.04217001 0.5673021 -0.36134216 0.70449245 -0.43164244 -0.35164458 0.087456375 -0.6195418 0.119481236 -1.3315806 -0.4554278 -1.0471232 -0.123842016 -0.35378352 -0.04335795 -0.80580205 -0.35253736 0.07341746 -0.6779 -0.40710646 0.32654262 -0.009849304 -0.10854635 0.8311391 -0.19967012 0.8679951 0.07255498 0.18115959
of 0.19917434 0.17318463 0.17067236 -0.20958503 0.20476021 0.14516431 0.27736348 -0.008810671 -0.24476823 -0.12277615 -0.06286513 0.004423699 -0.16316552 -0.033775814 -0.37114254 0.16183747 0.030974504 -0.35423723 0.13336508 0.116985016 -0.13438109 0.16860002 0.14880247 -0.0076375953 0.45063677 -0.17768915 0.14211448 0.04702759 -0.5537689 -0.19821301 0.121327415 -0.21646708 -0.14925519 -0.12923513 -0.5448789 -0.23175272 -0.17017317 -0.18443488 -0.18420364 0.5229008 -0.21644543 0.06263408 0.012955349 -0.15880212 -0.07102033 0.06246984 -0.10215681 -0.044364203 0.17036225 0.21086128 0.25537395 0.23025769 0.24276856 -0.49447104 0.1193364 0.12982945 0.48971224 -0.24309447 0.51139593 -0.4389378 -0.16962977 0.3484482 0.102558255 -0.16802195 -0.27629003 -0.1921625 -0.021048242 -0.0135871535 0.22285728 0.169735 0.3106306 -0.028014855 -0.101892196 0.047422998 0.17120935 0.4248911 0.13718961 -0.08450712 -0.33625728 -0.30368358 -0.27609223 -0.4370035 0.23049581 0.15032712 0.12169484 -0.46887693 0.24000469 -0.15262054 0.22118759 -0.10490262 -0.21194205 -0.021051489 0.027318863 -0.00478613 -0.32247776 0.16381782 -0.2767944 0.32442254 -0.076406576 0.32220754
in 0.6066117 0.3057265 -0.33824605 0.017578404 0.3162701 0.17089076 0.5431202 0.63312006 0.16492495 0.30078763 -0.3151205 -0.22320946 0.19588201 -0.12548093 -0.14578187 0.59499276 0.5044205 -0.14604464 0.08387495 0.46761551 -0.42523894 0.3485964 0.26136273 -0.25842616 0.18333325 -0.05909314 0.027074058 0.4314601 -0.7631028 -0.24252531 0.26638606 0.079150125 -0.59942347 0.2352723 -0.004301746 -0.448387 -0.31660601 0.25716388 -0.28753066 0.7674824 -0.81786144 -0.16542019 0.5020189 -0.7351539 -0.79028344 -0.49016708 -0.2745035 -0.00710867 -0.22373727 0.5230295 0.19399418 0.08211849 0.1481008 -0.3800406 0.21519135 -0.49177343 0.81218165 0.084558085 0.9176656 -0.30564725 -0.4113196 0.21318537 -0.022949945 -0.4886112 0.27647012 0.49761602 -0.11051771 0.3216319 0.3389546 0.502848 -0.15783435 -0.09989903 -0.26700178 -0.2764494 0.6805589 0.24028249 -0.5470086 -0.025336398 -0.7226997 -0.13002943 -0.5277201 0.5155706 0.13743705 0.30972216 -0.0021119206 -0.6891449 -0.17715101 0.5870929 0.81563014 0.11312398 0.18687302 0.2705458 0.1169523 0.1883179 -0.48104817 -0.22902387 0.017244792 0.27451816 -0.20619084 -0.009213598
and 0.086320005 0.32307073 0.11882369 0.00779221 0.15036507 0.38921344 0.30500576 0.10298255 0.015095554 0.10282805 -0.2662613 0.109435886 -0.10607622 0.22060215 -0.5583936 0.017930062 0.06414639 -0.39990926 0.2591444 0.19091445 -0.1649092 0.110152684 0.1766433 -0.18470952 0.023432544 0.08953149 -0.10728565 0.078433886 -0.18108603 -0.2924479 0.06327935 -0.189847 -0.098798804 0.052309513 -0.33230758 -0.26167285 -0.32843584 -0.013295706 0.056082737 0.46464178 -0.32246748 0.07682922 -0.15891886 -0.19564904 -0.1981983 -0.08608977 -0.10426772 -0.17571236 0.3782322 0.124198824 0.11374235 0.23652783 0.0016516445 -0.41620943 -0.038620483 0.05504377 0.34579584 -0.09007119 0.26020685 -0.34119275 0.025827868 -0.061537936 -0.047697563 -0.21560195 -0.108299226 -0.4684151 0.015699496 -0.153646 0.14251359 0.052009806 0.26678678 0.10342864 -0.24425939 0.06790564 -0.107926324 0.23403993 -0.20453925 -0.31828585 -0.041246276 -0.17054936 -0.32396564 -0.3166623 0.1409233 0.041617353 -0.13510591 -0.5697741 -0.15330346 -0.21696123 0.2820933 -0.14861567 -0.053281024 0.08207086 0.17518865 0.034225333 -0.23864487 0.14769472 -0.32562733 0.30842295 -0.07371567 0.08178056
iphone -0.23334154 0.5175445 0.10304325 0.31085518 0.1792081 0.7190563 0.6730515 -0.00932856 0.027431754 0.09090592 -0.5398586 0.17526968 -0.16540445 0.2721916 -0.66028297 -0.080659926 -0.083894074 -0.4561233 0.5327539 0.28631508 -0.029604675 0.11071949 0.21625133 -0.4509922 -0.31657922 0.3174006 -0.381943 -0.1914244 -0.025255542 -0.6065699 0.06235902 -0.23145668 0.0909844 -0.026792372 -0.38991573 -0.13510811 -0.60655916 0.07225826 0.4283506 0.2210071 -0.1597511 0.2762215 -0.61128986 -0.3724789 -0.13110751 -0.013533958 0.29448536 -0.38812396 0.62198913 -0.09768351 0.18417588 0.48882776 -0.17964207 -0.5522232 -0.15733033 0.04983302 0.30933744 -0.34935454 0.10537713 -0.14463693 0.41082212 -0.30777034 -0.080305785 -0.012800562 -0.053363226 -1.0778031 0.1603124 -0.45104158 0.14063835 0.109975286 0.41513148 0.20760457 -0.4111897 0.16860722 -0.5382573 0.030654954 -0.16073868 -0.65022224 0.27210006 0.057559155 -0.3655482 -0.34013936 0.3579435 0.067180224 -0.14133772 -0.82133394 -0.47770905 -0.3758375 0.23856868 -0.45536572 0.019774316 0.26502067 0.16275719 0.10829136 -0.47127765 0.10656363 -0.46068552 0.08852772 0.039467912 -0.015716534
store 1.045669 0.40717828 -0.7601645 0.27627143 0.51333636 0.0630835 0.7221814 1.2043132 0.3075971 0.50781643 -0.79240793 -0.32542884 0.45821336 -0.4929151 -0.07036989 1.0910444 0.49281067 0.24041125 0.0037346524 0.7427021 -0.52125984 0.6190445 0.40853772 -0.3140706 0.22894628 -0.19009383 0.50557566 0.8174833 -1.3161701 -0.1895597 0.56984466 0.14156675 -1.1623248 0.33425602 0.2788673 -0.6027183 -0.13862103 0.28794786 -0.79898965 1.0705338 -1.3977691 -0.22819856 1.0034055 -1.523493 -1.1120542 -0.78436095 -0.3225966 -0.058110237 -0.88344604 0.87361187 0.23335913 -0.024808722 0.04842554 -0.58645916 0.57399815 -0.91519433 0.9611815 0.33497798 1.3207932 -0.036604002 -0.87093043 0.65963125 -0.11300701 -0.65540737 0.19375461 1.0533448 -0.006187245 0.5141583 0.7870091 1.0709369 -0.45055407 -0.4583539 -0.71503854 -0.39415494 1.37165 0.40789387 -0.73979664 0.2419611 -1.3561997 -0.27564183 -0.8698261 1.0624757 0.3984494 0.54002994 0.29655623 -0.79398924 -0.5436557 1.4970207 1.3537501 0.5012514 0.24428552 0.5481454 -0.2066211 0.5080576 -0.96927476 -0.42802352 -0.023853472 0.13484228 -0.25977066 0.26291528
it -0.19451196 0.56980586 -0.093426794 0.38087198 0.20328173 0.3416247 0.43562776 0.09447419 0.14932604 -0.002825406 -0.70511013 0.31974387 -0.01624662 -0.1154952 -0.61255294 0.16343181 -0.420115 0.36828455 -0.020274192 0.41701338 0.2413946 -0.047585614 0.05282818 -0.0464079 -0.05631196 -0.107954204 0.52710736 -0.2015982 -0.29339185 0.13316046 0.3865297 -0.24079098 -0.35817143 -0.03632651 -0.27165732 -0.22814047 -0.49891615 -0.14971058 -0.18553655 0.093125366 -0.30239755 0.35686404 -0.19665273 -0.71507627 0.08981523 0.28508666 0.36887473 -0.6429472 -0.045833007 0.2978751 0.07860448 0.11317456 -0.3001958 -0.35033625 0.23627548 -0.20590295 0.19655241 0.0019064569 0.28400153 0.13560961 0.20402764 0.11308164 -0.0164006 -0.055996966 -0.7497356 -0.35600847 0.36434117 0.025017101 -0.010706087 0.6448803 0.26322553 -0.101784475 -0.6707478 -0.091713466 -0.082519144 0.27276647 0.16248205 -0.29710764 -0.30766386 0.010569299 -0.41535985 -0.46840635 0.3481518 0.3915958 0.15453848 -0.48718974 -0.3669576 0.21721806 0.37031764 -0.22969796 -0.29960588 0.1232157 -0.27198076 0.4306915 -0.5389267 0.06369152 -0.4329075 -0.050192744 -0.009468927 0.30953574
on 0.06711399 0.38271132 -0.026476936 0.07985532 0.15573928 0.40541524 0.38748708 0.21230187 0.12221564 0.17333798 -0.39601964 0.117461406 -0.1107368 0.29124093 -0.5920973 0.055714734 0.0822723 -0.29024416 0.31973296 0.1945591 -0.18134774 0.10730658 0.18789615 -0.22851764 -0.07760004 0.12433343 -0.12587145 0.03439761 -0.1610556 -0.17578782 0.09706215 -0.15193787 -0.09328969 0.11542856 -0.31001678 -0.29577953 -0.39100102 0.09644175 0.1001136 0.47466335 -0.3882091 0.03822286 -0.102194026 -0.27468136 -0.21119891 -0.06637877 -0.11458005 -0.22179592 0.32472834 0.20333423 0.06297222 0.23252118 -0.04627526 -0.42445022 -0.014692553 -0.09756425 0.35024866 -0.016977673 0.29428905 -0.30905494 0.023956336 -0.05794682 -0.04762627 -0.13972692 -0.08943486 -0.51578856 -0.04201946 -0.15321162 0.15274252 0.16754518 0.20650668 0.14915195 -0.29170504 0.006173944 -0.06877101 0.2518037 -0.24936493 -0.31775534 0.01823425 -0.14342016 -0.4127526 -0.23230955 0.11554314 0.20055608 -0.16440906 -0.5583042 -0.31737876 -0.14074543 0.4101662 -0.19539939 0.04614236 0.11582117 0.16023247 0.03957379 -0.20444733 0.031859547 -0.36532143 0.23309338 -0.15026064 0.064271204
up 0.73800915 0.49530792 -0.66574764 0.42878956 0.37792954 0.055712618 0.9302058 0.90234107 0.1277351 0.23199068 -0.7150306 -0.38386992 0.4063619 -0.6004317 -0.0051032593 1.0298495 0.08073826 0.48579985 -0.10727848 0.5567425 -0.228926 0.61645544 0.28500566 -0.26326996 0.5075043 -0.2744664 0.6159508 0.45453343 -1.2064664 -0.1967136 0.6243165 -0.03450689 -1.1374284 -0.0007759543 0.06052722 -0.37933907 -0.12428671 0.17291388 -0.92954516 0.7065663 -1.1375427 0.05566032 0.7978018 -1.3877778 -0.62412804 -0.58574533 0.09917731 -0.4354453 -0.8001646 0.6854106 0.24461085 -0.09304617 -0.03448674 -0.7023141 0.84217554 -0.707596 0.86878526 0.1061482 1.328161 0.026933558 -0.5864009 0.81174594 -0.033740513 -0.42590714 -0.14239697 0.90405434 0.1857168 0.62320405 0.71729857 1.1464132 -0.28139198 -0.34340948 -0.69620776 -0.5611905 1.1799188 0.5251512 -0.079680406 0.157725 -1.391367 -0.23818743 -0.87211174 0.7593572 0.7208085 0.65822834 0.59500456 -0.7943002 -0.3302824 1.3256897 1.1794246 0.32017124 0.005669221 0.34047857 -0.4441931 0.60472095 -0.992765 -0.26375473 -0.26331744 0.019441422 -0.2643439 0.51589394
app -0.13562442 0.4330218 -0.251127 0.28975344 0.36144945 0.552897 0.26978433 0.44481006 0.18373165 0.5069005 -0.7512717 0.3567966 -0.23696376 0.22695749 -0.5443523 0.08201816 0.1567149 -0.4827403 0.615118 0.36494353 -0.3675579 -0.095262684 0.26209795 -0.60902566 -0.6452758 0.43847933 -0.4035343 0.29702386 -0.0016141392 -0.3509773 0.008071534 -0.24134684 -0.06441653 0.23458527 -0.11678326 -0.3480133 -0.5031277 0.15755789 0.38251862 0.5111397 -0.44317743 0.16531926 -0.18845767 -0.4907528 -0.5605787 -0.36763355 0.05271179 -0.13184898 0.50555414 0.064048655 0.22927967 0.5370693 -0.19321106 -0.48903108 -0.20839392 -0.1937656 0.3440456 0.18892837 0.20338228 -0.047670327 0.26552868 -0.39082828 -0.14069815 -0.2146146 0.23791465 -0.80654806 -0.1104095 -0.34381047 0.01231275 0.03247069 0.29242727 -0.043330796 -0.46023068 0.13528599 -0.45829257 0.133381 -0.6640997 -0.7140106 0.1985006 0.01199546 -0.3701755 0.12649834 0.09908602 -0.02186396 -0.22284791 -0.65149844 -0.8027605 -0.073970936 0.60082036 -0.14651294 0.23624207 0.36476386 0.26487544 -0.06563905 -0.4651878 -0.10606245 -0.17702715 0.20803833 -0.017390328 -0.2522173
my 0.051083636 0.38603443 0.2883851 0.20105931 0.11336764 0.5798826 0.5093864 -0.081127964 -0.07884019 -0.019104166 -0.3316653 -0.104664445 -0.032287784 0.11269332 -0.4340928 0.029379394 -0.026980784 -0.42387292 0.33564788 0.120319694 0.020051705 0.26844883 0.27689552 -0.3641278 0.14199369 0.25749782 -0.21759097 -0.039536297 -0.21294102 -0.69806224 0.029230468 -0.17648052 -0.102667235 -0.049410358 -0.4367838 -0.0458831 -0.471435 0.04764628 0.14569142 0.18917307 -0.27184114 0.30879572 -0.49133947 -0.20937157 -0.07900621 -0.06968926 0.22651 -0.3086035 0.4320335 -0.07943272 0.23974009 0.33950964 -0.0645672 -0.56955636 -0.05345609 0.1882725 0.35775623 -0.51081187 0.22577281 -0.21783018 0.07882311 -0.13488665 -0.041171305 -0.06930581 -0.004304222 -0.6395577 0.19575496 -0.21725784 0.31788304 0.089238256 0.4053122 0.21627359 -0.32309476 0.14306659 -0.13731545 0.12459149 -0.03952168 -0.29535285 -0.0028329964 -0.058281608 -0.28484857 -0.08689385 0.33822963 0.017173255 0.038782965 -0.7661161 -0.12299052 -0.2660867 0.1940838 -0.3079314 -0.017402606 0.30021915 -0.042851865 0.21314931 -0.40007558 0.27810994 -0.34416732 0.17007571 0.058861416 0.23626257
an 0.18407948 0.5405483 0.107941225 0.36744666 0.023958785 0.6953128 0.80838925 0.11286491 0.1321719 -0.0133500295 -0.42330813 -0.2591442 0.09851145 0.20014985 -0.5054014 0.13301083 0.045182172 -0.18063441 0.20711157 0.15257335 0.017037509 0.44871667 0.2454199 -0.37131065 0.13789675 0.12272655 -0.14376064 -0.14548525 -0.21588807 -0.5370003 0.18470387 0.09713233 -0.23338531 0.03078482 -0.28271797 -0.09521024 -0.5700291 0.1614212 -0.031937454 0.23452574 -0.39886746 0.12862647 -0.29086596 -0.4741891 -0.13722175 -0.17105174 0.21043807 -0.42822748 0.30446044 0.18380834 -0.029978525 0.06498015 -0.051754586 -0.4472185 0.17527959 -0.087100625 0.47120383 -0.333174 0.37358654 -0.14575732 0.053103544 0.02496188 -0.022738777 -0.101633914 -0.030301604 -0.34908998 0.11387924 -0.1620632 0.42371586 0.529436 0.13407506 0.4130796 -0.3691099 -0.06697728 0.13440697 0.03892023 0.033475306 -0.1655589 -0.17934218 0.037121706 -0.5086698 0.053026006 0.3737797 0.4945426 -0.07656819 -0.7962988 -0.12056509 -0.0084268935 0.41924942 -0.30409187 0.09203764 0.35790175 -0.06791314 0.32612488 -0.26596865 0.065286025 -0.46214613 0.05920882 -0.06258671 0.25364128
rt 0.16591345 0.21236655 -0.10640276 0.105486125 0.3011955 0.051786605 0.121751696 0.23261914 0.026740892 0.21558835 -0.45145616 0.24800205 0.10406167 -0.28132296 -0.27970305 0.32944945 -0.08723395 0.18412198 -0.14321353 0.40878636 -0.04277457 -0.07578996 0.15911375 0.0040277727 0.08669928 0.043086562 0.44264317 0.25749803 -0.50988823 -0.034219246 0.26183277 -0.21039328 -0.5646836 0.093444735 -0.14029115 -0.28174213 -0.19140285 -0.025116881 -0.2710936 0.33930534 -0.5437338 0.21540596 0.14928669 -0.48922837 -0.25955725 -0.07059085 -0.038295988 -0.27313718 -0.2544299 0.19939022 0.26130888 0.12327514 -0.18689768 -0.28224832 0.14452837 -0.14087771 0.24908784 0.0831634 0.415579 -0.03266871 -0.15882258 0.08163512 -0.07615419 -0.3137175 -0.25921527 0.14984487 0.21218422 0.2563336 0.031300582 0.22788477 0.09162357 -0.31887022 -0.39272964 -0.054723255 0.24859352 0.27671236 -0.31198162 -0.12324535 -0.48849127 -0.20406869 -0.20376578 -0.009755869 0.078327954 -0.11790693 0.21389064 -0.32820567 -0.35715765 0.4058969 0.39461693 0.09283754 -0.20580289 -0.025772387 -0.14439145 0.27511603 -0.54966533 0.11833511 -0.07151535 0.09085689 0.009613192 0.11078845
new 0.1431595 0.04832728 0.24677226 -0.06321934 0.41678688 0.2565425 -0.19983964 0.005896894 0.03424145 0.5389857 -0.52334905 0.482845 0.08457036 0.15018122 -0.73650384 -0.045443133 0.22036909 -0.5544039 0.15863158 0.5028323 -0.3004849 -0.31094566 0.4655996 -0.05236682 -0.27085635 0.61156905 -0.023762573 0.385182 -0.22253081 -0.40022486 0.05276629 -0.35725662 -0.30668938 0.3971427 -0.20018098 -0.5136149 -0.1698778 -0.0943675 0.4107725 0.3292238 -0.5394304 0.24340494 -0.30359668 -0.01946247 -0.5462318 -0.037543442 -0.29678795 -0.19688031 0.1815193 0.1678692 0.5685127 0.41583803 -0.37874952 -0.2503902 -0.45399538 0.28419802 0.15087605 0.07949927 -0.079424225 -0.26256165 -0.0041693742 -0.55370915 -0.2799539 -0.50377655 0.06320461 -0.40872777 0.1589385 -0.036192458 -0.1494732 -0.45044136 0.3772689 -0.046948425 -0.28048506 0.32028642 -0.35184103 0.26963314 -0.8763433 -0.45630145 0.14937943 -0.21218354 -0.049386505 -0.17824377 -0.33831224 -0.78180313 -0.20968536 -0.5235231 -0.68590015 -0.12676841 0.20730717 0.06922007 -0.09292272 0.10024319 0.22629295 0.10793308 -0.41239932 0.36452484 0.08098166 0.43071017 0.1461068 -0.19789076
you -0.35653284 0.73724806 0.36365426 0.38959658 0.053330563 0.60939837 0.40227836 -0.46482292 0.26425847 -0.10971374 -0.544371 0.079614855 0.107870154 0.26477778 -1.1780596 -0.15606588 -0.51937705 0.26617455 -0.12052463 0.27369848 0.5977271 0.14905742 0.18616807 0.09358018 -0.028580414 0.090191655 0.3780183 -0.6510067 0.060698908 0.009490684 0.4729737 -0.1970525 -0.229762 -0.06594003 -0.37202126 -0.12565032 -0.71344954 -0.3173984 0.14993678 -0.24546185 -0.1557396 0.47486487 -0.622719 -0.5083089 0.29523325 0.7156249 0.541146 -0.8493785 0.15128575 0.49472266 -0.0018850373 0.12919582 -0.43559775 -0.19016834 0.03412657 0.12322852 0.12256847 -0.11481009 -0.258769 0.108780235 0.5112667 -0.10266097 -0.02586395 -0.06862121 -0.9276913 -0.84503156 0.5731387 -0.24465206 -0.13862209 0.6456861 0.42670092 0.44770792 -0.68476623 0.061378717 -0.41254637 0.102554806 0.27047 -0.3733419 0.005346943 0.116683684 -0.5692086 -0.9226233 0.37789413 0.58248514 -0.12530026 -0.5980146 -0.31256238 -0.18394148 0.23519613 -0.5664215 -0.41953266 0.23610337 -0.30452678 0.7244038 -0.3932054 0.28833815 -0.592332 -0.070378795 0.19044666 0.51755404
with 0.14975889 0.3964045 0.103560805 0.11831692 0.13526945 0.29010728 0.51985466 0.08877508 -0.07087631 -0.034086615 -0.26151055 0.02627417 -0.013063863 -0.03269309 -0.31771803 0.1294832 -0.10262153 -0.15495643 0.2182136 0.0530192 0.010484573 0.2029341 0.17438284 -0.1580368 0.27394488 0.030521179 0.05963571 0.13891894 -0.31837386 -0.3360192 0.14275816 -0.16572891 -0.29902375 -0.14958464 -0.42515272 -0.08018268 -0.1681212 0.036016393 -0.2741761 0.28829154 -0.36452606 0.25441828 -0.15983717 -0.253638 -0.0026405668 -0.08705821 0.0070691905 -0.34748173 0.17099436 -0.011915186 0.118733704 0.16100317 -0.011001021 -0.5436921 0.1998508 0.016966391 0.29512653 -0.20501901 0.3643496 -0.23365225 -0.09655875 0.10862711 0.013685878 -0.11170222 -0.21788312 -0.27094916 0.20980282 -0.031447995 0.31771484 0.12765387 0.19423437 -0.011424031 -0.30377746 -0.017242499 0.11437075 0.2716622 0.07621322 -0.2231418 -0.28412768 -0.23193371 -0.2616939 -0.1891013 0.34549433 -0.040826395 0.19527851 -0.54371846 -0.103724964 -0.0729437 0.29753128 -0.11291373 -0.088193625 0.05552558 -0.05529246 0.17617781 -0.3919394 0.20870084 -0.43040323 0.18762235 -0.098017275 0.21881771
just 0.09137377 0.46015382 -0.044212636 0.21657842 0.14386354 0.49176225 0.60637134 0.233122 0.07359173 0.084536605 -0.3725438 -0.05710669 -0.015376927 0.049583632 -0.36175698 0.21381052 0.04956491 -0.17591451 0.24940012 0.23976672 -0.08181894 0.28163093 0.13292128 -0.33881262 0.058033835 0.047797523 -0.1033458 -0.019324567 -0.28050256 -0.39008626 0.14713998 -0.04695575 -0.25561282 -0.02542428 -0.26033998 -0.13308747 -0.5088135 0.14191726 -0.021790864 0.328236 -0.3830937 0.09354031 -0.11065933 -0.47863 -0.24660036 -0.17670876 0.16767149 -0.29050168 0.25657377 0.10522394 0.05089108 0.20971538 -0.027684659 -0.49240676 0.10827751 -0.1896593 0.47495413 -0.1927684 0.42424604 -0.11507657 0.05256146 0.016418822 -0.031336077 -0.101681344 0.0011762474 -0.27392903 0.0429526 -0.075821765 0.296282 0.4235495 0.14883474 0.15111035 -0.33265436 -0.027383827 0.09145275 0.12852685 -0.115024105 -0.2671727 -0.21121314 -0.030126244 -0.35966304 0.022379413 0.30710295 0.29984865 0.022174045 -0.69944733 -0.17139728 0.023303965 0.4195137 -0.20500223 0.04776027 0.25308597 0.022768104 0.15393202 -0.38340446 -0.012546238 -0.28436348 0.088076636 -0.10114938 0.111262456
austin 0.90659994 0.07628654 -0.41876745 0.0028650088 0.47242182 0.05570996 0.20209046 0.8787261 0.27017316 0.70247144 -0.54934865 -0.14374204 0.46999255 -0.2948705 -0.18509689 0.8529201 0.6970391 -0.05833087 -0.14003056 0.76169276 -0.5852353 0.2968983 0.5610544 -0.086030535 0.10803201 0.07250249 0.26563522 0.857645 -1.0215312 -0.22789249 0.42498228 0.058557086 -0.87203157 0.5135885 0.20339286 -0.78373116 -0.13529792 0.14239928 -0.3260523 0.980555 -1.1835063 -0.34221417 0.78795683 -0.9875833 -1.2451051 -0.71766967 -0.55191386 0.103809 -0.6920817 0.80894846 0.44093066 0.08689883 -0.10099275 -0.30062333 0.19203646 -0.6071668 0.7650819 0.41767898 0.95616055 -0.19041789 -0.7498137 0.29582757 -0.16022377 -0.85030687 0.42714524 0.87609607 -0.06777611 0.521281 0.34177774 0.43104085 -0.33518586 -0.32022884 -0.38081464 -0.26549113 0.9948991 0.3615501 -1.0647461 0.2373684 -0.95606023 -0.1468262 -0.5270334 0.7678483 -0.09821462 0.0025513384 -0.060888927 -0.72873163 -0.5091671 1.0322758 1.0025692 0.5706275 0.25211114 0.35982582 0.060410704 0.26057163 -0.7174586 -0.2329241 0.21407376 0.44244987 -0.1073828 0.054015856
this 0.2196356 0.2166846 0.20608036 0.09287095 0.10696253 0.2745035 0.45890528 -0.02949896 -0.11521693 0.017808685 -0.13474181 -0.060138687 -0.015943207 -0.07244812 -0.23225479 0.18780059 -0.0089709405 -0.16385739 0.050423596 0.121679135 0.010648319 0.22116397 0.23440197 -0.17912178 0.2890063 0.11980337 0.06476635 0.14031276 -0.38211238 -0.54572433 0.06718926 -0.20947503 -0.3413767 -0.10286948 -0.3250733 -0.08585425 -0.206232 0.051877398 -0.10001834 0.27755472 -0.36745834 0.23461981 -0.19814566 -0.21131445 -0.16342568 -0.08959924 0.03727975 -0.22297272 0.18773128 -0.0147541575 0.23935975 0.16700733 -0.06757531 -0.47036058 0.124003924 0.14903697 0.3762099 -0.38967127 0.4051332 -0.21376656 -0.0840847 0.016248006 0.0016128932 -0.15682706 -0.13955295 -0.20050843 0.23808645 0.033674825 0.3375329 0.08558623 0.21761495 -0.0028839079 -0.21455376 0.06320716 0.14956585 0.18686165 -0.016290562 -0.121358745 -0.28057545 -0.14289427 -0.19191481 -0.10877558 0.25650275 -0.14078203 0.21702327 -0.5722658 -0.030436568 -0.07576701 0.19125591 -0.037294965 -0.14635883 0.11391681 -0.077529304 0.2531925 -0.44747922 0.24432582 -0.24794632 0.17319934 0.023437774 0.17827313
that 0.1314427 0.38570198 0.20306768 0.15049417 0.09517952 0.3230254 0.5250367 -0.06742264 -0.122879475 -0.17642723 -0.1646301 -0.14326094 0.043920048 -0.11121558 -0.3638809 0.23148766 -0.13125737 -0.024628848 -0.015665743 0.12416773 0.18877888 0.31759164 0.16958609 -0.09261846 0.44233653 -0.054686666 0.18855831 -0.11387302 -0.42694452 -0.3448705 0.21077679 -0.10466134 -0.34208927 -0.14712793 -0.41051155 -0.009591639 -0.36552006 0.01729539 -0.16707888 0.22799908 -0.31103426 0.2701185 -0.19946519 -0.35811523 0.037089832 0.061529033 0.16514367 -0.3405477 0.101985216 0.056515377 0.1368521 0.116919175 0.028185317 -0.44094655 0.21086775 0.08659901 0.40926072 -0.4218654 0.44886047 -0.20537543 -0.011896972 0.17237167 0.025951779 -0.11123833 -0.28641352 -0.19206615 0.23007429 0.03718613 0.3404554 0.33137885 0.21604545 0.071289614 -0.26823846 -0.015760912 0.24419029 0.18288498 0.14363424 -0.09409872 -0.3891971 -0.10836097 -0.32747936 -0.16119815 0.3792182 0.22434333 0.22752778 -0.5644214 0.08757149 -0.015933584 0.26052517 -0.24941388 -0.2090669 0.08455248 -0.16556603 0.33012068 -0.3995439 0.23638302 -0.34914955 0.09464184 0.010259193 0.38824654
be 0.39156586 0.17628925 0.4451965 -0.029384285 0.12400873 0.19006248 0.07554548 -0.24509245 0.0035396437 0.16576305 -0.007250069 -0.20593962 0.23893788 0.013919648 -0.6488723 0.13025771 0.2031501 -0.22221088 -0.16947691 0.19306698 0.19320439 0.31060612 0.5190092 0.15833381 0.2223412 0.26894155 0.15042077 0.11771339 -0.41026276 -0.4519832 0.13116178 -0.09141801 -0.36705065 0.21967864 -0.23930717 -0.12453731 -0.10932465 -0.11924335 0.06478466 0.13624261 -0.48528653 0.14455433 -0.2312457 -0.18270025 -0.24406865 0.15257192 -0.20525496 -0.12461012 -0.048600037 0.36209762 0.36899677 0.0051682354 -0.10447809 -0.17467426 -0.15657401 0.34444433 0.2170673 -0.25199756 0.096987195 -0.34631193 -0.14444354 -0.03277604 -0.08070036 -0.35234696 -0.17379944 -0.093291916 0.2685898 0.15906349 0.24718444 -0.042010877 0.20603564 0.22882925 -0.18476984 0.17918296 0.20352907 0.23395544 -0.20589548 0.11387423 -0.26674667 -0.10490548 -0.28434435 -0.13866818 0.09788281 -0.27483666 0.024342144 -0.36661702 -0.07457306 -0.0026431512 0.026882406 0.084247105 -0.21501514 0.14801991 -0.075531006 0.3995052 -0.19442612 0.3871142 -0.12932761 0.33078802 0.15537901 0.314837
have 0.019765077 0.32335907 0.53324234 0.12781186 0.095945954 0.42663598 0.4041365 -0.42573434 -0.25171283 -0.2646584 -0.1476552 -0.2789577 0.0010331927 -0.08686106 -0.48651385 0.092406064 -0.19127893 -0.27487057 0.02924598 0.07895094 0.31224665 0.40719178 0.28739044 -0.11716975 0.4048216 0.05284419 0.141926 -0.3055373 -0.34946537 -0.6634989 0.19281578 -0.117070965 -0.20346916 -0.1810653 -0.53091145 0.18590398 -0.3436166 -0.28158712 0.03349372 -0.047400706 -0.118674584 0.38415483 -0.5005235 -0.24344152 0.12457473 0.28381768 0.4345551 -0.29782555 0.23145802 0.09251548 0.28578493 0.18499199 -0.054122705 -0.40367767 0.07509925 0.42552152 0.35786164 -0.631935 0.14013775 -0.17562656 0.14670278 0.20606203 0.09925859 -0.04386811 -0.35357985 -0.40679306 0.3562605 -0.2141394 0.35004663 0.29564607 0.37063366 0.29924867 -0.26581395 0.22026907 -0.03167961 0.08431809 0.33686405 -0.057926074 -0.2394134 -0.00034552696 -0.30481282 -0.28551435 0.55412817 0.111761585 0.26650456 -0.5879032 0.2474033 -0.2945204 -0.0041641467 -0.28713757 -0.26264223 0.22664024 -0.28862977 0.45241845 -0.4888787 0.39152855 -0.3323218 0.10591377 0.28420264 0.6235136
pop 0.8528851 0.5214301 -0.7539816 0.32943988 0.45949408 0.036465887 0.7392143 1.2065294 0.22941451 0.24865332 -0.70490587 -0.33116996 0.2777679 -0.6418682 0.096360095 1.2820421 0.14896345 0.52934873 -0.0836043 0.5768908 -0.088095434 0.61126924 0.19172335 -0.19130713 0.4015168 -0.38940457 0.77073187 0.7353661 -1.2897856 -0.069930516 0.7161035 0.21002491 -1.1526588 0.044002254 0.26610646 -0.48343962 -0.16109522 0.13284531 -0.9682407 0.9658866 -1.4405562 -0.010616632 1.0226557 -1.5930575 -0.7676604 -0.6527578 -0.17725748 -0.1291597 -0.99319136 0.80176896 0.12507564 -0.1516879 -0.034909926 -0.6086581 0.79241097 -0.92655635 0.84895205 0.28358123 1.2913796 0.08609139 -0.8816195 0.83282214 0.117902555 -0.52608675 -0.043319125 0.9565297 0.20282765 0.5180707 0.71755266 1.2113619 -0.4729874 -0.5612422 -0.8554689 -0.51649046 1.4669169 0.41758102 -0.48502064 0.4841435 -1.4781909 -0.1841603 -0.83756787 1.0875868 0.6671971 0.6626456 0.3915587 -0.5816801 -0.38123026 1.5120815 1.4137412 0.4583499 0.23983483 0.59552544 -0.4791502 0.69163513 -1.0660712 -0.411118 -0.285642 0.0138920965 -0.3047875 0.6166219
out 0.00032269326 0.41198352 -0.25297016 0.23974712 0.19201891 0.36727676 0.7306843 0.439427 0.20855379 0.12922527 -0.4715301 0.082299195 -0.06720209 0.055540875 -0.30066368 0.21465468 0.061789513 -0.22152738 0.33917415 0.29801238 -0.2400633 0.1787871 0.03458512 -0.34001112 -0.24751855 -0.03770911 -0.038184557 0.05651733 -0.22406621 -0.33427942 0.22799654 -0.15176193 -0.28548804 0.021151468 -0.1297779 -0.1642642 -0.34926087 0.020210417 -0.21891584 0.39671028 -0.497172 -0.05720483 0.044889513 -0.6645008 -0.3396326 -0.24727122 0.059986863 -0.13065682 0.190397 0.31287217 -0.073435664 0.19384617 -0.022813184 -0.36545497 0.28590623 -0.32187143 0.4300647 0.09436758 0.5002237 -0.17411499 0.0961811 0.23797543 -0.055880435 -0.13721989 -0.012491807 -0.26236385 0.021998236 -0.13191055 0.25802177 0.5013521 0.009186201 0.037573602 -0.39094797 -0.18495415 0.05937171 0.10964918 -0.01544349 -0.34508035 -0.32371342 -0.09208187 -0.5884118 0.046152968 0.47946066 0.37046447 -0.03026159 -0.6629365 -0.19162932 0.15460595 0.6400166 -0.056202836 0.03309273 0.27409303 0.11233818 0.20335361 -0.44155937 -0.11916169 -0.27465072 0.15801151 -0.18404351 0.10765478
not 0.19371533 0.15626043 0.32192397 0.09730514 0.16151512 0.0737332 -0.09268822 -0.25346568 -0.10974957 0.032753292 -0.28308684 -0.0055282502 0.16673018 -0.25684026 -0.3286781 0.25988337 -0.19941464 0.13219254 -0.30797377 0.29011178 0.26739502 0.11291675 0.33450735 0.16607447 0.3440698 0.03438775 0.5714041 0.04204984 -0.4799292 -0.2292064 0.30282742 -0.23207478 -0.49841666 0.03650223 -0.20048209 -0.095279954 -0.11149013 -0.3033588 -0.119170316 0.055185612 -0.35934284 0.38172477 -0.18296388 -0.3692824 -0.07121909 0.28252825 0.12292748 -0.3154026 -0.3183894 0.24572185 0.3522235 0.07558681 -0.24813698 -0.17848818 0.07824211 0.28817126 0.14167036 -0.25913763 0.13900927 -0.08373276 -0.11281907 0.13121192 -0.002033283 -0.2693274 -0.50392663 0.06821178 0.510805 0.17790045 0.0895512 0.13163885 0.20790282 -0.10461584 -0.3957238 0.11141204 0.19505666 0.20276782 -0.06672035 0.15387154 -0.4094968 -0.09295496 -0.13219292 -0.2421708 0.17086828 -0.20568667 0.33701342 -0.31954113 -0.082706384 0.16649967 0.06442604 0.084214054 -0.3293943 0.069369346 -0.41468805 0.5540455 -0.60090506 0.3924961 -0.09521756 0.13615148 0.2652589 0.5358817
by 0.23008798 0.21648112 -0.21128541 0.03469906 0.28122094 0.16796319 0.12298501 0.39146093 0.20060799 0.3642963 -0.53030336 0.24643227 -0.051360287 0.18013848 -0.5937546 0.17421027 0.21102989 -0.21684027 0.24612011 0.30728894 -0.35152236 -0.022837566 0.21778056 -0.12615764 -0.26827288 0.13906595 0.063168034 0.27887955 -0.24957316 0.029939748 0.18693435 -0.18922532 -0.21254101 0.23311946 0.009492847 -0.4661798 -0.17100248 -0.0027169953 0.05507292 0.6564399 -0.6128516 -0.06373915 0.20847635 -0.48352876 -0.47942424 -0.16772944 -0.28053766 -0.05722644 0.013122582 0.45866045 0.15087229 0.17579195 -0.06591949 -0.32073227 -0.04942612 -0.13502008 0.26727203 0.2540697 0.28218517 -0.19060591 -0.095508635 0.021446258 -0.15898226 -0.29812872 -0.08085461 -0.27317896 -0.03211891 -0.07936993 0.084620215 0.1468472 0.16000241 -0.11294579 -0.35642046 0.053874556 -0.014006275 0.35391557 -0.4853676 -0.2431149 -0.13712011 -0.24475238 -0.4095552 -0.03509165 -0.017093852 0.1009448 -0.22749197 -0.35638532 -0.5419676 0.25575432 0.53218186 0.0982642 0.109856404 0.19156659 0.12996025 0.024354333 -0.33232862 -0.1351303 -0.17897944 0.24692763 -0.17714314 -0.0019751908
from 0.031978395 0.3370757 0.14870022 -0.03516574 0.13202974 0.37292385 0.3638717 0.007978356 0.005391949 0.063975506 -0.18830499 0.20173727 -0.1050314 0.32225627 -0.70934457 -0.04636366 0.029018031 -0.36943874 0.20871478 0.23758416 -0.12579687 0.03603267 0.16109018 -0.083826356 0.007835894 0.10649845 -0.15143709 -0.051571187 -0.17693637 -0.10631727 0.08288594 -0.22422887 -0.06914116 0.070974305 -0.483692 -0.28305006 -0.44404614 0.060578242 0.10384132 0.5005024 -0.33022133 0.061415672 -0.17505598 -0.09723394 -0.121780634 0.0029964258 -0.15277389 -0.24697754 0.45552444 0.12807173 0.110157296 0.2751556 0.063084744 -0.4229232 -0.07081522 0.046679866 0.35071784 -0.10726562 0.30089346 -0.43684047 0.11251122 -0.09860548 -0.07905494 -0.18863003 -0.121999174 -0.57816255 -0.05721837 -0.12797491 0.054680694 0.04222997 0.3285797 0.15119922 -0.14449796 0.07347318 -0.15210252 0.26073524 -0.1578046 -0.43250853 -0.021050284 -0.21190551 -0.34896526 -0.5647862 0.022323826 0.12597987 -0.20416631 -0.59715426 -0.16262554 -0.31714642 0.258592 -0.2710502 -0.135989 -0.07097423 0.26126868 0.007583447 -0.13428721 0.18231095 -0.40179014 0.30427986 -0.11486952 -0.013066238
android -0.23867494 0.57458663 -0.06454567 0.26764074 0.25108993 0.6726455 0.5263473 0.18160434 0.023823692 0.088635616 -0.5307146 0.2542104 -0.33772266 0.3451671 -0.6457551 -0.12704352 -0.034847986 -0.5296372 0.667522 0.17499942 -0.20827281 0.075081594 0.16253684 -0.5906369 -0.3245524 0.29194564 -0.416763 -0.021878604 0.04244709 -0.4030306 0.029658424 -0.30981728 0.16512963 -0.08168386 -0.36058986 -0.1785614 -0.49842602 0.10041696 0.27682298 0.45444793 -0.2331558 0.2959011 -0.45292047 -0.35321823 -0.15825884 -0.15726955 0.19593425 -0.22278297 0.7798405 -0.13349374 0.092607826 0.53730404 -0.08140122 -0.73124516 -0.08319573 0.00247942 0.31737822 -0.2164272 0.21483383 -0.15411817 0.4417285 -0.3274623 -0.09431532 0.012644129 -0.115469724 -1.1162202 0.051174328 -0.48267478 0.16618426 0.030099008 0.48618767 0.065159336 -0.44085827 0.16194278 -0.6132379 0.12010433 -0.23192039 -0.82462436 0.2630777 -0.1118478 -0.40489417 -0.3624338 0.35254616 0.16196412 -0.15859282 -0.7427303 -0.5652223 -0.37435508 0.373361 -0.45107576 0.097652406 0.22267748 0.23439153 -0.08084125 -0.43656906 0.01339452 -0.51016486 0.19958775 -0.09330467 -0.053482477
are -0.008550933 0.51216733 0.38970202 0.024451606 0.07936887 0.3783688 0.37387043 -0.36832416 -0.055526614 -0.1885891 -0.12877333 -0.11612988 -0.03667071 0.21151933 -0.8280439 0.0044072387 -0.14163256 -0.14798874 -0.05198182 0.11089316 0.25087252 0.25010076 0.21122773 0.03042445 0.34439218 -0.06696951 0.18372802 -0.36853915 -0.23112082 -0.16628908 0.25609866 -0.11782285 -0.20125845 -0.044659186 -0.56419855 -0.022477217 -0.47633857 -0.1400359 0.01682269 0.17874119 -0.15190361 0.2388547 -0.33093446 -0.25403142 0.10303002 0.366693 0.1605145 -0.3649718 0.27514625 0.28533232 0.068134606 0.15720674 0.041769393 -0.30142477 0.10434755 0.23398957 0.3949755 -0.3210332 0.20084849 -0.33459315 0.20375323 0.14752023 0.060263913 -0.15432647 -0.5623742 -0.44717747 0.20596632 -0.14196976 0.16420728 0.33753464 0.33074757 0.33547148 -0.2966959 0.063971065 -0.0879789 0.13346773 0.18906327 -0.18568398 -0.22650652 -0.030652935 -0.47438645 -0.71135354 0.32081705 0.3668262 -0.0053399396 -0.5808352 0.1341898 -0.34021896 0.19669844 -0.3413122 -0.3270456 -0.027262606 -0.09099211 0.34261936 -0.21315312 0.30665183 -0.5169557 0.28113076 0.11555978 0.48761487
get -0.06837881 0.40630955 0.0780542 0.19101667 0.20425554 0.4136168 0.37185678 0.103414305 0.105271384 0.13060288 -0.45014653 -0.0241483 0.047048114 0.05351327 -0.51278657 0.17687438 -0.0055963714 -0.14660977 0.15237904 0.3209708 -0.00013872074 0.16508056 0.19177371 -0.18880056 -0.18761624 0.085965365 0.047179703 -0.112671115 -0.23826228 -0.33439666 0.20477927 -0.0065911813 -0.25859204 0.054483093 -0.107059374 -0.14187925 -0.36440045 -0.05868009 0.057792183 0.14539598 -0.33529213 0.1865991 -0.14123021 -0.5490174 -0.22512917 0.02813033 0.22227299 -0.30306673 0.10328909 0.2883247 0.11696758 0.13360374 -0.12156237 -0.26962164 0.032256287 -0.06219472 0.2690885 -0.040998634 0.17201257 -0.05789448 0.16440734 0.0604473 -0.046396587 -0.1304431 -0.14717974 -0.31048924 0.12608671 -0.17869425 0.17524856 0.4435206 0.1553856 0.17243108 -0.38151088 0.07106799 -0.10478212 0.064255625 -0.113580585 -0.23793125 -0.17015825 0.073058866 -0.42276454 -0.0012465204 0.33651757 0.27451587 -0.039419703 -0.50542504 -0.25313732 0.1203925 0.33125797 -0.16095774 -0.015515281 0.30613518 -0.057598185 0.31200197 -0.38507274 0.050129402 -0.2549242 0.04399532 0.12405291 0.21089904
they 0.0042697936 0.22122271 0.77989465 0.08216148 0.23248237 0.4253825 0.34396738 -0.5749581 -0.45777944 -0.5278295 0.006663351 -0.57049614 0.04673785 -0.4753617 -0.28773394 0.43801963 -0.40126 -0.39269394 -0.21935916 0.34912133 0.50419086 0.64151174 0.21631405 -0.016963439 0.6814304 -0.2613862 0.48675147 -0.39495143 -0.8401683 -1.0504353 0.37014323 -0.22635129 -0.43701613 -0.42271137 -0.45277435 0.26998112 -0.4066447 -0.7320893 -0.27505893 -0.09541873 -0.19008908 0.5402756 -0.4990394 -0.60944176 0.055283934 0.3911432 0.73391384 -0.28186017 0.03302494 0.25431225 0.49857748 0.23635224 0.057843294 -0.4856609 0.26030713 0.6452829 0.5320007 -0.99416447 0.3210951 -0.20083007 -0.0020693548 0.6784322 0.15763389 -0.23852444 -0.4587483 -0.17050974 0.53844655 -0.1811394 0.50208265 0.6598714 0.5300971 0.28877985 -0.35608232 0.2957126 0.19937868 0.2088742 0.674364 0.16076328 -0.80004 -0.03671195 -0.39299068 -0.20454296 0.9379768 0.33385044 0.5163239 -0.8070483 0.7241299 -0.06648429 -0.030837659 -0.31213218 -0.54528993 0.45694765 -0.6109313 0.7951787 -1.0679201 0.6021068 -0.18886249 -0.050029192 0.58557856 1.1313943
launch 0.96760803 -0.5619129 0.39533222 -0.5491505 0.5662954 -0.20127827 -0.8148049 0.1658227 -0.11512786 0.85236704 -0.21722834 0.26882738 0.4065899 -0.13193691 -0.53743196 0.33838832 0.69787616 -0.74373925 -0.24918473 0.66180086 -0.62017286 -0.21420002 0.8039618 0.32036936 0.08034402 0.63199496 0.3281053 1.1274909 -0.8552165 -0.47049835 0.073781274 -0.3577321 -0.76148456 0.7042387 0.09748233 -0.82385117 0.4508037 -0.30567312 0.12664634 0.7582434 -1.1759013 0.047407363 0.24722186 -0.0150490515 -1.124751 -0.36317962 -0.899986 0.19092838 -0.52826226 0.5801237 1.0211507 0.24958108 -0.2062606 -0.16251908 -0.45982796 0.49520856 0.25788003 0.20586845 0.1958765 -0.6117615 -0.7847443 -0.2717305 -0.41069016 -1.1053698 0.35442135 0.6281596 0.20881595 0.44866505 0.015297025 -0.8099412 0.228142 -0.38972563 -0.08101715 0.3506398 0.37356207 0.5352283 -1.4599906 0.16624649 -0.4584774 -0.54619324 0.02713961 0.27440935 -0.69299126 -1.3997641 -0.14406796 -0.3504675 -0.59085846 0.42898837 0.19574356 0.7545496 -0.042906817 0.025464362 0.1733635 0.20342022 -0.64400864 0.549802 0.6243154 0.80435246 0.23503996 -0.059351128
so 0.07723393 0.6078419 0.10487201 0.24404988 0.041440923 0.40998885 0.75166374 -0.11093219 -0.06022908 -0.21546015 -0.2499298 -0.15026475 -0.005065752 -0.012729211 -0.4272024 0.16468653 -0.22989869 0.16041285 0.05553708 0.0013556457 0.23844069 0.2987365 0.19416422 -0.12743157 0.5020979 -0.08694672 0.18384446 -0.21727769 -0.31609458 -0.23516929 0.2548303 -0.16867581 -0.27720395 -0.23893702 -0.47228312 -0.005183415 -0.48742393 0.084896244 -0.26829913 0.17128083 -0.26741147 0.2646164 -0.24849023 -0.3374663 0.16652447 0.09543073 0.16394074 -0.4960112 0.1501575 0.04270978 0.025091318 0.12584317 -0.054792553 -0.5184442 0.2624985 -0.049601544 0.45442122 -0.41369036 0.45352402 -0.1530471 0.079100214 0.1402671 0.11390115 0.015149251 -0.48283556 -0.3478466 0.26179233 0.010873462 0.2864498 0.37325397 0.2444119 0.10048852 -0.38195294 -0.13856214 0.17506197 0.20489085 0.2498399 -0.18792789 -0.3014935 -0.14012012 -0.3628503 -0.31800374 0.39494798 0.33787212 0.26743123 -0.6137701 0.025039947 -0.09376515 0.33400595 -0.34226578 -0.23922513 -0.0082325265 -0.20199984 0.31020218 -0.3524944 0.15470411 -0.5560118 0.057445407 -0.11805474 0.33583435
your -0.24016573 0.60101104 0.15098813 0.2641727 0.10080706 0.6094291 0.5342569 -0.13327587 0.08490585 -0.09800439 -0.44038734 0.07138274 -0.11815397 0.30580732 -0.79830104 -0.11523664 -0.23479189 -0.20799257 0.29361632 0.19355413 0.16752797 0.16690783 0.19185874 -0.23549022 -0.050586544 0.13653663 -0.11251416 -0.32449704 0.013767838 -0.27383995 0.1558881 -0.17670442 0.001525234 -0.07849835 -0.47673038 -0.070507035 -0.53672683 -0.026937934 0.12292894 0.13616714 -0.16284047 0.30429044 -0.4678101 -0.32096994 0.118008584 0.13449404 0.32293847 -0.46915922 0.54926574 0.11604812 -0.020622863 0.26916593 -0.1125528 -0.48597568 0.031335983 0.10072541 0.23930646 -0.24046081 0.07951558 -0.14753638 0.3436334 -0.099719755 -0.018812055 0.029653646 -0.35665706 -0.91703826 0.20330578 -0.36690652 0.11795006 0.31321546 0.40464777 0.28236133 -0.44156885 0.050621904 -0.40173185 0.12648463 0.17183651 -0.5152483 0.08455741 0.020597644 -0.51297385 -0.56212413 0.4102577 0.36693996 -0.08397372 -0.685391 -0.26930708 -0.33144835 0.28459516 -0.45623437 -0.12124925 0.18003477 0.012304442 0.22930802 -0.28149748 0.19325653 -0.63114107 0.12019951 0.003255346 0.2560543
one 0.09317291 0.39890108 0.1823658 0.3327036 0.28212997 0.37854913 0.8202373 0.018094854 -0.4170879 -0.44975007 -0.47381783 -0.27700523 -0.07571208 -0.582171 -0.020096743 0.46860948 -0.5066836 0.032514233 0.13400763 0.13178244 0.2523791 0.54077864 0.16649981 -0.27865347 0.67663485 -0.27685264 0.56272674 -0.059720535 -0.84585315 -0.7478748 0.37662613 -0.27591857 -0.4916885 -0.5511051 -0.55492026 0.1434851 -0.15437964 -0.41587102 -0.6574244 0.1825016 -0.29281786 0.49432772 -0.20414376 -0.8327902 0.22162685 0.05261819 0.6979333 -0.453686 -0.050293148 0.08939515 0.32096437 0.24538548 -0.031604156 -0.8878986 0.5691193 0.08180122 0.50501007 -0.7131486 0.683673 0.008939125 -0.0976471 0.7662852 0.23738329 0.057064254 -0.6353382 -0.19726846 0.5142297 -0.05543827 0.6388672 0.7526775 0.35899383 -0.1700213 -0.58882165 -0.055793755 0.3593838 0.33844718 0.7228385 0.051917393 -0.7955882 -0.20328209 -0.3984919 -0.020728786 1.0563102 0.25860628 0.79955673 -0.7034899 0.2804355 0.1825751 0.29779375 -0.16527626 -0.2988394 0.31212628 -0.5390934 0.53711873 -1.0679528 0.20012076 -0.5094011 -0.10242108 0.1557774 0.8624087
now 0.14705004 0.25659478 -0.092567414 0.16213569 0.3290858 0.32557997 0.33362773 0.30902314 0.046676487 0.3290264 -0.40608302 0.09910058 0.006837954 -0.042889226 -0.25512236 0.28989634 0.24539621 -0.3082029 0.20411521 0.44460392 -0.24860138 0.07050211 0.25438514 -0.34386453 -0.15319431 0.18255736 -0.14893375 0.25515538 -0.38490966 -0.43795547 0.09376681 -0.0649575 -0.29923603 0.16980925 -0.11031733 -0.3238938 -0.36831596 0.12116244 0.06760637 0.37214905 -0.47179106 0.11002585 -0.023510741 -0.466469 -0.5524113 -0.31393486 -0.030162245 -0.07269999 0.10351022 0.08351538 0.2977651 0.31138948 -0.044123575 -0.37547928 -0.099065825 -0.19788882 0.46754068 -0.055655494 0.42008597 -0.14027421 -0.022677816 -0.13127463 -0.073603645 -0.37361103 0.24249448 -0.08123539 -0.046516757 0.015087308 0.15398312 0.17039129 0.1558486 -0.0618651 -0.23891215 0.066651516 0.047334544 0.11479822 -0.518949 -0.31633553 -0.23883912 -0.027008409 -0.28388643 0.32701123 0.115782455 -0.087257326 -0.052623793 -0.5974309 -0.3676187 0.14578238 0.44383824 -0.07031683 0.081595615 0.23013455 0.17616458 0.09131418 -0.47546738 -0.018531598 0.009669509 0.13265449 0.069178626 -0.112770006
sxsw 0.41982222 0.08278389 -0.45611757 0.090815224 0.36655036 -0.022563469 -0.037900236 0.68524027 0.27623 0.45591956 -0.6919978 0.042424396 0.10080314 -0.1244297 -0.3457224 0.47727773 0.14272265 0.044478815 0.14130722 0.43686068 -0.31389493 0.18394378 0.23958613 -0.10727146 -0.2330154 0.060181916 0.36758938 0.5278515 -0.5033203 0.06970548 0.33892468 -0.09546025 -0.47733945 0.2544852 0.3000431 -0.5071534 0.10792309 -0.18871298 -0.19686975 0.6870718 -0.8762022 -0.017417887 0.5192956 -0.89634055 -0.6048603 -0.22983043 -0.17215203 -0.00042896802 -0.43932444 0.763986 0.19080181 0.026784519 -0.14594756 -0.2528257 0.15486953 -0.310738 0.24541353 0.4547105 0.36872694 0.020847652 -0.37025496 0.30825216 -0.14315233 -0.35652235 -0.09074275 0.15386884 0.09017567 0.073453344 0.21160232 0.486881 -0.07132759 -0.2867735 -0.55273783 -0.06573221 0.38536876 0.34196615 -0.51506907 0.09282712 -0.47286925 -0.18122223 -0.55144393 0.3677131 0.20863152 0.255793 -0.057359196 -0.21934664 -0.6416916 0.8401467 0.74248606 0.4238544 0.17187467 0.39659458 -0.17915134 0.26095098 -0.6054903 -0.25534016 -0.057186637 0.12860912 -0.1004192 0.2853805
all 0.038167633 0.37241697 0.2133914 0.048298955 0.087081574 0.41441274 0.43524954 -0.12172081 -0.06542211 -0.10166013 -0.16306517 -0.053098604 -0.08897125 0.14460225 -0.5148504 0.030331446 -0.052894536 -0.28397432 0.17592101 0.07546201 0.05401923 0.20463967 0.2237546 -0.17330104 0.23664288 0.050025024 -0.048772007 -0.10598199 -0.19548224 -0.3801732 0.11754065 -0.18311195 -0.09284055 -0.101971954 -0.43490893 -0.06328847 -0.29355958 -0.043163456 0.004885371 0.24097753 -0.23239574 0.23238567 -0.32795465 -0.19502552 -0.027943682 0.03154487 0.078788996 -0.26690698 0.36352164 0.050045405 0.1211804 0.24295148 0.0117323855 -0.46629015 0.06420799 0.18835804 0.36310238 -0.3234308 0.25601152 -0.24155265 0.098105416 0.03225428 0.0028812012 -0.11186746 -0.24232551 -0.52295876 0.13797055 -0.18671936 0.24033888 0.13819413 0.33697265 0.14289032 -0.26842156 0.098954454 -0.112158835 0.17904952 0.046046168 -0.3098706 -0.118793406 -0.12195729 -0.33931068 -0.38919273 0.30916616 0.13988712 0.0512301 -0.59086484 -0.04965237 -0.2931997 0.19875337 -0.25769883 -0.13120155 0.05271567 0.025805656 0.1501033 -0.30992213 0.23479046 -0.42236823 0.22661318 -0.0076588555 0.26356852
like 0.019591074 0.40506846 0.2582195 0.065124005 0.057158317 0.28265637 0.277033 -0.19064233 -0.06302442 -0.0642853 -0.2339092 0.14024758 -0.023338594 0.056733713 -0.57663053 0.0062756515 -0.16181114 -0.09641793 0.03962371 0.046880882 0.12503473 0.051895134 0.16848573 0.021095134 0.32363078 -0.009823478 0.27043882 -0.07755528 -0.22830376 -0.12886763 0.14758876 -0.27336034 -0.24341922 -0.05862066 -0.46140352 -0.11028607 -0.28953552 -0.10602721 -0.09473392 0.18635498 -0.21148033 0.2998612 -0.31251046 -0.14306895 0.1321451 0.24650814 -0.010693918 -0.3746393 0.20372985 0.068597145 0.1476323 0.14757831 -0.12647071 -0.37894943 0.024627583 0.17070228 0.24388772 -0.27274215 0.2213952 -0.2721537 0.07248995 -0.015762541 0.027481802 -0.13053471 -0.5522986 -0.39956927 0.28250894 0.017892571 0.08462822 0.053137418 0.36478758 0.04326468 -0.32605097 0.0758405 -0.040388133 0.28802803 0.08683189 -0.17645808 -0.14545073 -0.197715 -0.16942184 -0.58966506 0.12959342 -0.02965024 0.14817803 -0.44957787 -0.05875578 -0.27250564 0.09362613 -0.22780061 -0.3170859 -0.115905866 -0.072426796 0.25884947 -0.30070117 0.3064281 -0.3636851 0.21202025 -0.018387193 0.31342018
will 0.21075495 0.08048027 0.42358166 -0.1518284 0.034910843 0.12425792 -0.24274845 -0.32582793 0.078751944 0.17157261 -0.067940764 0.2104423 0.20687798 0.21011464 -0.7338188 0.04682651 0.08729206 -0.10988049 -0.20210019 0.22234443 0.110158294 -0.027398199 0.3825274 0.24723506 0.23734559 0.22879128 0.3279879 0.09361262 -0.23903336 -0.09425972 0.091589525 -0.22728208 -0.36330688 0.25933778 -0.37406924 -0.34523892 -0.15842694 -0.19729757 0.13654049 0.3391219 -0.40663475 0.22719663 -0.17754264 -0.12560864 -0.13925925 0.32987446 -0.26062703 -0.24000438 0.009484849 0.294984 0.16623802 0.040063523 -0.039741255 -0.05620277 -0.20083877 0.34160212 0.02351404 -0.12658149 0.07301713 -0.43722007 -0.15082084 -0.09129094 -0.1796167 -0.40449783 -0.4374653 -0.12966564 0.33349448 0.13228251 -0.05497238 -0.13978733 0.29140726 -0.03486574 -0.21465594 0.20331594 0.09145491 0.26045746 -0.27108017 0.006445299 -0.19736752 -0.21973325 -0.21779153 -0.56952167 -0.1810941 -0.2517904 -0.059875008 -0.36429393 -0.16003443 -0.09381081 0.102881126 0.12556255 -0.23674527 -0.12126233 0.022972817 0.24882494 -0.13987803 0.4609718 -0.1995879 0.38500872 0.1602572 0.21733037
line 0.6006896 0.4322043 -0.4368982 0.21181151 0.23063532 0.1937693 0.7216578 0.73181957 0.15858145 0.21540633 -0.42052764 -0.382021 0.23237313 -0.22540599 -0.112834714 0.71891505 0.35326207 0.100013144 -0.00025174665 0.31684738 -0.23122069 0.5816138 0.20741233 -0.275267 0.307159 -0.23635262 0.2848464 0.32989475 -0.78392875 -0.1889611 0.41213945 0.22435236 -0.68829876 0.07246692 0.09845586 -0.34430903 -0.24150561 0.161447 -0.5549176 0.63366157 -0.8533594 -0.17277417 0.5328618 -0.94911355 -0.6081048 -0.47852787 -0.12635437 -0.12322751 -0.41641662 0.6272723 0.08306984 -0.062404662 0.06534855 -0.4482524 0.42909756 -0.66103864 0.75109553 0.14401771 0.8962485 -0.064004205 -0.41603035 0.5017083 0.02839936 -0.36748135 0.06747125 0.6449693 -0.03057433 0.3180253 0.60973805 0.84170777 -0.2858731 -0.070849806 -0.42078254 -0.33810204 0.8985992 0.2913572 -0.25735652 0.19169766 -0.89044404 -0.050049752 -0.61509037 0.67675227 0.38170546 0.61312515 0.12443657 -0.6251794 -0.11311595 0.78671026 0.8780857 0.17755169 0.1871208 0.42077708 -0.13024604 0.2992736 -0.5169738 -0.3319205 -0.15077765 0.10421316 -0.22950594 0.28328872
social 0.9093843 -0.5408386 1.1406064 -0.8342492 0.59041685 -0.06086991 -1.3826238 -0.61828214 -0.34995133 0.9465477 -0.21180479 0.534442 0.24212833 0.20562027 -1.4128101 -0.12465082 0.5308994 -1.3620712 -0.039098646 0.5422054 -0.45820302 -0.3259914 1.1019073 0.532041 0.10053563 1.0916026 0.35075104 1.0741132 -0.6161063 -0.8541698 -0.0056866216 -0.79181796 -0.5432275 0.7417873 -0.4148439 -0.8617341 0.4998442 -0.6797482 0.7023835 0.7460117 -1.1424415 0.48626366 -0.5019916 0.5992698 -0.96503544 0.07185211 -1.0539913 0.12857684 -0.07982856 0.52248204 1.4375579 0.6448617 -0.51869833 -0.38345835 -1.0601822 1.3598489 0.023871304 -0.017926814 -0.5113426 -0.96847516 -0.573306 -0.79929364 -0.5404045 -1.2919638 -0.070726454 -0.34190667 0.6475024 0.1550479 -0.12228035 -1.6594903 0.8972601 -0.2933905 -0.28797922 0.943429 -0.38612762 0.7209503 -1.7142564 -0.053235512 0.02798868 -0.79877007 0.25258574 -0.6692822 -0.89864796 -2.2740948 -0.20145376 -0.48206246 -0.79259014 -0.31043112 -0.2589614 0.72435534 -0.37709936 -0.09595546 0.20740815 0.20932008 -0.73965794 1.1687154 0.4865779 1.2537106 0.46078962 0.12473442
about 0.076994665 0.14637381 0.4757307 -0.09266892 0.11161894 0.24075298 0.007835002 -0.34181646 -0.17548531 0.022128047 -0.070605405 0.07378546 -0.008246038 0.09443742 -0.58450997 -0.04594244 -0.03746797 -0.35118592 0.019061575 0.14273018 0.050908644 0.032430954 0.27692822 0.06470893 0.291536 0.17124791 0.10853045 -0.033608753 -0.2684725 -0.38518617 0.03156063 -0.3057184 -0.21331412 0.018450897 -0.43599617 -0.12711747 -0.18894538 -0.17458266 0.15296322 0.22756432 -0.2506524 0.30692843 -0.3513382 0.07727659 -0.042405095 0.1907378 -0.0647553 -0.20282468 0.25362813 0.0346029 0.3275888 0.24992575 -0.059947178 -0.309413 -0.119033076 0.4820062 0.2127743 -0.33949798 0.078106746 -0.4092029 0.030507652 -0.09312154 -0.09691447 -0.2887454 -0.27246937 -0.38369098 0.2436524 -0.04287238 0.102787055 -0.23347059 0.44792563 0.08637764 -0.14325073 0.2330065 -0.15320307 0.23703681 -0.1427269 -0.16596058 -0.07722198 -0.2462477 -0.12521291 -0.5020401 0.01648071 -0.2985005 0.053653724 -0.47629058 -0.011666225 -0.34438255 -0.031842336 -0.16429535 -0.28010717 -0.087472655 0.0056338143 0.20058233 -0.29695147 0.46376333 -0.15686998 0.32021156 0.13822368 0.24341336
time 0.27315137 0.2371061 -0.08655434 -0.06491562 0.2827114 0.2522319 0.3096312 0.3259888 0.107616715 0.28563213 -0.32162708 0.13883556 -0.004856297 0.17099197 -0.48392817 0.14617829 0.380377 -0.43436602 0.24412906 0.32616982 -0.4257874 0.08113407 0.25573295 -0.14395724 -0.03811839 0.14081825 -0.09911798 0.24228697 -0.3603114 -0.13644281 0.06861229 -0.11444911 -0.18746229 0.19022301 -0.26165557 -0.42720374 -0.28306225 0.08901739 0.060829703 0.6453493 -0.49459 -0.13846938 0.06908153 -0.29691324 -0.52011377 -0.23556717 -0.28051084 -0.065864176 0.19104412 0.35122868 0.17860803 0.2840473 0.07188223 -0.37039164 -0.056751553 -0.19568598 0.55488 0.13025396 0.43377122 -0.32091755 -0.10847378 -0.02037848 -0.08402255 -0.3215281 0.20092557 -0.18837371 -0.18123809 0.044620097 0.08934886 0.10694934 0.13015197 0.0025460066 -0.18085645 -0.05787297 0.03984498 0.26471934 -0.46928334 -0.2521826 -0.16873802 -0.14022702 -0.3333674 -0.12678704 -0.050374128 0.026490154 -0.22595197 -0.6256025 -0.2722193 -0.012477895 0.44280148 0.014536196 0.09730804 0.11995623 0.25783226 -0.031033242 -0.27219287 -0.08190451 -0.088085346 0.40701795 -0.17734633 -0.12283874
can -0.16510801 0.68042815 0.20883232 0.2612265 0.08187778 0.56019145 0.61126196 -0.20167887 -0.01290099 -0.198357 -0.31069022 -0.1637211 0.01032399 0.12783371 -0.6875263 0.10942758 -0.22927009 0.021797791 0.07163413 0.18391813 0.2948791 0.35240564 0.14739785 -0.19919023 0.21805194 -0.03354919 0.095359504 -0.44757771 -0.18031625 -0.27110603 0.2890574 0.0036697201 -0.23235789 -0.13357773 -0.45662513 0.07945147 -0.62985426 -0.013737955 -0.037679143 0.03685866 -0.15899245 0.31303155 -0.37115675 -0.44462866 0.1911232 0.2194443 0.36022165 -0.51792175 0.31967083 0.2093969 -0.035685968 0.12458895 -0.09206803 -0.37238014 0.13764057 0.020022895 0.35868058 -0.3675298 0.24808918 -0.101342656 0.3146889 0.13129362 0.065825224 -0.02372774 -0.45066762 -0.46963066 0.25798854 -0.20855764 0.26926497 0.5695077 0.27252036 0.35134235 -0.38691252 0.0054143174 -0.10105502 0.0322442 0.24539655 -0.24692835 -0.20883971 0.073618695 -0.4966405 -0.37648132 0.4486723 0.5536609 0.06466088 -0.6668766 0.009305564 -0.16235058 0.28069192 -0.47444314 -0.1934723 0.1668447 -0.18988043 0.39810616 -0.3116628 0.20155841 -0.52834004 -0.008035455 0.12635793 0.40940133
great 0.090619735 0.18791783 0.22496316 -0.12780133 0.12163218 0.20380045 0.092344895 -0.100021295 -0.059330925 0.036182214 -0.13793035 0.20038898 -0.07295853 0.18728285 -0.5878844 -0.0052201245 -0.0043027936 -0.28403717 0.06546875 0.17960966 -0.07613194 -0.020651547 0.18369007 0.083026655 0.18739332 0.0029452974 0.16497569 0.0122458255 -0.274774 -0.10760968 0.07649236 -0.2774872 -0.15793948 0.044212356 -0.38298455 -0.2697789 -0.17803985 -0.11717712 0.022350393 0.425964 -0.30395022 0.12363145 -0.14260693 -0.066017345 -0.06787004 0.13101059 -0.18937957 -0.14119323 0.24523431 0.1725649 0.20557043 0.2340146 -0.004406236 -0.36760867 -0.053543348 0.20795864 0.24820606 -0.13185078 0.21629348 -0.4106483 -0.032502767 0.027809888 -0.06952986 -0.24811952 -0.32601944 -0.38377225 0.100671865 -0.04665178 0.08021989 -0.04084375 0.37131453 0.013928341 -0.19787017 0.13193995 -0.061928082 0.34614626 -0.124622054 -0.18330471 -0.08671932 -0.28265333 -0.23609172 -0.5465165 -0.0150001915 -0.07239757 -0.044573195 -0.4164198 -0.081975 -0.22683582 0.1324386 -0.098036535 -0.20624119 -0.040341813 0.11229631 0.09406888 -0.20645332 0.2715282 -0.2602838 0.315377 -0.04715408 0.17693837
via 0.42995673 -0.039763454 -0.23831277 -0.033686154 0.40322712 0.0026050357 -0.37347844 0.47168624 0.24678926 0.6328201 -0.7413052 0.3653902 0.100233786 0.078388155 -0.6067389 0.25279728 0.21032383 -0.1839842 0.17665674 0.5155686 -0.43318957 -0.02561531 0.40135008 0.044468507 -0.38674858 0.30701593 0.22615258 0.6163422 -0.3611586 0.084659666 0.27262667 -0.25996718 -0.3071167 0.49984095 0.17697296 -0.6514507 0.11893685 -0.21207805 0.16936722 0.71883017 -0.847829 -0.02073495 0.36133918 -0.5652981 -0.65684414 -0.17166947 -0.3971284 0.036525663 -0.27577627 0.7373561 0.35086408 0.21667753 -0.29082257 -0.22128312 -0.13213453 -0.10961073 0.1062642 0.511694 0.12705097 -0.11696059 -0.33991137 -0.031002482 -0.2139272 -0.4894198 -0.08623873 -0.12916335 0.1411665 0.047186196 -0.02360475 0.00072763197 0.06578701 -0.3092216 -0.5185878 0.08552147 0.033817034 0.36404008 -0.8516147 -0.011047679 -0.17303896 -0.2605657 -0.38266483 0.021656178 -0.14392354 -0.23610766 -0.24423164 -0.20792854 -0.8737224 0.5761361 0.5330896 0.4466188 0.16481103 0.24341106 -0.0002589827 0.15100822 -0.47409087 -0.07664963 0.052062374 0.35354525 -0.077220425 0.100600675
me -0.02564669 0.64852494 0.29990393 0.35345754 0.05346837 0.6353079 0.8409143 -0.1604489 -0.09127534 -0.2398047 -0.32095096 -0.22876476 -0.009420428 -0.030345937 -0.44426188 0.14244191 -0.24392673 -0.116671436 0.16167744 0.08893228 0.27282175 0.4142025 0.17424993 -0.29812568 0.35653853 0.024862103 0.049496952 -0.31883392 -0.33032706 -0.61380726 0.2013991 -0.075940445 -0.29913524 -0.24131511 -0.5355568 0.11183021 -0.567357 0.017054034 -0.103412434 0.06271584 -0.22608598 0.38495085 -0.4883947 -0.4260814 0.16516434 0.048777297 0.447412 -0.56158406 0.32557216 -0.015473481 0.11753368 0.21233194 -0.089285895 -0.6044414 0.22748606 0.10517915 0.44340688 -0.5754918 0.39198214 -0.14671907 0.17545745 0.13470937 0.04809079 0.012944436 -0.3320612 -0.48471195 0.28878805 -0.16400371 0.41548955 0.504299 0.3021633 0.27568284 -0.3971491 0.0048751915 0.051048692 0.13331969 0.35078204 -0.24032456 -0.2711619 0.015358496 -0.3914922 -0.21228035 0.601112 0.3342529 0.25658256 -0.8201195 0.06307311 -0.16803305 0.26658878 -0.47004673 -0.14646989 0.24171509 -0.19888626 0.42811197 -0.48514798 0.26133925 -0.52258027 0.008186643 0.058000315 0.4563329
no 0.23992391 0.3985888 0.284092 0.2677629 0.33310986 0.26616696 0.74785185 0.0036953606 -0.5283891 -0.44217584 -0.43889576 -0.25000736 0.014508094 -0.75590265 0.1611189 0.5703571 -0.5675061 0.07663716 0.06336239 0.08080715 0.2694236 0.5282241 0.22491981 -0.19647457 0.93476194 -0.32911366 0.72664803 0.12962943 -1.0077866 -0.85813326 0.43258837 -0.37012467 -0.6740372 -0.6313512 -0.6246163 0.15794826 0.047991134 -0.44994545 -0.9330882 0.1787557 -0.33978102 0.62706554 -0.14469726 -0.78235656 0.26861516 0.015144051 0.5898294 -0.4535711 -0.21617365 -0.05547423 0.4055963 0.23163 -0.020789327 -0.9810581 0.6504908 0.17383972 0.44514075 -0.79080635 0.75323087 -0.050006494 -0.24926312 0.8189081 0.27600354 -0.018576192 -0.7163107 -0.0012706674 0.6533018 0.0901156 0.6918723 0.5943933 0.37439513 -0.36018708 -0.5648482 -0.05095769 0.5373186 0.43390325 0.7498044 0.1610976 -0.9625136 -0.3386987 -0.27315745 0.024543518 1.0909188 -0.06356981 1.026736 -0.67868185 0.3276713 0.26254842 0.2824867 -0.024903366 -0.38269982 0.21331356 -0.6223149 0.574872 -1.1669761 0.3775736 -0.508553 -0.035376173 0.16562085 0.94988406
but 0.0012145056 0.47846583 0.17812146 0.22299433 0.04475143 0.39193034 0.592896 -0.10294573 -0.09127784 -0.18489295 -0.23929442 -0.12290296 -0.008992643 -0.04453848 -0.4091283 0.15862636 -0.21671218 0.005226256 0.04467253 0.09028568 0.19728139 0.30257842 0.14202385 -0.129897 0.3711835 -0.09972082 0.20844997 -0.20466703 -0.33931923 -0.35196733 0.19534744 -0.14896785 -0.2872538 -0.18326223 -0.46466812 0.024657667 -0.40804705 -0.04624807 -0.21069802 0.16473533 -0.19562453 0.2742684 -0.2615599 -0.3812653 0.1279528 0.1120864 0.23658293 -0.3910213 0.18900555 0.07407577 0.080288015 0.12648903 -0.02438815 -0.44079646 0.2244227 0.056353796 0.38927075 -0.37874773 0.38003916 -0.17017423 0.08620173 0.2149026 0.064797975 -0.03476687 -0.42544335 -0.29723692 0.2518503 -0.027101226 0.29955184 0.38273066 0.25401703 0.10899775 -0.3501891 -0.034231223 0.12914085 0.19191903 0.30206898 -0.1487004 -0.32351926 -0.08833288 -0.34815544 -0.3169445 0.44059643 0.29488882 0.2594784 -0.5944708 0.10158716 -0.120501064 0.2370269 -0.2905505 -0.24901757 0.07401931 -0.17948309 0.3218379 -0.39016154 0.20318764 -0.43428615 0.08338239 0.028780255 0.42310804
party 0.14529403 0.18198512 0.087469675 -0.1433236 0.15003075 0.1986286 0.042228255 0.15479413 -0.06362068 0.17091475 -0.15828331 0.24379331 -0.15538236 0.2749776 -0.6381194 -0.11488271 -0.006755935 -0.37684214 0.14959227 0.05676461 -0.15929344 -0.06563265 0.15948819 -0.05306531 0.059647035 0.051591717 0.07714478 0.30291876 -0.10872395 -0.03793409 0.055631574 -0.3486179 -0.10367826 0.016157797 -0.2429052 -0.31525186 -0.056071505 -0.12023679 -0.13698858 0.5616478 -0.4433236 0.15217187 -0.033365138 -0.05594355 -0.14651902 -0.03015964 -0.29746184 -0.12449762 0.30910918 0.09695425 0.14458556 0.19555488 0.020934217 -0.45904434 -0.108271696 0.13005175 0.17100205 0.023567632 0.16533718 -0.335552 -0.024704384 -0.11785021 -0.14769 -0.23227915 -0.31347227 -0.3899773 0.12212583 -0.06216206 0.0651664 -0.19772603 0.3644924 -0.10459349 -0.20236501 0.16553466 -0.14674465 0.40137118 -0.25501817 -0.36704576 -0.10979281 -0.44121847 -0.24451542 -0.5134089 -0.0032724768 -0.23393409 -0.09071196 -0.3257965 -0.25000468 -0.22260578 0.16594435 0.022128873 -0.17052034 -0.11776765 0.20186502 -0.08546104 -0.23405443 0.23180899 -0.35792434 0.38468754 -0.11478546 0.040777728
today 0.6146058 -0.16452333 0.27396637 -0.21532287 0.28330055 0.030129839 -0.6060539 -0.0009511555 0.06760775 0.6287586 -0.44786757 0.2417026 0.17686212 0.19987227 -0.7437624 -0.00096688094 0.34714666 -0.5507108 0.23740958 0.2286152 -0.2958248 -0.015719786 0.680618 0.038737237 -0.11513745 0.62127614 0.097327925 0.80130535 -0.22431736 -0.3773542 0.117482886 -0.4326126 -0.22342142 0.4708661 -0.027102403 -0.51283497 0.30779895 -0.28931868 0.3606042 0.5271916 -0.7790084 0.17970999 -0.11846794 -0.0721577 -0.63880503 -0.011409222 -0.5355549 0.09081006 -0.095011644 0.45846727 0.5846248 0.32297266 -0.3616927 -0.29445642 -0.48782563 0.44834542 -0.039626315 0.10718511 -0.2813998 -0.34956262 -0.3703642 -0.36889014 -0.26502937 -0.5542958 -0.05867723 -0.4016719 0.4245811 -0.0058354316 0.025573952 -0.7307069 0.3364248 -0.20377359 -0.4568397 0.3973806 -0.11693644 0.36378866 -0.9638677 -0.015470676 0.113556154 -0.3749017 -0.07524179 -0.095624425 -0.3043652 -0.94271463 -0.14976998 -0.2996901 -0.823718 0.038707674 0.17549378 0.49618232 0.048701644 0.1733875 0.026046854 0.15106952 -0.48623884 0.37501398 0.056129076 0.601864 0.06464957 0.18342213
we -0.19663748 0.65164757 0.6388216 0.22269015 0.017162863 0.84746706 0.67928237 -0.6026452 -0.056497853 -0.3116008 -0.13899356 -0.26272243 -0.04948018 0.24077867 -0.83709157 -0.07437874 -0.2958427 -0.41943315 0.13294177 0.08806656 0.4184316 0.4282522 0.29282868 -0.17238958 0.27534592 0.08724166 -0.12636694 -0.5338082 -0.06323188 -0.7760737 0.19536746 -0.25807363 -0.09783739 -0.24946497 -0.62759423 0.14442739 -0.6954928 -0.17873599 0.1269497 -0.056453466 -0.14139439 0.5035161 -0.86307853 -0.26603132 0.19729997 0.32396957 0.48234606 -0.58563894 0.7168186 0.0047062547 0.12044106 0.34583667 -0.0877255 -0.5389778 0.0625176 0.49004206 0.38307244 -0.7125564 0.027532082 -0.27241158 0.36730203 -0.06850656 -0.0029984782 -0.08768566 -0.46172002 -1.0012156 0.43161112 -0.40621665 0.23989761 0.33039162 0.5576065 0.5748603 -0.45216432 0.218491 -0.36690465 0.058763735 0.40090424 -0.5065298 -0.09267875 -0.0115200365 -0.49381092 -0.7350089 0.59217536 0.31220952 0.03989115 -0.98701686 0.10794043 -0.5847349 0.0756047 -0.6259784 -0.36257085 0.23764491 -0.14633948 0.48860076 -0.46680796 0.57572645 -0.6443355 0.11145337 0.21141407 0.5328586
circles 1.0218433 -0.5777126 1.032662 -0.7652664 0.5186871 -0.060910977 -1.4658109 -0.5269591 -0.20224726 0.9526153 -0.45636067 0.6043131 0.26416096 0.34039265 -1.5667666 -0.20582229 0.5162354 -1.2512664 0.0674944 0.4561503 -0.42875084 -0.32335848 1.2117445 0.54056084 0.11083501 1.0958939 0.40080795 1.2165891 -0.52587444 -0.65606016 0.054573238 -0.99756265 -0.41400495 0.8244114 -0.3562891 -0.9560138 0.59366965 -0.77446777 0.65950686 0.8515753 -1.246511 0.4702832 -0.47546372 0.39371502 -0.8925888 0.22633813 -1.077615 0.08691509 -0.090923324 0.63128 1.3485441 0.65079015 -0.5384692 -0.45757675 -1.0452697 1.3064659 -0.114482656 -0.038334623 -0.57483816 -0.9376146 -0.6078758 -0.7627343 -0.49649155 -1.2060777 -0.30930367 -0.62735695 0.77375317 0.0705277 -0.21055073 -1.6414621 0.9226615 -0.38221735 -0.48409584 0.9124784 -0.39456415 0.7489132 -1.6525182 -0.0788742 0.10152571 -0.8762819 0.1528307 -0.8638637 -0.8292799 -2.2122657 -0.27530473 -0.4780486 -1.0849339 -0.2753229 -0.17705578 0.80214167 -0.33667788 -0.08062026 0.17808466 0.29167733 -0.72855663 1.1693678 0.2725481 1.2991933 0.36921316 0.33634877
has 0.18135926 0.31178045 -0.014567186 0.07824453 0.12500168 0.25547764 0.39404416 0.10252638 -0.032537438 0.026827494 -0.28041014 0.04739471 -0.0826831 0.07084726 -0.38244286 0.1116377 0.0757692 -0.29761174 0.26488435 0.09193414 -0.11050804 0.14137328 0.13352777 -0.21770202 0.21148266 0.07302292 -0.057351936 0.064635664 -0.2844814 -0.16072555 0.078048125 -0.14040233 -0.13680561 -0.010241104 -0.39301622 -0.19187416 -0.27542138 0.10291829 -0.036730833 0.38406697 -0.31945822 0.13692932 -0.0991032 -0.16827926 -0.14639935 -0.09155978 -0.045363195 -0.19610965 0.25081858 0.07569137 0.15415473 0.2354221 0.063547134 -0.46506113 0.059733473 0.002978189 0.41295758 -0.17605132 0.41214228 -0.2761809 -0.0030757547 -0.012382933 -0.04631704 -0.119785696 -0.08343295 -0.30471304 -0.0048561483 -0.036918085 0.20469964 0.05970951 0.2258239 0.020483002 -0.19096984 0.017322723 0.03769037 0.25841063 -0.11360052 -0.28807843 -0.1292175 -0.16340354 -0.2968389 -0.17254819 0.1769968 0.13217469 0.020265453 -0.53180295 -0.1615903 -0.09658826 0.31005666 -0.20241007 -0.006374572 0.040105995 0.0636516 0.04595396 -0.29277986 0.064388156 -0.2567449 0.22234382 -0.16568899 0.08664717
day 0.33138493 0.057620097 0.000935694 -0.26920038 0.22008324 0.045335975 0.15131545 0.243083 0.00038848637 0.18014832 -0.10021924 0.23521793 -0.07813176 0.14962786 -0.44011015 0.059158307 0.26370642 -0.39142483 0.20970382 0.15683664 -0.37579408 0.0129680345 0.18989882 0.074528925 0.1911136 -0.026434612 0.10275225 0.26752335 -0.4129189 0.0044533033 0.027658693 -0.21387564 -0.13020425 0.12676093 -0.38562274 -0.46304 -0.06674257 -0.0046709124 -0.09445085 0.748133 -0.43076643 -0.12955293 0.1882601 -0.09363672 -0.29487675 -0.097419135 -0.39751726 0.036852535 0.1304531 0.3369386 0.18275245 0.22476198 0.23256339 -0.43321618 -0.062689215 -0.030441925 0.41462162 0.07624411 0.4148284 -0.4490368 -0.31444868 0.103058286 -0.06677987 -0.29109773 -0.11411898 -0.12578896 -0.16935013 0.1306986 0.117820226 -0.027156288 0.24989247 -0.15484548 -0.08091059 -0.031022657 0.14440608 0.48628613 -0.25000077 -0.15517345 -0.18622793 -0.43116507 -0.24663694 -0.33880976 -0.07303385 -0.05075372 -0.09540511 -0.36809203 -0.06674803 -0.07856371 0.283468 0.11075809 -0.07126639 -0.07688831 0.26720345 -0.14477465 -0.095399655 0.008074277 -0.15977912 0.45039845 -0.27409023 -0.015859483
was 0.27227175 0.4675748 -0.057570845 0.14671706 0.101853296 0.27223185 0.54548746 0.2419496 0.085356005 0.023125336 -0.33537975 -0.0972111 0.040152825 -0.0009869792 -0.3651233 0.29297844 0.044771895 0.021347985 0.09668356 0.13189653 -0.037363227 0.27850178 0.14211138 -0.14957532 0.3054335 -0.09880395 0.21532516 0.048650455 -0.4108853 -0.10845379 0.20974652 -0.043683127 -0.41992927 -0.004240154 -0.27671486 -0.21644309 -0.36212292 0.0720952 -0.28970623 0.4307574 -0.4740315 0.06450425 0.07783022 -0.47191504 -0.1403886 -0.051183224 -0.07983141 -0.2937558 -0.012376992 0.29172328 0.020316042 0.05362475 0.029080808 -0.4284273 0.2176072 -0.26094455 0.48019752 -0.11574371 0.5528893 -0.22741958 -0.12899996 0.1934521 0.030794408 -0.17573167 -0.29136884 0.03362012 0.063444845 0.14510046 0.28054804 0.4557484 0.07381589 0.02060549 -0.31901038 -0.13307342 0.35902435 0.2676113 -0.039171707 -0.013000456 -0.42712095 -0.15601422 -0.38552797 -0.081368916 0.21582122 0.35316634 0.1253865 -0.53241175 -0.056188475 0.13498858 0.45255423 -0.1000147 -0.04531435 0.06648047 -0.05984651 0.2559953 -0.32151014 -0.025980964 -0.32818556 0.15699764 -0.1616895 0.21904832
cool 0.17332982 0.35428318 -0.11854433 0.40791342 0.30984274 0.16581194 0.8280714 0.32129928 -0.34923446 -0.35374644 -0.52046144 -0.04764356 0.066113785 -0.76585114 0.2945679 0.6146448 -0.56827635 0.2908565 0.079719804 0.20282234 0.21780224 0.2932912 0.09928884 -0.23028786 0.67464656 -0.28235474 0.6568677 0.24809445 -0.87534004 -0.5655362 0.37162125 -0.3457028 -0.6793064 -0.53973746 -0.41927406 0.06959253 0.06521498 -0.19463533 -0.93851906 0.17554753 -0.41240728 0.54732907 0.051481467 -0.878866 0.2039763 -0.23006733 0.50384027 -0.48715007 -0.2914372 -0.12186538 0.28633672 0.15810496 -0.08916562 -0.8837767 0.711727 -0.13178289 0.38069138 -0.489354 0.84252375 0.14737551 -0.30148268 0.6966146 0.18773976 -0.02026151 -0.54492193 0.08128671 0.5565479 0.21150647 0.5882462 0.58412147 0.1848509 -0.52984643 -0.5889376 -0.1914686 0.5722191 0.39646477 0.55046576 0.018723909 -0.945012 -0.30443147 -0.33377755 0.19770223 0.926136 -0.018320728 0.9588124 -0.5596325 0.011313431 0.52087355 0.43659028 0.03651226 -0.2766683 0.15235926 -0.50845414 0.5002771 -1.0528791 0.1942219 -0.48401126 -0.14987414 -0.0069849305 0.60910136
free 0.044215225 0.29144415 -0.13985966 0.097763345 0.33532256 0.47036436 0.31214336 0.38015205 0.23142079 0.38244247 -0.5853867 0.18716429 -0.05551507 0.29400623 -0.5620099 0.037964124 0.21506776 -0.52561337 0.42663264 0.48048607 -0.36391836 0.0066165393 0.27734104 -0.3492982 -0.50623953 0.2875855 -0.32356364 0.20041673 -0.12854332 -0.3261157 0.11267852 -0.16754112 -0.052668236 0.24692775 -0.044856656 -0.39241743 -0.3933823 0.060279958 0.26164985 0.59108895 -0.56086046 -0.05791131 -0.03132458 -0.52774197 -0.58906806 -0.33379078 -0.02814914 -0.09057784 0.35408524 0.29204336 0.18911898 0.40530086 -0.103058405 -0.41469955 -0.14655685 -0.135503 0.32302743 0.11499094 0.20804523 -0.19899476 0.11954984 -0.2301447 -0.19345884 -0.26335526 0.28887263 -0.6624119 -0.07678411 -0.32744977 0.030537348 0.11807627 0.20680676 0.08641087 -0.33974284 0.027689809 -0.29879978 0.11560894 -0.5436741 -0.49839097 0.05468066 -0.03754237 -0.45769477 -0.042480018 0.094462626 0.08046013 -0.33819056 -0.67778575 -0.59062004 0.043968912 0.48879904 -0.080582 0.23382422 0.35823628 0.28105694 0.024266595 -0.4103215 -0.048725203 -0.20079947 0.2644454 -0.10456537 -0.14667876
there 0.12986685 0.4993534 0.12568569 0.23697391 0.012439198 0.43161592 0.74791735 -0.0399509 -0.019512452 -0.22676237 -0.1836499 -0.19250606 0.056445073 -0.01835044 -0.3578423 0.25004593 -0.091204904 0.08127678 -0.023153432 0.06250346 0.22366174 0.38097668 0.15206997 -0.12540416 0.4865031 -0.19409786 0.21821938 -0.19289859 -0.37005544 -0.28869984 0.2572141 -0.074507155 -0.3255213 -0.19115329 -0.45383954 -0.029644264 -0.48932195 0.0057533 -0.2739595 0.21192898 -0.2186108 0.18425824 -0.16103311 -0.4542829 0.04843318 0.080366306 0.21120599 -0.3649827 0.13552736 0.18136878 0.011419975 0.05330338 0.012036418 -0.42872608 0.2665775 -0.12107059 0.5188651 -0.37223026 0.501278 -0.17554912 0.024604328 0.23387443 0.12564309 -0.09459737 -0.43933105 -0.1636955 0.23660925 0.05687228 0.29147777 0.49938762 0.1885814 0.14675929 -0.3553315 -0.13822071 0.28374168 0.17361575 0.3114958 -0.09233036 -0.41694072 -0.049434163 -0.38385957 -0.2600225 0.4213742 0.4051318 0.24196671 -0.6434542 0.17382953 -0.07320009 0.31462544 -0.27936438 -0.19482593 0.104186304 -0.14262396 0.36189976 -0.3295708 0.12147004 -0.44068196 0.04683321 -0.043971423 0.41766518
as 0.19426268 0.42255312 0.12498399 0.10028229 0.020257939 0.3859618 0.3091875 -0.08040899 0.007969153 0.07409602 -0.22747892 0.036980096 -0.08581405 0.24111639 -0.63490576 -0.024349133 0.07527719 -0.1775433 0.24297725 -0.009099348 -0.08639905 0.17182535 0.2287177 -0.1676119 0.22703059 0.15350379 0.01686999 -0.022390164 -0.19156033 -0.13383271 0.081414215 -0.20036545 -0.13453446 0.010974121 -0.44885153 -0.21555647 -0.42820498 0.052817713 0.11133516 0.501398 -0.29286712 0.0881653 -0.21367204 -0.10523294 0.0069324686 0.10359478 -0.1586897 -0.2507881 0.349445 0.20642845 0.13113116 0.17143571 -0.050873514 -0.4608983 -0.10500685 0.100634634 0.35435364 -0.26826584 0.29944223 -0.37452647 0.062412422 -0.066893 0.00032588874 -0.1539659 -0.37838012 -0.5321773 0.11611822 -0.051166866 0.17678843 -0.014318194 0.35541165 0.094608575 -0.29568973 0.08579239 -0.06061932 0.24111363 -0.121803865 -0.16452555 0.08855445 -0.241833 -0.24925154 -0.5038844 0.018360497 0.09246339 -0.0566193 -0.510256 -0.20895095 -0.28185445 0.2701053 -0.29854363 -0.073029466 0.024802765 0.0055999346 0.15424836 -0.2071191 0.09630912 -0.3912658 0.28350112 -0.110693656 0.13272402
here 0.039639402 0.44319683 -0.032837868 0.19433054 0.092704624 0.33155125 0.45508704 0.10031744 0.09401044 -0.047280293 -0.3550231 -0.07730976 0.0015996211 0.058013923 -0.4487333 0.18435931 -0.12306868 0.037506595 0.079305135 0.12576781 0.083885066 0.2457313 0.1158882 -0.11731251 0.12449992 -0.10196723 0.17820296 -0.09444536 -0.24593583 -0.08951848 0.2521521 -0.052494034 -0.22141851 -0.05021301 -0.24000676 -0.08925547 -0.3109588 -0.052186 -0.1921073 0.25012755 -0.30317706 0.17077321 -0.059519004 -0.4649825 -0.014852995 0.051745187 0.13871232 -0.31640956 0.07966078 0.25638172 -0.03550182 0.06902688 -0.02859163 -0.32207558 0.23422933 -0.13636087 0.325919 -0.081945054 0.29949167 -0.090224385 0.026467077 0.21842712 0.03205986 -0.07438843 -0.36239728 -0.27070498 0.16035166 -0.06234784 0.21880768 0.4462091 0.124628745 0.081863604 -0.42083022 -0.09744793 0.07050684 0.14233309 0.10311749 -0.15007125 -0.30375734 -0.035410997 -0.45702878 -0.18910126 0.37622187 0.43273348 0.08147387 -0.44473714 -0.110620886 0.0887005 0.37368107 -0.15526864 -0.103902414 0.13153595 -0.1475074 0.2681955 -0.29986253 0.022866292 -0.41531622 0.06453943 -0.042164486 0.348977
what -0.009804799 0.36441687 0.36280462 0.06452659 0.07470055 0.3873762 0.30762497 -0.28690445 -0.07945539 -0.16407718 -0.09563372 -0.12619801 0.023484005 0.07871189 -0.64409596 0.058377825 -0.14519158 -0.14879209 -0.05428707 0.15753305 0.27598152 0.2600155 0.21107377 -0.008496852 0.31538537 -0.0047326316 0.16431138 -0.2692272 -0.25315255 -0.3405302 0.17747486 -0.16365083 -0.19425572 -0.096421584 -0.4003652 -0.021831129 -0.3992315 -0.16727853 0.0033776532 0.0952313 -0.21843985 0.31648338 -0.35732856 -0.25466338 0.06797034 0.265869 0.19510572 -0.35940626 0.21474725 0.17135012 0.15453474 0.15291467 -0.024386799 -0.3141123 0.032428604 0.26818448 0.28976455 -0.3788413 0.13704355 -0.2378125 0.13360286 0.07429879 -0.025327595 -0.16560514 -0.40425083 -0.42742598 0.2865836 -0.11634959 0.18985857 0.26931623 0.3598795 0.19467804 -0.2768405 0.114365615 -0.037657853 0.14508145 0.1365324 -0.16215463 -0.22113448 -0.039697237 -0.32692897 -0.46942192 0.3147686 0.19519128 0.042127993 -0.5461378 0.095780276 -0.23412243 0.10603747 -0.29853913 -0.28590143 0.1083951 -0.10347276 0.39004266 -0.32214126 0.3274715 -0.34185338 0.14546834 0.17577843 0.42912704
maps 0.063967705 -0.04947157 0.84630394 -0.84696305 0.29493386 0.09966988 -0.27613083 -0.7376807 -0.4817975 -0.16029425 0.26767296 0.80418074 -0.2809024 0.49252307 -1.4924595 -0.5425089 0.04468904 -1.1460668 -0.04349018 0.2577622 -0.15259598 -0.44174048 0.30445805 0.5284192 0.607164 0.20576657 0.06730348 -0.10841772 -0.4124752 0.07746234 -0.078648925 -0.7540521 0.19682124 0.04727197 -1.2901695 -0.6016562 -0.22849636 -0.4271772 0.2929898 0.8007164 -0.09508446 0.30196443 -0.656406 0.85493225 0.0790985 0.4980082 -0.6397599 -0.25656825 0.89639974 0.0043362426 0.62923646 0.6337754 0.42212087 -0.54618996 -0.54055446 0.9506102 0.44844535 -0.4300956 0.22810467 -1.2688931 0.03837012 -0.297509 -0.15556052 -0.6200951 -0.62134504 -0.99130785 0.064208426 -0.06421298 -0.2858386 -0.9044778 1.1005979 -0.049283084 0.20762351 0.49436802 -0.6200621 0.8652601 -0.1696224 -0.7631318 0.118231475 -0.72309715 -0.15586227 -2.025353 -0.40990937 -0.6129393 -0.38326773 -0.6483288 0.253837 -1.2480972 -0.39834622 -0.43451545 -0.862938 -0.75006884 0.66026384 -0.29480568 -0.01064781 0.91632235 -0.35558158 1.0391616 -0.030645376 -0.027238814
people 0.17400953 0.46096188 0.1374525 -0.025279026 0.07321955 0.31002423 0.63818586 -0.053655572 -0.058696978 -0.25257453 0.011548809 -0.27850944 -0.06674968 0.049876913 -0.44423354 0.19903545 -0.029891137 -0.11723154 0.018146988 0.006578533 0.11580928 0.3370182 0.14725427 -0.07356928 0.51989347 -0.2375847 0.08621997 -0.16241078 -0.38339236 -0.2755011 0.20127684 -0.06290338 -0.20149651 -0.17985463 -0.41462475 -0.052942872 -0.38105208 0.011244822 -0.25139493 0.26008534 -0.25795677 0.1126599 -0.16765046 -0.29591554 0.023185927 0.080212496 0.01399185 -0.23847206 0.17741911 0.18594995 0.04854466 0.09901763 0.19199958 -0.4259886 0.18571673 -0.017990742 0.6072064 -0.39050925 0.4601575 -0.2843885 -0.054270312 0.27647284 0.11577947 -0.14192562 -0.31108496 -0.16438992 0.13486987 -0.043354522 0.3683657 0.4183057 0.18944661 0.16705634 -0.21648638 -0.029940614 0.24768561 0.22862422 0.20560272 -0.07637646 -0.4413363 -0.13814446 -0.4071433 -0.25226834 0.38046056 0.4021128 0.094285235 -0.6210185 0.23807979 -0.17071582 0.26770845 -0.25674146 -0.22158796 0.05131408 -0.05012178 0.22170837 -0.25986263 0.13916299 -0.4442969 0.21649222 -0.07631037 0.4073425
if -0.26798496 0.7540558 0.40309677 0.38076243 0.05794261 0.59895825 0.47586274 -0.5222471 0.0967768 -0.24041718 -0.40267 -0.15870194 0.10096049 0.119209535 -0.9462534 0.00040821906 -0.4188375 0.14905481 -0.044407338 0.20119591 0.517719 0.31700656 0.17353384 -0.02288642 0.14183095 0.01402923 0.32513705 -0.62816393 -0.053487495 -0.219395 0.41685757 -0.08091132 -0.22585523 -0.12317925 -0.48004368 0.16001992 -0.72443414 -0.24743977 0.07712611 -0.2165881 -0.0363438 0.44958806 -0.56032705 -0.5249593 0.3571967 0.58110887 0.5936835 -0.63213336 0.22363552 0.33035198 -0.06504405 0.07924287 -0.28983626 -0.22622916 0.10462042 0.16034414 0.18334438 -0.35162252 -0.07076575 0.046399303 0.43300134 0.05399284 0.07483377 0.038074426 -0.75644696 -0.69513696 0.49199757 -0.27794436 0.066995494 0.6215249 0.33115572 0.45091254 -0.57774514 0.08079457 -0.27917957 0.017873408 0.4024669 -0.20600186 -0.11893105 0.18916532 -0.49740228 -0.6471661 0.542874 0.58501154 0.07647227 -0.5610392 -0.03661256 -0.23943627 0.16589713 -0.51835316 -0.33754072 0.20286508 -0.34598526 0.65578717 -0.3728981 0.30219892 -0.5950267 -0.069408976 0.23442149 0.6335378
go -0.07080501 0.09880247 0.7098043 0.057625458 0.35329527 0.40709856 0.16913587 -0.36139303 -0.49156347 -0.29160684 -0.2380432 -0.28584266 -0.049785748 -0.35639653 -0.44014004 0.32007298 -0.28798848 -0.64959455 0.02399357 0.4618191 0.23328434 0.47255546 0.1991036 -0.12511079 0.20143336 -0.02041197 0.2631046 -0.28875446 -0.772829 -1.0885133 0.26422423 -0.19076842 -0.30515644 -0.19110563 -0.32981515 0.19289799 -0.31621423 -0.68130696 0.09455309 0.0044740136 -0.27392983 0.48120123 -0.45872104 -0.6240031 -0.15926832 0.27262858 0.6413027 -0.1708261 0.10207924 0.2563638 0.6406091 0.37803143 0.010011945 -0.5017615 0.057227038 0.6654433 0.42758635 -0.85195184 0.19389907 -0.12948672 0.12673818 0.48333094 0.012467942 -0.19449332 -0.2138756 -0.3282216 0.38111168 -0.3293318 0.53070575 0.5210553 0.55728114 0.24701801 -0.2616602 0.5033946 -0.09621248 0.1610268 0.2967523 0.033239942 -0.5092949 -0.033830043 -0.34969115 -0.08133363 0.79916245 0.118163444 0.34434304 -0.67734045 0.37752467 -0.024148999 -0.08637308 -0.23482506 -0.35116756 0.49649888 -0.43875033 0.6171232 -1.0389024 0.46718672 -0.10112112 0.03189908 0.627599 0.9232384
good 0.25316098 0.15237123 0.21619622 -0.109263614 0.1415416 0.17341308 0.028188795 -0.12505426 -0.056332167 0.097378425 -0.18210606 0.19702265 -0.0071592242 0.13250957 -0.6289042 -0.0147634465 0.065497294 -0.24580199 0.034356687 0.17793772 -0.11758125 -0.00862541 0.28760773 0.09497574 0.2910061 0.11312833 0.22431548 0.1281193 -0.31977674 -0.098781444 0.1047419 -0.3304747 -0.22615656 0.09544805 -0.42988715 -0.3037467 -0.15219246 -0.12923846 0.057141718 0.46251297 -0.39121196 0.12881275 -0.11869539 -0.07562604 -0.10925102 0.12745191 -0.24725235 -0.14465922 0.15147611 0.24350093 0.28263038 0.21887134 -0.0616898 -0.37794837 -0.09016719 0.23730436 0.2954334 -0.15556291 0.21395774 -0.42046383 -0.107988685 -0.040387835 -0.0868622 -0.3206042 -0.36455506 -0.3127541 0.2039471 0.03940276 0.04753321 -0.15210418 0.35282502 -0.04670621 -0.2388463 0.13081802 -0.0069319154 0.34481174 -0.26737976 -0.13420513 -0.12752606 -0.33670965 -0.20796111 -0.5485324 -0.0981673 -0.2570144 0.006433325 -0.42748812 -0.2137763 -0.17545828 0.15234795 -0.046003155 -0.21653613 -0.070693016 0.033201177 0.16402806 -0.2566804 0.31119898 -0.19989856 0.400481 -0.04192563 0.20486943
apps -0.0065753236 0.23026764 0.3166105 0.035866663 0.18939035 0.42920533 0.080517456 -0.23027062 -0.026599443 0.09626882 -0.3338907 0.17650846 -0.09881672 0.23532774 -0.7528802 -0.15514587 -0.053426135 -0.4610471 0.26870567 0.16759779 -0.031745408 0.028715616 0.34750566 -0.12714307 -0.052925102 0.3309476 -0.0821712 -0.013891867 -0.0609527 -0.365049 0.056595597 -0.32723626 -0.0115787145 0.09438421 -0.40708524 -0.19688691 -0.23816337 -0.22728992 0.25817633 0.22478326 -0.20853354 0.2673396 -0.41305542 -0.07510665 -0.07517432 0.13637097 0.059881877 -0.22374077 0.39974293 0.16603988 0.30106604 0.33664864 -0.15617396 -0.37761882 -0.17199302 0.37150565 0.18790162 -0.18230948 -0.039812256 -0.26442444 0.17072798 -0.15065052 -0.10268456 -0.18462692 -0.2814249 -0.7435871 0.21280412 -0.24899802 0.006096329 -0.12128686 0.45945963 0.15474339 -0.32261956 0.20708422 -0.41431555 0.21228565 -0.1196523 -0.37895358 0.15271093 -0.16209662 -0.31023142 -0.5391636 0.1506427 -0.16110867 -0.10313769 -0.5294704 -0.3042022 -0.34047702 0.13141635 -0.21172385 -0.14247027 0.0905306 0.049344152 0.15639111 -0.32654232 0.29495254 -0.29081035 0.29944494 0.102839135 0.22159249
mobile -0.039219905 0.083920754 0.6523257 -0.5502383 0.2343906 0.18615614 -0.14873359 -0.6125321 -0.34657592 -0.117235735 0.13608103 0.6242075 -0.25887486 0.4048689 -1.1830033 -0.46474233 0.0060217655 -0.8858547 0.05283878 0.23952523 -0.1023528 -0.3247405 0.32802793 0.34602764 0.43894228 0.21155488 -0.020499345 -0.11401167 -0.34235817 -0.06435266 -0.060415663 -0.59288126 0.19514538 0.07965965 -1.0599134 -0.5263833 -0.24979334 -0.32102457 0.37052822 0.60459805 -0.03138 0.27546898 -0.61945695 0.55543876 0.027813654 0.38709623 -0.42521384 -0.21788661 0.75978965 0.019253781 0.4748343 0.5523316 0.28176588 -0.49067292 -0.39629206 0.822246 0.37718582 -0.33734286 0.15927848 -0.90191835 0.046047885 -0.21731941 -0.14843272 -0.44318017 -0.50413513 -0.99741215 -0.009144253 -0.113655165 -0.17717145 -0.6622231 0.9260773 -0.0079258215 0.025787141 0.38643363 -0.55112946 0.6381611 -0.12093567 -0.6837549 0.16454227 -0.5073595 -0.1705967 -1.5544326 -0.2604009 -0.42479807 -0.2588964 -0.6053541 0.10689187 -1.0279057 -0.27626216 -0.3432017 -0.64663684 -0.49737135 0.5464105 -0.21588829 0.0050959704 0.6968918 -0.3937339 0.809982 -0.026222706 0.053676855
network 1.207781 -0.5587495 1.1287109 -0.8704985 0.81223124 0.015193499 -1.4978101 -0.35343552 -0.17243913 1.2249721 -0.6504882 0.7739654 0.34798306 0.3523833 -1.8239087 -0.049238272 0.7609908 -1.620899 0.123466246 0.7648166 -0.6972765 -0.3726883 1.4033897 0.49694905 0.065411754 1.3687109 0.41630235 1.5120054 -0.91213953 -0.9486108 0.15067326 -1.1247034 -0.69247574 1.031396 -0.43809947 -1.1942576 0.52599597 -0.7750297 0.838221 1.1415292 -1.6430213 0.5430529 -0.4105359 0.36467263 -1.3666486 0.11006847 -1.2498423 0.09061662 -0.034512896 0.80181366 1.6782413 0.85404193 -0.6282023 -0.64582115 -1.1507684 1.4610047 0.15134758 -0.03000784 -0.43940508 -1.1545353 -0.7750688 -0.9031473 -0.64489317 -1.472013 -0.13143744 -0.6696537 0.8080192 0.08573818 -0.102377504 -1.7692794 0.967164 -0.43092698 -0.5367424 1.1030695 -0.41396898 1.0120196 -2.1188176 -0.28870448 0.07545254 -1.0726544 0.045184545 -0.77135617 -0.9603876 -2.5353944 -0.37435398 -0.7843059 -1.3613033 -0.23779453 0.038969465 0.8996826 -0.36299032 0.039740354 0.25625664 0.37409726 -1.1082255 1.3373803 0.3297495 1.5132574 0.33340293 0.285721
awesome 0.058364958 0.33112738 0.0021491128 0.08901699 0.17657597 0.37618014 0.3793723 0.16117944 0.10118797 0.18280135 -0.34845465 0.24696825 -0.06220404 0.20635569 -0.55144787 0.0015705505 0.084872 -0.27951092 0.24885842 0.28543723 -0.1713482 0.0022665856 0.21071403 -0.18442583 -0.07579285 0.1591262 -0.10437359 0.056019373 -0.19330415 -0.19706056 0.0855552 -0.21581304 -0.13539833 0.10377532 -0.3280499 -0.3195799 -0.37131345 0.117719084 0.102892734 0.42550287 -0.36164027 0.10262474 -0.15291378 -0.24000616 -0.25235516 -0.09903491 -0.09441846 -0.2436888 0.34659147 0.1124484 0.13498192 0.28997234 -0.05308273 -0.42913833 -0.06845493 -0.06210081 0.34156922 -0.043558624 0.29910657 -0.27241817 0.043693665 -0.17501174 -0.11158872 -0.22569035 -0.085781254 -0.481703 0.01938961 -0.080651656 0.06960704 0.04739498 0.26651293 0.047437303 -0.27474838 0.036986712 -0.12334571 0.23410757 -0.3030317 -0.42741573 -0.027664898 -0.17030473 -0.3100492 -0.30646035 0.01757544 0.0065296274 -0.13271292 -0.58117574 -0.3306981 -0.1557143 0.31803674 -0.1719991 -0.035261694 0.0668356 0.20256138 0.055153232 -0.23075384 0.09856799 -0.2664788 0.24094541 -0.11240974 -0.07251742
love 0.11846205 0.47912878 -0.14812137 0.34161383 0.21005502 0.19743699 0.55298775 0.25280675 0.016109789 -0.060612433 -0.51714385 -0.038527492 0.11506313 -0.35068098 -0.17851323 0.44119152 -0.3016793 0.32756224 -0.016461521 0.2327585 0.17294537 0.23447393 0.10973694 -0.13074729 0.2801193 -0.123945355 0.48463252 0.07918951 -0.5303958 -0.1780991 0.37103012 -0.12646998 -0.5740585 -0.1776421 -0.20133491 -0.041582875 -0.19232425 -0.05157977 -0.52396214 0.17676865 -0.4916603 0.32565567 0.10735954 -0.77256376 0.019472906 -0.042155214 0.24843301 -0.44469455 -0.26562518 0.1810167 0.09179914 0.022808379 -0.15776609 -0.44242045 0.43759432 -0.22735794 0.31431493 -0.107186176 0.52381706 0.12259538 -0.13766757 0.37781033 0.047860313 -0.08717085 -0.41932583 0.063882925 0.33128408 0.1384902 0.33800623 0.5968095 0.038100187 -0.19505584 -0.5488345 -0.15548584 0.3847025 0.2483775 0.16807185 -0.02174447 -0.6477622 -0.13302538 -0.4159328 0.088550776 0.5528685 0.27868944 0.44886574 -0.44186637 -0.18637744 0.46677378 0.4951284 -0.0259588 -0.14695992 0.12924215 -0.3619109 0.48568013 -0.6633117 0.057825927 -0.36994147 -0.07155971 -0.03726824 0.4524422
more 0.043755475 0.099384904 0.51106393 -0.15575334 0.15011926 0.20870963 -0.041564137 -0.40895018 -0.23035274 -0.10423384 -0.10473319 0.113575265 -0.070078306 0.08232144 -0.6494696 -0.08787027 -0.11360882 -0.41143692 0.0059983823 0.14238869 0.1162676 -0.0009126599 0.28916457 0.11776395 0.26340505 0.14874478 0.14579622 -0.032698467 -0.27880752 -0.35450816 0.091333404 -0.343358 -0.054936416 0.0037203336 -0.49204066 -0.13645993 -0.13902844 -0.31689352 0.13437465 0.161406 -0.13979627 0.3370047 -0.47103366 0.08674024 0.028656062 0.31658956 0.0010377002 -0.23825774 0.26509276 0.07535575 0.3641549 0.2976404 0.0006169544 -0.30835807 -0.16465163 0.5291801 0.18089157 -0.41552594 -0.03484223 -0.37867633 0.031143585 -0.018542279 -0.024425713 -0.22219999 -0.37977886 -0.5024611 0.2992061 -0.15713657 0.036491 -0.196462 0.48118582 0.042010527 -0.19044998 0.28545713 -0.24956983 0.2516612 -0.026812753 -0.17134982 -0.0507303 -0.19268934 -0.11823243 -0.63496774 0.11025495 -0.31744826 0.012453775 -0.43258375 0.015665289 -0.4213935 -0.12371834 -0.12909248 -0.35547304 -0.060949195 -0.04330245 0.21467188 -0.31839037 0.49838576 -0.24347101 0.35880998 0.16858596 0.38869718
temporary 1.0254273 0.12425092 -0.62919533 0.14709051 0.6313568 -0.11857688 0.13049102 1.1123312 0.26513317 0.7405805 -0.8855039 0.01342234 0.48008102 -0.6781445 -0.064971685 1.2188475 0.44804248 0.38924655 -0.33770975 0.99571866 -0.4719044 0.2530918 0.54230505 -0.010332992 0.20722315 -0.036470436 0.8248389 1.0951943 -1.4287899 -0.09731783 0.68026406 -0.05857477 -1.3052783 0.5168603 0.34297988 -0.8811561 -0.0355124 0.0026180157 -0.65236056 1.1392841 -1.5734954 -0.1338393 1.0917033 -1.4526749 -1.2571436 -0.6975409 -0.47528952 -0.051182996 -1.153214 0.98393726 0.54965097 0.010234531 -0.28323072 -0.4093721 0.48645526 -0.73197573 0.72266066 0.52554375 1.238075 -0.030091258 -0.9793016 0.569051 -0.13108951 -0.94571537 0.09373767 1.1865624 0.18588309 0.79601943 0.35951874 0.706207 -0.39784044 -0.74526507 -0.7727641 -0.3985168 1.3327264 0.55830246 -1.0842412 0.4629493 -1.4077839 -0.25854152 -0.5970074 0.9340793 0.11714704 -0.023063177 0.23892257 -0.6222333 -0.7146625 1.584111 1.2779546 0.79577255 0.16697013 0.41445583 -0.29931805 0.57541543 -1.1569961 -0.24828921 0.18223785 0.3200539 -0.12719566 0.32771802
re -0.15651062 0.40616897 0.68253994 0.0739124 0.082967155 0.5022786 0.26954857 -0.64042777 -0.23388207 -0.28487292 -0.048907824 -0.31233618 -0.08827964 0.16242293 -0.8171403 -0.024769558 -0.2014914 -0.36777633 -0.042726286 0.1009817 0.44254732 0.4352951 0.31674832 -0.11868882 0.24284159 0.075204305 0.06179466 -0.50271434 -0.13942163 -0.72377765 0.20056133 -0.06889099 -0.1413708 -0.13840342 -0.51115227 0.30060497 -0.4653298 -0.29424495 0.23630272 -0.084135994 -0.09189551 0.41621614 -0.6180761 -0.2998907 0.114631794 0.41388112 0.5054157 -0.28530973 0.3865764 0.17906637 0.21618944 0.27214772 -0.052898366 -0.28217664 -0.014536054 0.57372594 0.32365245 -0.6459628 -0.08329473 -0.2205766 0.4048463 0.11050055 0.09170708 -0.07996841 -0.42915556 -0.6836367 0.35648963 -0.4477377 0.3303458 0.3659549 0.43766317 0.5222591 -0.30456045 0.3181189 -0.29194355 -0.12567112 0.26970333 -0.18615845 -0.1473837 0.1340531 -0.424746 -0.60249466 0.55922407 0.21942352 0.14375567 -0.6232786 0.24500096 -0.4896928 0.007666111 -0.34238306 -0.3466333 0.22019377 -0.26752454 0.546227 -0.4494007 0.477077 -0.47422493 0.18853493 0.4401385 0.71780264
opening 0.8757654 0.2833166 -0.58287615 0.22562966 0.5448892 -0.0624219 0.32839295 0.943142 0.21467943 0.58643067 -0.9136533 0.03326083 0.5072703 -0.68638325 -0.18608673 1.1398709 0.2614854 0.44627297 -0.36419648 0.9682084 -0.37492654 0.2766291 0.4904084 0.009977933 0.31617352 -0.13484517 0.92375386 0.8203414 -1.4268385 -0.06683135 0.6773349 -0.08226353 -1.3224026 0.42824462 0.17006671 -0.8001758 -0.22850204 0.023125887 -0.7360992 1.0470623 -1.4195102 -0.011594581 0.9102626 -1.4403036 -1.0185286 -0.5276476 -0.28969517 -0.23562576 -1.0546522 0.86458236 0.48233715 0.012361823 -0.21993104 -0.4473816 0.53687376 -0.72332853 0.8328851 0.35861996 1.259752 -0.048700947 -0.8590495 0.5493725 -0.11446144 -0.8393079 -0.16677494 1.0722028 0.27924624 0.7506878 0.43800855 0.85802835 -0.32108632 -0.64228827 -0.79230756 -0.39882624 1.2576853 0.5082187 -0.84673697 0.34956437 -1.4050075 -0.24727648 -0.65712297 0.693705 0.18982984 0.18042785 0.37197375 -0.72745454 -0.6024921 1.467393 1.1775535 0.563372 -0.04454957 0.29790676 -0.34139574 0.6560196 -1.1467682 -0.17840753 0.078082345 0.27972806 -0.085779 0.3831688
how -0.058943786 0.5318963 0.19493428 0.2017881 0.02963405 0.432634 0.61560845 -0.14911404 -0.028210307 -0.21889766 -0.19655053 -0.09435209 -0.029147878 0.062200125 -0.54723036 0.12508066 -0.25427082 0.0006379565 0.020427851 0.116219044 0.2759325 0.2658082 0.13312754 -0.05744181 0.33913916 -0.07887783 0.12870513 -0.3028098 -0.2961018 -0.2582406 0.23271076 -0.116173744 -0.23127118 -0.1808731 -0.47509396 0.008274723 -0.5019955 0.0013786473 -0.14541928 0.13362306 -0.22695033 0.29563278 -0.29348746 -0.32568368 0.13527638 0.15404727 0.23165892 -0.4958345 0.24794394 0.08580092 0.016660605 0.13273077 -0.012126835 -0.43300202 0.21783496 0.0799284 0.3689169 -0.3471554 0.35761493 -0.18594529 0.10936361 0.1556682 0.02930174 -0.04601216 -0.42716172 -0.432448 0.21826302 -0.087623194 0.25517073 0.4085401 0.27454382 0.1673911 -0.3583945 -0.023828963 0.050580062 0.18429616 0.27018988 -0.2397968 -0.30318394 -0.073529206 -0.40640986 -0.43398714 0.41863787 0.3884813 0.1224329 -0.60801613 0.05876599 -0.14218058 0.2462267 -0.38709676 -0.27558738 0.050679035 -0.12931351 0.36791384 -0.33057997 0.24365377 -0.5309778 0.05858757 -0.0029047667 0.39137223
don -0.1046084 0.32691136 1.1032736 0.102345474 0.34382233 0.6344907 0.42325357 -0.76804113 -0.6557564 -0.53863305 -0.24234359 -0.4648251 -0.09139233 -0.43248302 -0.7111743 0.36303607 -0.5350716 -0.6795248 -0.09183329 0.46719748 0.51417065 0.7576974 0.31072444 -0.20210221 0.68564564 -0.105820306 0.5106133 -0.5538846 -1.0079443 -1.4611183 0.38769528 -0.27823046 -0.5044061 -0.45524767 -0.8066929 0.2993653 -0.61291826 -0.88216835 0.005990133 0.045110445 -0.24719329 0.8070118 -0.8311755 -0.78759754 0.051005848 0.5222821 1.0414693 -0.49306673 0.3196514 0.27639744 0.6878985 0.49830163 0.054789778 -0.7455015 0.2250819 0.9772953 0.61250496 -1.3152193 0.3309949 -0.34909555 0.20900308 0.72630703 0.09926316 -0.22789364 -0.6264544 -0.59929955 0.71373415 -0.5094786 0.74579453 0.81002593 0.8498578 0.37606135 -0.46351 0.5570731 0.005462686 0.22710931 0.7179812 0.048840847 -0.76879734 -0.0384241 -0.56836545 -0.46487638 1.244855 0.31111822 0.5603522 -1.1580344 0.6883852 -0.25002784 -0.01497505 -0.44208604 -0.63425845 0.6234163 -0.689227 0.92645127 -1.3866011 0.8396477 -0.44245434 0.091146424 0.8180543 1.4222534
